{"learner":{"attributes":{"scikit_learn":"{\"_estimator_type\": \"regressor\"}"},"feature_names":["v_id_producto","v_precio","categoria","anio","mes","dia_del_mes","dia_de_la_semana","semana_del_anio","es_fin_de_semana","es_fin_mes","anio_mes","mes_sin","mes_cos","promedio_total","promedio_mensual","venta_total_prod","venta_total_cat","ratio_potencia_producto","precio_base","ratio_precio"],"feature_types":["c","float","c","int","int","int","int","int","int","int","int","float","float","float","float","float","float","float","float","float"],"gradient_booster":{"model":{"gbtree_model_param":{"num_parallel_tree":"1","num_trees":"300"},"iteration_indptr":[0,1,2,3,4,5,6,7,8,9,10,11,12,13,14,15,16,17,18,19,20,21,22,23,24,25,26,27,28,29,30,31,32,33,34,35,36,37,38,39,40,41,42,43,44,45,46,47,48,49,50,51,52,53,54,55,56,57,58,59,60,61,62,63,64,65,66,67,68,69,70,71,72,73,74,75,76,77,78,79,80,81,82,83,84,85,86,87,88,89,90,91,92,93,94,95,96,97,98,99,100,101,102,103,104,105,106,107,108,109,110,111,112,113,114,115,116,117,118,119,120,121,122,123,124,125,126,127,128,129,130,131,132,133,134,135,136,137,138,139,140,141,142,143,144,145,146,147,148,149,150,151,152,153,154,155,156,157,158,159,160,161,162,163,164,165,166,167,168,169,170,171,172,173,174,175,176,177,178,179,180,181,182,183,184,185,186,187,188,189,190,191,192,193,194,195,196,197,198,199,200,201,202,203,204,205,206,207,208,209,210,211,212,213,214,215,216,217,218,219,220,221,222,223,224,225,226,227,228,229,230,231,232,233,234,235,236,237,238,239,240,241,242,243,244,245,246,247,248,249,250,251,252,253,254,255,256,257,258,259,260,261,262,263,264,265,266,267,268,269,270,271,272,273,274,275,276,277,278,279,280,281,282,283,284,285,286,287,288,289,290,291,292,293,294,295,296,297,298,299,300],"tree_info":[0,0,0,0,0,0,0,0,0,0,0,0,0,0,0,0,0,0,0,0,0,0,0,0,0,0,0,0,0,0,0,0,0,0,0,0,0,0,0,0,0,0,0,0,0,0,0,0,0,0,0,0,0,0,0,0,0,0,0,0,0,0,0,0,0,0,0,0,0,0,0,0,0,0,0,0,0,0,0,0,0,0,0,0,0,0,0,0,0,0,0,0,0,0,0,0,0,0,0,0,0,0,0,0,0,0,0,0,0,0,0,0,0,0,0,0,0,0,0,0,0,0,0,0,0,0,0,0,0,0,0,0,0,0,0,0,0,0,0,0,0,0,0,0,0,0,0,0,0,0,0,0,0,0,0,0,0,0,0,0,0,0,0,0,0,0,0,0,0,0,0,0,0,0,0,0,0,0,0,0,0,0,0,0,0,0,0,0,0,0,0,0,0,0,0,0,0,0,0,0,0,0,0,0,0,0,0,0,0,0,0,0,0,0,0,0,0,0,0,0,0,0,0,0,0,0,0,0,0,0,0,0,0,0,0,0,0,0,0,0,0,0,0,0,0,0,0,0,0,0,0,0,0,0,0,0,0,0,0,0,0,0,0,0,0,0,0,0,0,0,0,0,0,0,0,0,0,0,0,0,0,0,0,0,0,0,0,0,0,0,0,0,0,0,0,0,0,0,0,0],"trees":[{"base_weights":[2.8934346E-3,6.437763E-1,-6.03449E-2,9.560147E-1,-3.6368885E-3,1.1601554E-1,-9.2378974E-2,1.6476156E0,6.2042135E-1,2.1470286E-1,-3.6447826E-3,-1.4183236E-2,-1.0297794E-1,2.6004303E0,6.5598834E-1,1.2837785E0,7.364587E-2,2.521739E-1,-3.6022514E-3,2.9637316E-2,-3.637389E-3,-8.546222E-2,-3.6567978E-3,2.017695E0,4.107046E0,4.5381847E-1,2.3240418E0,1.5333941E0,-3.4756097E-3,2.882171E-1,-1.0859466E-1,3.6188588E-1,1.8900777E-1,-7.6603435E-2,7.91628E-2,-6.9837146E-2,-3.6531878E-3,1.587073E-1,3.5714284E-2,-2.9268293E-3,1.5945992E-1,2.8536586E-2,8.869171E-5,1.6756096E-1,-2.9268293E-3,8.657012E-2,3.844645E-2,1.508943E-2,-2.411924E-3,-2.92683E-4,-3.6097562E-3,1.5869496E-2,7.8727305E-3,1.7560974E-3,6.1979913E-3,9.329267E-4,-3.6204269E-3,1.4018993E-3,5.7736277E-3,-1.0480183E-3,-2.6843618E-3],"categories":[0,1,2,3,5,7,8,9,10,11,12,13,14,15,16,17,18,19,20,21,23,24,25,26,27,28,29,31,32,33,34,36,37,38,39,40,41,42,43,44,45,46,47,48,49,50,51,52,53,54,55,56,57,58,59,61,62,63,64,65,66,67,68,69,70,71,72,73,74,75,76,77,78,79,80,81,82,83,84,85,86,87,88,89,90,91,93,94,95,96,97,98,99,100,101,102,103,104,105,106,107,108,109,110,111,112,114,116,117,118,119,120,122,123,124,125,127,128,129,130,131,132,133,134,135,136,137,138,139,140,141,142,143,144,145,146,147,148,149,150,151,152,153,154,155,156,157,158,159,160,161,162,163,164,165,166,167,170,171,173,174,175,176,177,178,179,180,181,182,183,184,185,186,187,189,190,191,192,193,197,0,1,2,3,4,5,6,7,8,9,10,11,12,14,15,16,18,19,21,22,24,25,26,28,29,30,31,32,33,34,35,36,37,38,39,41,42,43,44,46,48,49,50,51,52,53,54,55,56,57,60,61,63,65,66,68,69,70,71,74,75,76,77,78,79,80,81,82,84,85,87,88,89,90,91,92,93,94,95,96,97,98,99,100,101,102,103,105,106,107,108,109,110,111,112,113,115,116,117,119,120,121,123,124,125,126,128,129,131,132,133,134,135,136,137,139,140,141,142,143,144,145,146,147,148,149,150,151,152,153,154,155,156,157,158,159,160,161,162,163,164,165,166,167,168,169,170,171,172,173,174,175,176,177,178,179,180,181,182,183,185,186,188,189,190,191,192,194,195,196,197,0,1,2,3,5,7,9,10,14,15,16,18,21,24,25,26,29,31,33,34,36,37,38,39,41,42,43,44,46,48,49,50,51,53,54,55,56,57,63,65,66,68,69,70,71,74,75,78,79,80,81,82,84,85,88,89,90,91,94,95,96,97,99,100,101,102,103,105,108,109,110,111,116,117,119,120,123,124,125,128,129,131,132,133,134,135,136,137,139,140,141,142,143,144,145,146,147,149,150,151,152,153,154,155,156,157,158,159,160,162,163,164,165,166,167,170,171,173,174,175,176,177,178,179,180,181,182,183,185,186,189,190,191,192,197,0,1,2,3,4,5,6,7,8,9,10,11,12,13,14,15,16,17,18,19,20,21,23,24,25,26,27,28,29,31,32,33,34,35,36,37,38,39,40,41,42,43,44,45,46,47,48,49,50,51,52,53,54,55,56,57,58,59,60,61,62,63,64,65,66,67,68,69,70,71,72,73,74,75,76,77,78,79,80,81,82,83,84,85,86,87,88,89,90,91,92,93,94,95,96,97,98,99,100,101,102,103,104,105,106,107,108,109,110,111,112,113,114,116,117,118,119,120,122,123,124,125,127,128,129,130,131,132,133,134,135,136,137,138,139,140,141,142,143,144,145,146,147,148,149,150,151,152,153,154,155,156,157,158,159,160,161,162,163,164,165,166,167,168,170,171,172,173,174,175,176,177,178,179,180,181,182,183,184,185,186,187,188,189,190,191,192,193,197,0,1,2,3,5,7,8,9,10,11,12,13,14,15,16,17,18,19,20,21,22,23,24,25,26,27,28,29,30,31,32,33,34,35,36,37,38,39,40,41,42,43,44,45,46,47,48,49,50,51,52,53,54,55,56,57,58,59,61,62,63,64,65,66,67,68,69,70,71,72,73,74,75,76,77,78,79,80,81,82,83,84,85,86,87,88,89,90,91,93,94,95,96,97,98,99,100,101,102,103,104,105,106,107,108,109,110,111,112,114,115,116,117,118,119,120,122,123,124,125,126,127,128,129,130,131,132,133,134,135,136,137,138,139,140,141,142,143,144,145,146,147,148,149,150,151,152,153,154,155,156,157,158,159,160,161,162,163,164,165,166,167,169,170,171,172,173,174,175,176,177,178,179,180,181,182,183,184,185,186,187,189,190,191,192,193,194,195,196,197,1,3,5,7,14,15,18,21,24,25,26,38,41,42,46,48,51,54,56,57,68,70,71,78,79,88,89,90,91,94,97,100,105,120,125,128,129,131,132,135,140,141,147,149,150,153,157,159,162,164,167,171,173,174,175,179,180,181,182,185,189,191,197,22,115,169,194,195,0,1,2,3,4,5,6,7,8,9,10,11,12,13,14,15,16,17,18,19,21,22,23,24,25,26,27,28,29,30,31,32,33,34,35,36,37,38,39,40,41,42,43,44,46,47,48,49,50,51,52,53,54,55,56,57,60,61,62,63,64,65,66,68,69,70,71,72,73,74,75,76,77,78,79,80,81,82,83,84,85,86,87,88,89,90,91,92,93,94,95,96,97,98,99,100,101,102,103,105,106,107,108,109,110,111,112,113,114,115,116,117,118,119,120,121,123,124,125,126,128,129,131,132,133,134,135,136,137,138,139,140,141,142,143,144,145,146,147,148,149,150,151,152,153,154,155,156,157,158,159,160,161,162,163,164,165,166,167,168,169,170,171,172,173,174,175,176,177,178,179,180,181,182,183,184,185,186,187,188,189,190,191,192,194,195,196,197,0,1,2,3,5,6,7,8,9,10,11,12,13,14,15,16,17,18,19,20,21,22,23,24,25,26,27,28,29,30,31,32,33,34,35,36,37,38,39,40,41,42,43,44,45,46,47,48,49,50,51,52,53,54,55,56,57,58,59,61,62,63,64,65,66,67,68,69,70,71,72,73,74,75,76,77,78,79,80,81,82,83,84,85,86,87,88,89,90,91,93,94,95,96,97,98,99,100,101,102,103,104,105,106,107,108,109,110,111,112,114,115,116,117,118,119,120,121,122,123,124,125,126,127,128,129,130,131,132,133,134,135,136,137,138,139,140,141,142,143,144,145,146,147,148,149,150,151,152,153,154,155,156,157,158,159,160,161,162,163,164,165,166,167,168,169,170,171,172,173,174,175,176,177,178,179,180,181,182,183,184,185,186,187,188,189,190,191,192,193,194,195,196,197,4,6,92,113,0,1,2,3,5,6,7,8,9,10,11,12,13,14,15,16,17,18,19,20,21,22,23,24,25,26,27,28,29,30,31,32,33,34,35,36,37,38,39,40,41,42,43,44,45,46,47,48,49,50,51,52,53,54,55,56,57,58,59,60,61,62,63,64,65,66,67,68,69,70,71,72,73,74,75,76,77,78,79,80,81,82,83,84,85,86,87,88,89,90,91,92,93,94,95,96,97,98,99,100,101,102,103,104,105,106,107,108,109,110,111,112,113,114,115,116,117,118,119,120,121,122,123,124,125,126,127,128,129,130,131,132,133,134,135,136,137,138,139,140,141,142,143,144,145,146,147,148,149,150,151,152,153,154,155,156,157,158,159,160,161,162,163,164,165,166,167,168,169,170,171,172,173,174,175,176,177,178,179,180,181,182,183,184,185,186,187,188,189,190,191,192,193,194,195,196,197,8,12,52,61,76,87,93,98,106,107,112,148,161,9,10,16,29,31,33,34,37,43,44,49,50,55,63,65,66,69,75,80,85,96,101,102,103,108,109,110,123,124,134,136,139,143,144,145,152,156,158,160,163,166,170,176,177,178,186,190],"categories_nodes":[0,2,6,7,8,12,16,17,25,26,27,33,35],"categories_segments":[0,180,351,486,675,865,928,933,1121,1315,1319,1516,1529],"categories_sizes":[180,171,135,189,190,63,5,188,194,4,197,13,47],"default_left":[0,0,0,0,0,0,0,0,0,0,0,0,1,0,0,0,1,0,0,0,0,0,0,0,0,0,1,0,0,0,0,0,0,1,0,1,0,0,0,0,0,0,0,0,0,0,0,0,0,0,0,0,0,0,0,0,0,0,0,0,0],"id":0,"left_children":[1,3,5,7,-1,9,11,13,15,17,-1,19,21,23,25,27,29,31,-1,33,-1,35,-1,37,39,41,43,45,-1,47,49,51,53,55,57,59,-1,-1,-1,-1,-1,-1,-1,-1,-1,-1,-1,-1,-1,-1,-1,-1,-1,-1,-1,-1,-1,-1,-1,-1,-1],"loss_changes":[2.617305E2,1.3865714E2,3.3218727E1,9.4601654E1,0E0,2.1214993E1,4.121792E0,1.2490228E2,1.0110084E2,8.046204E0,0E0,2.7950733E0,1.4410744E0,5.14144E1,2.1539728E1,4.4198257E1,6.05325E0,3.916397E0,0E0,2.2317312E0,0E0,1.2839355E0,0E0,1.317649E2,9.196509E1,1.3677004E1,5.5828335E1,3.2742355E1,0E0,5.6611614E0,9.621811E-2,3.334711E0,8.302593E-1,6.44623E-1,1.0528972E0,1.090332E0,0E0,0E0,0E0,0E0,0E0,0E0,0E0,0E0,0E0,0E0,0E0,0E0,0E0,0E0,0E0,0E0,0E0,0E0,0E0,0E0,0E0,0E0,0E0,0E0,0E0],"parents":[2147483647,0,0,1,1,2,2,3,3,5,5,6,6,7,7,8,8,9,9,11,11,12,12,13,13,14,14,15,15,16,16,17,17,19,19,21,21,23,23,24,24,25,25,26,26,27,27,29,29,30,30,31,31,32,32,33,33,34,34,35,35],"right_children":[2,4,6,8,-1,10,12,14,16,18,-1,20,22,24,26,28,30,32,-1,34,-1,36,-1,38,40,42,44,46,-1,48,50,52,54,56,58,60,-1,-1,-1,-1,-1,-1,-1,-1,-1,-1,-1,-1,-1,-1,-1,-1,-1,-1,-1,-1,-1,-1,-1,-1,-1],"split_conditions":[1E-45,1E0,1E-45,1.5E1,-3.6368885E-3,1E0,1E-45,1E-45,1E-45,2.9E1,-3.6447826E-3,1E0,1E-45,3.2E1,1.4E1,2.9E1,1E-45,1E-45,-3.6022514E-3,4.9E1,-3.637389E-3,1E0,-3.6567978E-3,5E0,6E0,1E-45,1E-45,1E-45,-3.4756097E-3,2.7E1,1.9E1,1.5E1,6E0,1E-45,2.6E1,1E-45,-3.6531878E-3,1.587073E-1,3.5714284E-2,-2.9268293E-3,1.5945992E-1,2.8536586E-2,8.869171E-5,1.6756096E-1,-2.9268293E-3,8.657012E-2,3.844645E-2,1.508943E-2,-2.411924E-3,-2.92683E-4,-3.6097562E-3,1.5869496E-2,7.8727305E-3,1.7560974E-3,6.1979913E-3,9.329267E-4,-3.6204269E-3,1.4018993E-3,5.7736277E-3,-1.0480183E-3,-2.6843618E-3],"split_indices":[0,8,0,5,0,8,0,0,0,5,0,8,0,1,5,5,0,0,0,7,0,8,0,5,5,0,0,0,0,5,5,5,5,0,5,0,0,0,0,0,0,0,0,0,0,0,0,0,0,0,0,0,0,0,0,0,0,0,0,0,0],"split_type":[1,0,1,0,0,0,1,1,1,0,0,0,1,0,0,0,1,1,0,0,0,0,0,0,0,1,1,1,0,0,0,0,0,1,0,1,0,0,0,0,0,0,0,0,0,0,0,0,0,0,0,0,0,0,0,0,0,0,0,0,0],"sum_hessian":[6.456E3,5.79E2,5.877E3,4.11E2,1.68E2,9.03E2,4.974E3,1.33E2,2.78E2,6.38E2,2.65E2,5.94E2,4.38E3,6.7E1,6.6E1,1.25E2,1.53E2,5.74E2,6.4E1,4.22E2,1.72E2,2.277E3,2.103E3,5E1,1.7E1,6E1,6E0,1.06E2,1.9E1,7E1,8.3E1,2.08E2,3.66E2,1.34E2,2.88E2,1.594E3,6.83E2,9E0,4.1E1,4E0,1.3E1,2.8E1,3.2E1,2E0,4E0,1.5E1,9.1E1,4.4E1,2.6E1,9E0,7.4E1,7.6E1,1.32E2,4.4E1,3.22E2,3.9E1,9.5E1,2.25E2,6.3E1,5.75E2,1.019E3],"tree_param":{"num_deleted":"0","num_feature":"20","num_nodes":"61","size_leaf_vector":"1"}},{"base_weights":[3.5881775E-3,-5.4199047E-2,6.1641425E-1,1.4858088E-1,-8.368602E-2,1.0612941E0,2.8027706E-2,3.025549E-1,-4.9435742E-2,-1.4229607E-2,-9.9615134E-2,9.8751926E-1,8.527653E0,1.3449768E0,-4.6207644E-2,-5.776647E-2,3.9386493E-1,8.768863E-2,-3.5332574E-3,2.8518377E-2,-3.5366556E-3,-8.146022E-2,-3.560707E-3,1.4389237E0,6.243983E-1,3.1187218E-1,7.1872175E-2,4.1467447E0,8.977184E-2,8.481187E-2,-3.5257079E-3,-9.619064E-2,6.0131777E-2,1.3850583E0,3.073806E-1,3.4965396E-1,-7.074327E-2,4.6115972E-2,-3.5506533E-3,-5.1331107E-2,-1.03062995E-1,2.0231192E0,8.0000776E-1,9.807726E-1,3.0977884E-1,1.6705294E-1,-1.7747149E-3,5.8154833E-1,-3.1759748E-3,4.0426174E-1,-1.072604E-1,1.1235888E-3,-3.7974834E-3,-2.0410314E-3,1.9616643E-2,1.4579011E-1,3.1935267E-2,1.0472982E-2,-3.4395833E-3,2.2326764E-2,3.7736616E-3,-3.8263781E-3,2.3292215E-3,-3.5534488E-4,2.4569149E-3,-5.8375864E-4,-3.568566E-3,-1.6599931E-3,-3.5634218E-3,2.2908907E-2,9.12932E-2,7.3772594E-2,8.808416E-3,5.602279E-2,1.6991917E-2,3.1981405E-2,1.2864985E-3,2.794439E-2,-1.7747149E-3,1.698911E-2,1.7447365E-3,2.1436627E-3,-4.3898337E-3],"categories":[0,1,2,3,4,5,7,8,9,10,12,13,14,15,16,18,21,22,23,24,25,26,27,28,29,31,32,33,34,35,36,37,38,39,41,42,43,44,46,48,49,50,51,52,53,54,55,56,57,60,61,63,65,66,67,68,69,70,71,73,74,75,76,77,78,79,80,81,82,83,84,85,86,87,88,89,90,91,93,94,95,96,97,98,99,100,101,102,103,104,105,106,107,108,109,110,111,112,113,115,116,117,119,120,121,122,123,124,125,126,128,129,131,132,133,134,135,136,137,139,140,141,142,143,144,145,146,147,148,149,150,151,152,153,154,155,156,157,158,159,161,162,163,164,165,166,167,168,169,170,171,173,174,175,176,177,178,179,180,181,182,183,185,186,187,188,189,190,191,192,193,194,196,197,0,1,2,3,5,7,8,9,10,14,15,16,18,21,22,24,26,31,33,34,36,37,38,39,42,43,44,48,49,50,51,52,53,54,55,56,57,63,65,66,67,68,69,70,71,74,75,78,79,80,84,87,88,89,90,91,94,96,97,99,100,101,102,103,104,105,108,109,110,111,112,115,117,119,120,123,124,125,129,131,132,133,134,135,136,137,139,140,141,142,143,144,145,146,147,148,149,150,151,152,153,154,156,157,158,159,162,163,164,166,167,168,169,170,171,173,174,175,176,177,178,179,180,181,182,183,185,186,188,189,190,191,192,193,197,0,1,2,3,4,5,6,7,8,9,10,11,12,13,14,15,16,17,18,19,20,21,22,23,24,25,26,27,28,29,30,31,32,33,34,35,36,37,38,39,40,41,42,43,44,45,46,47,48,49,50,51,52,53,54,55,56,57,58,59,60,61,62,63,64,65,66,67,68,69,70,71,72,73,74,75,76,77,78,79,80,81,82,83,84,85,86,87,88,89,90,91,92,93,94,95,96,97,98,99,100,101,102,103,104,105,106,107,108,109,110,111,112,113,114,115,116,117,118,119,120,121,122,123,124,125,126,127,128,129,130,131,132,133,134,135,136,137,138,139,140,141,142,143,144,145,146,147,148,149,150,151,152,153,154,155,156,157,158,159,160,161,162,163,164,165,166,167,168,169,170,171,173,174,175,176,177,178,179,180,181,182,183,184,185,186,187,188,189,190,191,192,193,194,195,197,3,5,7,10,14,15,16,18,24,34,48,49,50,56,57,63,69,71,78,80,88,90,91,94,96,100,102,103,105,108,109,110,111,124,125,131,132,135,136,140,141,145,147,149,150,153,157,159,163,168,174,175,176,179,181,182,185,186,188,189,191,192,197,0,1,2,3,5,7,8,9,10,11,12,13,14,15,16,17,18,19,20,21,23,24,25,26,27,28,29,31,32,33,34,35,36,37,38,39,40,41,42,43,44,45,46,47,48,49,50,51,52,53,54,55,56,57,58,59,61,62,63,64,65,66,67,68,69,70,71,72,73,74,75,76,77,78,79,80,81,82,83,84,85,86,87,88,89,90,91,92,93,94,95,96,97,98,99,100,101,102,103,104,105,106,107,108,109,110,111,112,114,116,117,118,119,120,121,122,123,124,125,126,127,128,129,130,131,132,133,134,135,136,137,138,139,140,141,142,143,144,145,146,147,148,149,150,151,152,153,154,155,156,157,158,159,160,161,162,163,164,165,166,167,169,170,171,172,173,174,175,176,177,178,179,180,181,182,183,184,185,186,187,189,190,191,192,194,195,196,197,0,1,2,3,4,5,6,7,8,9,10,11,12,13,14,15,16,17,18,19,20,21,22,23,24,25,26,27,28,29,31,32,33,34,35,36,37,38,39,40,41,42,43,44,45,46,47,48,49,50,51,52,53,54,55,56,57,59,60,61,62,63,64,65,66,67,68,69,70,71,73,74,75,76,77,78,79,80,81,82,83,84,85,86,87,88,89,90,91,92,93,94,95,96,97,98,99,100,101,102,103,104,105,106,107,108,109,110,111,112,113,114,115,116,117,118,119,120,121,122,123,124,125,126,127,128,129,130,131,132,133,134,135,136,137,138,139,140,141,142,143,144,145,146,147,148,149,150,151,152,153,154,155,156,157,158,159,160,161,162,163,164,165,166,167,168,169,170,171,172,173,174,175,176,177,178,179,180,181,182,183,184,185,186,187,188,189,190,191,192,193,194,196,197,0,1,2,3,4,5,6,7,8,9,10,11,12,13,14,15,16,17,18,21,22,23,24,25,26,27,28,29,30,31,32,33,34,35,36,37,38,39,41,42,43,44,45,46,47,48,49,50,51,52,53,54,55,56,57,58,60,61,62,63,65,66,67,68,69,70,71,72,73,74,75,76,77,78,79,80,81,82,83,84,85,86,87,88,89,90,91,93,94,95,96,97,98,99,100,101,102,103,104,105,106,107,108,109,110,111,112,113,115,116,117,118,119,120,121,122,123,124,125,126,127,128,129,130,131,132,133,134,135,136,137,138,139,140,141,142,143,144,145,146,147,148,149,150,151,152,153,154,155,156,157,158,159,160,161,162,163,164,165,166,167,168,169,170,171,173,174,175,176,177,178,179,180,181,182,183,184,185,186,187,188,189,190,191,192,193,194,195,196,197,196,0,1,2,3,5,6,7,8,9,10,11,12,13,14,15,16,17,18,19,20,21,22,23,24,25,26,27,29,31,32,33,34,36,37,38,39,40,41,42,43,44,45,46,47,48,49,50,51,52,53,54,55,56,57,58,59,61,62,63,64,65,66,67,68,69,70,71,72,73,74,75,76,77,78,79,80,81,82,83,84,85,86,87,88,89,90,91,92,93,94,95,96,97,98,99,100,101,102,103,104,105,106,107,108,109,110,111,112,113,114,115,116,117,118,119,120,121,123,124,125,127,128,129,130,131,132,133,134,135,136,137,138,139,140,141,142,143,144,145,146,147,148,149,150,151,152,153,154,155,156,157,158,159,160,161,162,163,164,165,166,167,168,169,170,171,172,173,174,175,176,177,178,179,180,181,182,183,184,185,186,187,188,189,190,191,192,193,194,195,196,197,45,58,64,72,130,195,0,1,22,26,36,37,38,42,43,51,67,68,70,79,89,104,112,115,117,129,151,162,167,169,178,190,193,1,2,9,21,22,26,31,33,38,39,42,44,51,53,54,55,65,66,67,68,70,75,79,84,87,89,97,101,104,112,115,119,120,123,133,134,137,142,143,144,146,148,152,154,156,162,164,166,167,169,170,171,173,180,183,193,0,1,2,3,4,5,6,7,8,9,10,11,12,13,14,15,16,17,18,19,20,21,22,23,24,25,26,27,28,29,31,32,33,34,35,36,37,38,39,40,41,42,43,44,45,46,47,48,49,50,51,52,53,54,55,56,57,58,59,60,61,62,63,64,65,66,67,68,69,70,71,72,73,74,75,76,77,78,79,80,81,82,83,84,85,86,87,88,89,90,91,92,93,94,95,96,97,98,99,100,101,102,103,104,105,106,107,108,109,110,111,112,113,114,115,116,117,118,119,120,121,122,123,124,125,126,127,128,129,130,131,132,133,134,135,136,137,138,139,140,141,142,143,144,145,146,147,148,149,150,151,152,153,154,155,156,157,158,159,160,161,162,163,164,165,166,167,168,169,170,171,172,173,174,175,176,177,178,179,180,181,182,183,184,185,186,187,189,190,191,192,193,194,195,196,197,0,1,2,3,4,5,6,7,8,9,10,11,12,13,14,15,16,17,18,19,20,21,22,23,24,25,26,27,28,29,30,31,32,33,34,36,37,38,39,40,41,42,43,44,45,46,47,48,49,50,51,52,53,54,55,56,57,58,59,60,61,62,63,64,65,66,67,68,69,70,71,72,73,74,75,76,77,78,79,80,81,82,83,84,85,86,87,88,89,90,91,92,93,94,95,96,97,98,99,100,101,102,103,104,105,106,107,108,109,110,111,112,113,114,115,116,117,118,119,120,121,122,123,124,125,127,128,129,130,131,132,133,134,135,136,137,138,139,140,141,142,143,144,145,146,147,148,149,150,151,152,153,154,155,156,157,158,159,160,161,162,163,164,165,166,167,168,169,170,171,172,173,174,175,176,177,178,179,180,181,182,183,184,185,186,187,188,189,190,191,192,193,195,196,197,0,1,2,3,4,5,6,7,8,9,10,11,12,13,14,15,16,17,18,19,20,21,22,23,24,25,26,27,28,29,30,31,32,33,34,35,36,37,38,39,40,41,42,43,44,45,46,47,48,49,50,51,52,53,54,55,56,57,58,59,60,61,62,63,64,65,66,67,68,69,70,71,72,73,74,75,76,77,78,79,80,81,82,83,84,85,86,87,88,89,90,91,92,93,94,95,96,97,98,99,100,101,102,103,105,106,107,108,109,110,111,113,114,115,116,117,118,119,120,123,124,125,126,127,128,129,130,131,132,133,134,135,136,137,138,139,140,141,142,143,144,145,146,147,148,149,150,151,152,153,154,155,156,157,158,159,160,161,162,163,164,165,166,167,168,169,170,171,172,173,174,175,176,177,178,179,180,181,182,183,184,185,186,187,188,189,190,191,192,193,194,195,196,197,22,104,112,115,121,167,168,169,188,193,194],"categories_nodes":[1,4,6,10,11,16,17,28,29,31,39,40,42,43,44,50],"categories_segments":[0,174,309,505,568,756,950,1140,1141,1332,1338,1365,1421,1617,1812,2006],"categories_sizes":[174,135,196,63,188,194,190,1,191,6,27,56,196,195,194,11],"default_left":[0,0,0,0,0,0,0,0,0,0,1,0,0,0,0,0,0,0,0,0,0,0,0,0,0,0,0,0,1,0,0,1,0,0,0,0,0,0,0,1,1,0,0,0,0,0,0,0,0,0,1,0,0,0,0,0,0,0,0,0,0,0,0,0,0,0,0,0,0,0,0,0,0,0,0,0,0,0,0,0,0,0,0],"id":1,"left_children":[1,3,5,7,9,11,13,15,17,19,21,23,25,27,29,31,33,35,-1,37,-1,39,-1,41,43,-1,-1,45,47,49,-1,51,53,55,57,59,61,63,-1,65,67,69,71,73,75,-1,-1,77,-1,79,81,-1,-1,-1,-1,-1,-1,-1,-1,-1,-1,-1,-1,-1,-1,-1,-1,-1,-1,-1,-1,-1,-1,-1,-1,-1,-1,-1,-1,-1,-1,-1,-1],"loss_changes":[2.3096497E2,3.5649452E1,1.4708011E2,2.3095448E1,5.7561836E0,1.67844E2,2.3818842E1,1.4038559E1,3.1215034E0,4.3104978E0,1.4562454E0,5.1226288E1,9.459366E0,4.5346054E1,2.1683807E0,3.9990652E-1,2.8719982E1,4.631643E0,0E0,1.7862618E0,0E0,1.4084034E0,0E0,5.101001E1,1.9653954E1,0E0,0E0,2.4247307E1,1.0236661E0,5.074673E0,0E0,2.7281415E-1,1.7186751E0,2.4899021E1,5.5685444E0,3.61628E0,5.9990525E-1,1.2784966E0,0E0,1.9568098E0,9.416876E-1,9.1456635E1,5.7248135E1,2.9437119E1,1.9331362E1,0E0,0E0,7.2771263E-1,0E0,1.7056484E0,3.7351787E-1,0E0,0E0,0E0,0E0,0E0,0E0,0E0,0E0,0E0,0E0,0E0,0E0,0E0,0E0,0E0,0E0,0E0,0E0,0E0,0E0,0E0,0E0,0E0,0E0,0E0,0E0,0E0,0E0,0E0,0E0,0E0,0E0],"parents":[2147483647,0,0,1,1,2,2,3,3,4,4,5,5,6,6,7,7,8,8,9,9,10,10,11,11,12,12,13,13,14,14,15,15,16,16,17,17,19,19,21,21,23,23,24,24,27,27,28,28,29,29,31,31,32,32,33,33,34,34,35,35,36,36,37,37,39,39,40,40,41,41,42,42,43,43,44,44,47,47,49,49,50,50],"right_children":[2,4,6,8,10,12,14,16,18,20,22,24,26,28,30,32,34,36,-1,38,-1,40,-1,42,44,-1,-1,46,48,50,-1,52,54,56,58,60,62,64,-1,66,68,70,72,74,76,-1,-1,78,-1,80,82,-1,-1,-1,-1,-1,-1,-1,-1,-1,-1,-1,-1,-1,-1,-1,-1,-1,-1,-1,-1,-1,-1,-1,-1,-1,-1,-1,-1,-1,-1,-1,-1],"split_conditions":[4.6774194E-1,1E-45,4E0,4E0,1E-45,1.825E0,1E-45,1.4516129E-1,5E0,5E0,1E-45,1E-45,2.475E1,1.6E1,5E0,3E0,1E-45,1E-45,-3.5332574E-3,2.9E1,-3.5366556E-3,3E0,-3.560707E-3,2E0,2E1,3.1187218E-1,7.1872175E-2,5E0,1E-45,1E-45,-3.5257079E-3,1E-45,1.25E-1,5E0,2.9E1,9E0,7.0720804E-1,7.5E-2,-3.5506533E-3,1E-45,1E-45,7.258065E-1,1E-45,1E-45,1E-45,1.6705294E-1,-1.7747149E-3,2.5E1,-3.1759748E-3,2.3E1,1E-45,1.1235888E-3,-3.7974834E-3,-2.0410314E-3,1.9616643E-2,1.4579011E-1,3.1935267E-2,1.0472982E-2,-3.4395833E-3,2.2326764E-2,3.7736616E-3,-3.8263781E-3,2.3292215E-3,-3.5534488E-4,2.4569149E-3,-5.8375864E-4,-3.568566E-3,-1.6599931E-3,-3.5634218E-3,2.2908907E-2,9.12932E-2,7.3772594E-2,8.808416E-3,5.602279E-2,1.6991917E-2,3.1981405E-2,1.2864985E-3,2.794439E-2,-1.7747149E-3,1.698911E-2,1.7447365E-3,2.1436627E-3,-4.3898337E-3],"split_indices":[14,0,6,6,0,14,0,14,6,6,0,0,1,5,6,6,0,0,0,5,0,6,0,6,5,0,0,6,0,0,0,0,14,5,5,5,19,14,0,0,0,14,0,0,0,0,0,5,0,5,0,0,0,0,0,0,0,0,0,0,0,0,0,0,0,0,0,0,0,0,0,0,0,0,0,0,0,0,0,0,0,0,0],"split_type":[0,1,0,0,1,0,1,0,0,0,1,1,0,0,0,0,1,1,0,0,0,0,0,0,0,0,0,0,1,1,0,1,0,0,0,0,0,0,0,1,1,0,1,1,1,0,0,0,0,0,1,0,0,0,0,0,0,0,0,0,0,0,0,0,0,0,0,0,0,0,0,0,0,0,0,0,0,0,0,0,0,0,0],"sum_hessian":[6.52E3,5.959E3,5.61E2,7.56E2,5.203E3,3.19E2,2.42E2,4.25E2,3.31E2,9.71E2,4.232E3,3.17E2,2E0,1.2E1,2.3E2,8.6E1,3.39E2,1.1E2,2.21E2,6.88E2,2.83E2,2.171E3,2.061E3,1.4E2,1.77E2,1E0,1E0,3E0,9E0,8.1E1,1.49E2,6.5E1,2.1E1,2.6E1,3.13E2,4.1E1,6.9E1,6.15E2,7.3E1,9.08E2,1.263E3,7.2E1,6.8E1,8.2E1,9.5E1,2E0,1E0,2E0,7E0,3E1,5.1E1,1.2E1,5.3E1,1.8E1,3E0,1E0,2.5E1,2.85E2,2.8E1,1.4E1,2.7E1,5E1,1.9E1,2.35E2,3.8E2,6.18E2,2.9E2,3.14E2,9.49E2,3.3E1,3.9E1,1.5E1,5.3E1,2.5E1,5.7E1,2.4E1,7.1E1,1E0,1E0,2E1,1E1,9E0,4.2E1],"tree_param":{"num_deleted":"0","num_feature":"20","num_nodes":"83","size_leaf_vector":"1"}},{"base_weights":[2.1654648E-4,-5.1222373E-2,8.380531E-1,2.0892279E-1,-8.033378E-2,1.7852025E0,1.9160329E-1,3.3870533E-1,-3.4244284E-3,6.871391E-3,-9.583216E-2,3.5125096E0,1.384004E0,8.991924E-1,-3.2966387E-2,1.9448848E-1,5.840978E-1,8.034191E-2,-8.740774E-2,-7.991872E-2,-1.16110176E-1,4.4403026E-1,4.7177E0,2.559533E0,5.115788E-1,1.9134586E0,-3.328922E-3,-6.537135E-2,1.0559527E0,-8.8030964E-2,2.677538E-1,7.1280944E-1,7.857134E-2,1.04864754E-1,-5.345077E-2,1.1954717E-1,-9.9787526E-2,-6.5243684E-2,-3.4471801E-3,-3.4530929E-3,-3.697662E-3,5.6224637E-2,3.099538E-2,2.532443E0,7.107187E0,3.925391E0,7.4556345E-1,2.9965594E-1,4.092334E0,3.3659112E0,1.0002372E0,4.629791E-2,-1.1914514E-1,1.4003918E-1,7.07941E-2,9.950188E-4,-3.0795962E-3,1.982801E-2,4.557019E-3,2.8024219E-2,9.595552E-3,4.9479622E-2,-3.799217E-3,4.535946E-3,1.1397047E-3,1.9662457E-2,-2.7958145E-3,2.6995353E-2,-3.5095322E-3,-4.937133E-4,-3.509419E-3,-2.9924104E-3,-1.2054946E-3,8.835082E-3,-5.5802874E-3,1.1455476E-1,-9.5172116E-4,3.825794E-1,6.4770475E-2,1.3696742E-1,-5.6602224E-3,1.1240233E-2,9.650685E-2,3.3232864E-2,2.3354378E-3,2.5122464E-1,-3.789749E-3,-6.4499527E-3,1.4793903E-1,6.00038E-2,1.0008456E-2,5.721544E-3,-3.316045E-3,-2.1952805E-3,-4.1906056E-3,1.1846009E-2,-2.2957723E-3],"categories":[0,1,2,3,4,5,7,8,9,10,11,12,13,14,15,16,17,18,19,21,22,23,24,25,26,28,29,31,32,33,34,36,37,38,39,41,42,43,44,45,46,48,49,50,51,52,53,54,55,56,57,61,62,63,65,66,67,68,69,70,71,73,74,75,76,77,78,79,80,81,82,83,84,85,86,87,88,89,90,91,93,94,95,96,97,98,99,100,101,102,103,105,106,107,108,109,110,111,112,113,115,116,117,119,120,121,122,123,124,125,126,128,129,130,131,132,133,134,135,136,137,138,139,140,141,142,143,144,145,146,147,148,149,150,151,152,153,154,155,156,157,158,159,160,161,162,163,164,165,166,167,168,169,170,171,173,174,175,176,177,178,179,180,181,182,183,184,185,186,187,188,189,190,191,192,194,196,197,0,1,3,5,7,9,10,12,14,15,16,18,21,22,24,26,28,29,31,33,34,36,37,38,39,41,42,43,44,45,46,48,49,50,51,52,53,54,55,56,57,63,65,66,67,68,69,70,71,73,74,75,77,78,79,80,81,82,84,85,88,89,90,91,94,95,96,97,99,100,101,102,103,105,107,108,109,110,111,115,116,117,119,120,121,123,124,125,129,130,131,132,133,134,135,136,137,139,140,141,142,143,144,145,146,147,148,149,150,151,152,153,154,156,157,158,159,160,161,162,163,164,166,167,168,169,170,171,173,174,175,176,177,178,179,180,181,182,183,185,186,187,188,189,190,191,192,194,197,0,1,2,3,5,6,7,8,9,10,11,12,13,14,15,16,17,18,19,20,21,22,23,24,25,26,27,28,29,30,31,32,33,34,35,36,37,38,39,40,41,42,43,44,45,46,47,48,49,50,51,52,53,54,55,56,57,58,59,61,62,63,64,65,66,67,68,69,70,71,72,73,74,75,76,77,78,79,80,81,82,83,84,85,86,87,88,89,90,91,92,93,94,95,96,97,98,99,100,101,102,103,104,105,106,107,108,109,110,111,112,113,114,115,116,117,118,119,120,121,122,123,124,125,126,127,128,129,130,131,132,133,134,135,136,137,138,139,140,141,142,143,144,145,146,147,148,149,150,151,152,153,154,155,156,157,158,159,160,161,162,163,164,165,166,167,169,170,171,172,173,174,175,176,177,178,179,180,181,182,183,184,185,186,187,188,189,190,191,192,193,194,195,196,197,0,1,2,3,4,5,7,8,9,10,11,12,13,14,15,16,17,18,19,20,21,22,23,24,25,26,27,28,29,31,32,33,34,35,36,37,38,39,40,41,42,43,44,45,46,47,48,49,50,51,52,53,54,55,56,57,58,59,61,62,63,64,65,66,67,68,69,70,71,72,73,74,75,76,77,78,79,80,81,82,83,84,85,86,87,88,89,90,91,92,93,94,95,96,97,98,99,100,101,102,103,104,105,106,107,108,109,110,111,112,113,114,115,116,117,118,119,120,122,123,124,125,126,127,128,129,130,131,132,133,134,135,136,137,138,139,140,141,142,143,144,145,146,147,148,149,150,151,152,153,154,155,156,157,158,159,160,161,162,163,164,165,166,167,168,169,170,171,172,173,174,175,176,177,178,179,180,181,182,183,184,185,186,187,188,189,190,191,192,193,194,195,197,5,12,14,15,18,21,26,34,37,38,44,45,48,57,63,68,69,70,71,79,80,82,88,89,90,94,96,97,100,102,103,105,107,109,110,123,124,130,131,135,136,141,149,150,153,154,159,161,163,167,168,174,175,176,180,182,185,186,187,188,189,192,197,12,45,82,107,130,161,168,187,188,0,1,2,3,4,5,6,7,8,9,10,11,12,13,14,15,16,17,18,19,20,21,22,23,24,25,26,27,28,29,30,31,32,33,34,35,36,37,38,39,40,41,42,43,44,45,46,47,48,49,50,51,52,53,54,55,56,57,58,59,61,62,63,64,65,66,67,68,69,70,71,72,73,74,75,76,77,78,79,80,81,82,83,84,85,86,87,88,89,90,91,92,93,94,95,96,97,98,99,100,101,102,103,104,105,106,107,108,109,110,111,112,113,114,115,116,117,118,119,120,121,122,123,124,125,126,127,128,129,130,131,132,133,134,135,136,137,138,139,140,141,142,143,144,145,146,147,148,149,150,151,152,153,154,155,156,157,158,159,160,161,162,163,164,165,166,167,168,169,170,171,172,173,174,175,176,177,178,179,180,181,182,183,184,185,186,187,188,189,190,191,192,193,194,195,196,197,0,1,2,3,4,5,6,7,8,9,10,11,12,13,14,15,16,17,18,19,20,21,23,24,25,26,27,28,29,31,32,33,34,35,36,37,38,39,40,41,42,43,44,45,46,47,48,49,50,51,52,53,54,55,56,57,58,59,60,61,62,63,64,65,66,67,68,69,70,71,72,73,74,75,76,77,78,79,80,81,82,83,84,85,86,87,88,89,90,91,92,93,94,95,96,97,98,99,100,101,102,103,104,105,106,107,108,109,110,111,112,113,114,116,117,118,119,120,121,122,123,124,125,127,128,129,130,131,132,133,134,135,136,137,138,139,140,141,142,143,144,145,146,147,148,149,150,151,152,153,154,155,156,157,158,159,160,161,162,163,164,165,166,167,168,170,171,172,173,174,175,176,177,178,179,180,181,182,183,184,185,186,187,188,189,190,191,192,193,195,196,197,22,113,115,168,169,188,194,58,64,72,195,0,1,2,3,4,5,6,7,8,9,10,11,12,13,14,15,16,17,18,19,20,21,22,23,24,25,26,27,28,29,30,31,32,33,34,35,36,37,38,39,40,41,42,43,44,45,46,47,48,49,50,51,52,53,54,55,56,57,60,61,62,63,64,65,66,67,68,69,70,71,73,74,75,76,77,78,79,80,81,82,83,84,85,86,87,88,89,90,91,92,93,94,95,96,97,98,99,100,101,102,103,104,105,106,107,108,109,110,111,112,113,114,115,116,117,119,120,121,122,123,124,125,126,127,128,129,130,131,132,133,134,135,136,137,138,139,140,141,142,143,144,145,146,147,148,149,150,151,152,153,154,155,156,157,158,159,160,161,162,163,164,165,166,167,168,169,170,171,172,173,174,175,176,177,178,179,180,181,182,183,184,185,186,187,188,189,190,191,192,193,194,195,196,197,0,1,2,3,4,5,6,7,8,9,10,11,12,13,14,15,16,17,18,19,20,21,22,23,24,25,26,27,28,29,30,31,32,33,34,36,37,38,39,41,42,43,44,45,46,47,48,49,50,51,52,53,54,55,56,57,58,59,61,62,63,64,65,66,67,68,69,70,71,72,73,74,75,76,77,78,79,80,81,82,83,84,85,86,87,88,89,90,91,92,93,94,95,96,97,98,99,100,101,102,103,105,106,107,108,109,110,111,112,113,114,115,116,117,118,119,120,121,122,123,124,125,126,127,128,129,130,131,132,133,134,135,136,137,138,139,140,141,142,143,144,145,146,147,148,149,150,151,152,153,154,155,156,157,158,159,160,161,162,163,164,165,166,167,168,169,170,171,173,174,175,176,177,178,179,180,181,182,183,184,185,186,187,188,189,190,191,192,193,194,196,197,35,40,47,59,60,104,172,193,195,0,1,2,3,4,5,6,7,8,9,10,12,14,15,16,18,20,21,22,24,26,27,28,29,30,31,32,33,34,35,36,37,38,39,40,41,42,43,44,45,46,47,48,49,50,51,52,53,54,55,56,57,58,59,60,61,62,63,64,65,66,67,68,69,70,71,72,73,74,75,77,78,79,80,81,82,84,85,87,88,89,90,91,92,94,95,96,97,99,100,101,102,103,104,105,107,108,109,110,111,112,113,114,115,116,117,118,119,120,121,122,123,124,125,126,127,128,129,130,131,132,133,134,135,136,137,139,140,141,142,143,144,145,146,147,148,149,150,151,152,153,154,155,156,157,158,159,160,161,162,163,164,166,167,168,169,170,171,172,173,174,175,176,177,178,179,180,181,182,183,185,186,187,188,189,190,191,192,193,194,195,196,197,0,1,2,3,4,5,6,7,8,9,10,11,12,13,14,15,16,17,18,19,20,21,22,23,24,25,26,27,28,29,30,31,32,33,34,35,36,37,38,39,40,41,42,43,44,45,46,47,48,49,50,51,52,53,54,55,56,57,58,59,60,62,63,64,65,66,67,68,69,70,71,72,73,74,75,77,78,79,80,81,82,83,84,85,86,87,88,89,90,91,92,93,94,95,96,97,98,99,100,101,102,103,104,105,106,107,108,109,110,111,112,113,114,115,116,117,118,119,120,121,122,123,124,125,126,127,128,129,130,131,132,133,134,135,136,137,138,139,140,141,142,143,144,145,146,147,148,149,150,151,152,153,154,155,156,157,158,159,160,161,162,163,164,165,166,167,168,169,170,171,172,173,174,175,176,177,178,179,180,181,182,183,184,185,186,187,188,189,190,191,192,193,194,195,196,197,2,8,19,23,25,61,76,83,86,93,98,112,122,128,165,184,2,11,13,17,19,23,25,32,61,62,76,83,87,98,106,112,128,138,155,165,184,168,0,1,2,3,4,5,6,7,8,9,10,11,12,13,14,15,16,17,18,19,20,21,22,23,24,25,26,27,28,29,30,31,32,33,34,35,36,37,38,39,40,41,42,43,44,45,46,47,48,49,50,51,52,53,54,55,56,57,58,59,60,61,62,63,64,65,66,68,69,70,71,72,73,74,75,76,77,78,79,80,81,82,83,84,85,86,87,88,89,90,91,92,93,94,95,96,97,98,99,100,101,102,103,104,105,106,107,108,109,110,111,112,114,115,116,117,118,119,120,122,123,124,125,126,127,128,129,130,131,132,133,134,135,136,137,138,139,140,141,142,143,144,145,146,147,148,149,150,151,152,153,154,155,156,157,158,159,160,161,162,163,164,165,166,167,168,169,170,171,172,173,174,175,176,177,178,179,180,181,182,183,184,185,186,187,188,189,190,191,192,193,194,195,196,197,115,168,169,188,194],"categories_nodes":[1,4,5,6,10,20,21,23,27,29,30,31,32,33,34,35,36,42,47,52],"categories_segments":[0,178,327,522,715,778,787,984,1176,1183,1187,1381,1573,1582,1765,1961,1977,1998,1999,2194],"categories_sizes":[178,149,195,193,63,9,197,192,7,4,194,192,9,183,196,16,21,1,195,5],"default_left":[0,0,0,0,0,0,0,0,0,0,1,0,0,0,0,0,0,0,0,0,1,0,0,0,0,0,0,1,0,1,0,0,1,0,0,1,1,0,0,0,0,0,1,0,0,0,0,0,0,0,0,0,1,0,0,0,0,0,0,0,0,0,0,0,0,0,0,0,0,0,0,0,0,0,0,0,0,0,0,0,0,0,0,0,0,0,0,0,0,0,0,0,0,0,0,0,0],"id":2,"left_children":[1,3,5,7,9,11,13,15,-1,17,19,21,23,25,27,29,31,33,35,37,39,41,43,45,47,49,-1,51,53,55,57,59,61,63,65,67,69,71,-1,-1,-1,-1,73,75,77,79,81,83,85,87,89,91,93,95,-1,-1,-1,-1,-1,-1,-1,-1,-1,-1,-1,-1,-1,-1,-1,-1,-1,-1,-1,-1,-1,-1,-1,-1,-1,-1,-1,-1,-1,-1,-1,-1,-1,-1,-1,-1,-1,-1,-1,-1,-1,-1,-1],"loss_changes":[2.7940033E2,4.627383E1,2.2926465E2,2.5824938E1,7.426014E0,1.0047357E2,3.5623924E1,1.5422485E1,0E0,5.756214E0,1.4960823E0,1.0145206E2,1.2688576E2,5.5538982E1,6.103E0,5.7778587E0,1.0484867E1,1.5378215E0,9.445183E-1,1.336174E0,5.5885315E-4,5.2581306E0,8.6434326E1,1.2838748E2,5.4169308E1,3.244639E1,0E0,1.0083311E0,5.6406064E0,1.06191844E-1,9.966407E0,1.0920837E1,1.1168314E1,1.2181759E0,2.117673E0,3.9811356E0,4.909265E-1,1.5921764E0,0E0,0E0,0E0,0E0,5.1223963E-1,3.969288E1,2.2387909E2,7.987491E1,2.0792866E1,1.2460872E1,7.331203E1,5.7115402E1,1.1330595E1,1.2668211E0,9.6482635E-2,2.5096452E-1,0E0,0E0,0E0,0E0,0E0,0E0,0E0,0E0,0E0,0E0,0E0,0E0,0E0,0E0,0E0,0E0,0E0,0E0,0E0,0E0,0E0,0E0,0E0,0E0,0E0,0E0,0E0,0E0,0E0,0E0,0E0,0E0,0E0,0E0,0E0,0E0,0E0,0E0,0E0,0E0,0E0,0E0,0E0],"parents":[2147483647,0,0,1,1,2,2,3,3,4,4,5,5,6,6,7,7,9,9,10,10,11,11,12,12,13,13,14,14,15,15,16,16,17,17,18,18,19,19,20,20,21,21,22,22,23,23,24,24,25,25,27,27,28,28,29,29,30,30,31,31,32,32,33,33,34,34,35,35,36,36,37,37,42,42,43,43,44,44,45,45,46,46,47,47,48,48,49,49,50,50,51,51,52,52,53,53],"right_children":[2,4,6,8,10,12,14,16,-1,18,20,22,24,26,28,30,32,34,36,38,40,42,44,46,48,50,-1,52,54,56,58,60,62,64,66,68,70,72,-1,-1,-1,-1,74,76,78,80,82,84,86,88,90,92,94,96,-1,-1,-1,-1,-1,-1,-1,-1,-1,-1,-1,-1,-1,-1,-1,-1,-1,-1,-1,-1,-1,-1,-1,-1,-1,-1,-1,-1,-1,-1,-1,-1,-1,-1,-1,-1,-1,-1,-1,-1,-1,-1,-1],"split_conditions":[5.967742E-1,1E-45,3E0,5E0,1E-45,1E-45,1E-45,3.2258064E-1,-3.4244284E-3,4E0,1E-45,1E0,1.4E1,5E0,1.825E0,8.064516E-2,2.7E1,2.8E1,2E0,5E0,1E-45,1E-45,2.2E1,1E-45,1.65E0,9E0,-3.328922E-3,1E-45,2.2585E1,1E-45,1E-45,1E-45,1E-45,1E-45,1E-45,1E-45,1E-45,3.2258064E-2,-3.4471801E-3,-3.4530929E-3,-3.697662E-3,5.6224637E-2,1E-45,2E1,2.58E1,1.33E2,1.3E1,1E-45,1E0,2E0,1.231E1,5E0,1E-45,2.5E1,7.07941E-2,9.950188E-4,-3.0795962E-3,1.982801E-2,4.557019E-3,2.8024219E-2,9.595552E-3,4.9479622E-2,-3.799217E-3,4.535946E-3,1.1397047E-3,1.9662457E-2,-2.7958145E-3,2.6995353E-2,-3.5095322E-3,-4.937133E-4,-3.509419E-3,-2.9924104E-3,-1.2054946E-3,8.835082E-3,-5.5802874E-3,1.1455476E-1,-9.5172116E-4,3.825794E-1,6.4770475E-2,1.3696742E-1,-5.6602224E-3,1.1240233E-2,9.650685E-2,3.3232864E-2,2.3354378E-3,2.5122464E-1,-3.789749E-3,-6.4499527E-3,1.4793903E-1,6.00038E-2,1.0008456E-2,5.721544E-3,-3.316045E-3,-2.1952805E-3,-4.1906056E-3,1.1846009E-2,-2.2957723E-3],"split_indices":[14,0,6,6,0,0,0,14,0,6,0,6,5,6,14,14,5,5,5,6,0,0,5,0,14,5,0,0,1,0,0,0,0,0,0,0,0,14,0,0,0,0,0,5,1,1,5,0,6,5,1,6,0,5,0,0,0,0,0,0,0,0,0,0,0,0,0,0,0,0,0,0,0,0,0,0,0,0,0,0,0,0,0,0,0,0,0,0,0,0,0,0,0,0,0,0,0],"split_type":[0,1,0,0,1,1,1,0,0,0,1,0,0,0,0,0,0,0,0,0,1,1,0,1,0,0,0,1,0,1,1,1,1,1,1,1,1,0,0,0,0,0,1,0,0,0,0,1,0,0,0,0,1,0,0,0,0,0,0,0,0,0,0,0,0,0,0,0,0,0,0,0,0,0,0,0,0,0,0,0,0,0,0,0,0,0,0,0,0,0,0,0,0,0,0,0,0],"sum_hessian":[6.481E3,6.107E3,3.74E2,6.14E2,5.493E3,1.51E2,2.23E2,4.38E2,1.76E2,8.29E2,4.664E3,2.7E1,1.24E2,5.3E1,1.7E2,2.77E2,1.61E2,4.66E2,3.63E2,2.616E3,2.048E3,8E0,1.9E1,5.2E1,7.2E1,2.6E1,2.7E1,1.66E2,4E0,5.7E1,2.2E2,1.28E2,3.3E1,3.94E2,7.2E1,2E1,3.43E2,1.845E3,7.71E2,1.81E3,2.38E2,1E0,7E0,1.1E1,8E0,2.9E1,2.3E1,6.9E1,3E0,9E0,1.7E1,5.4E1,1.12E2,3E0,1E0,6E0,5.1E1,4.9E1,1.71E2,8.1E1,4.7E1,3E0,3E1,2.32E2,1.62E2,3E0,6.9E1,4E0,1.6E1,5.9E1,2.84E2,7.75E2,1.07E3,3E0,4E0,7E0,4E0,3E0,5E0,2.5E1,4E0,2.1E1,2E0,1.4E1,5.5E1,1E0,2E0,3E0,6E0,6E0,1.1E1,2.8E1,2.6E1,3.6E1,7.6E1,1E0,2E0],"tree_param":{"num_deleted":"0","num_feature":"20","num_nodes":"97","size_leaf_vector":"1"}},{"base_weights":[4.71017E-4,6.497012E-1,-5.6343503E-2,1.2837828E0,1.9791873E-1,7.242612E-2,-8.92286E-2,5.183237E-1,1.9215976E0,1.6087297E-1,1.7245317E-1,1.8422672E-1,-6.745876E-2,-7.108335E-2,-1.1290623E-1,-3.2988034E-2,8.713425E-1,1.7088255E0,4.6336102E0,4.8166102E-1,-1.00126065E-1,2.0844549E-2,2.9998916E-1,1.490006E-2,-3.3339043E-3,-5.417926E-2,-3.3476714E-3,-3.3692268E-3,-1.5542072E-1,1.3537937E-1,-3.572036E-3,1.8189307E0,3.9936376E-1,2.803176E0,9.2020506E-1,-7.673429E-3,6.3060374E0,1.0662841E0,-3.2982787E-3,-1.2111894E-1,1.23475395E-1,7.297725E-2,-1.0022588E-1,1.136793E0,2.616629E-1,3.3852533E-1,-7.2079204E-2,-1.9110065E-2,-8.2799174E-2,-5.8054756E-3,-3.2683557E-3,6.320784E-3,-3.1673226E-3,1.4403658E-1,3.0306594E-2,2.6044378E-3,3.5205062E-2,1.1155663E-1,2.563297E-2,8.5860886E-2,3.9718575E-3,2.7978662E-1,5.313417E-3,8.189311E-2,2.1111906E-2,-4.63239E-3,-3.0992192E-3,1.1758738E-2,-2.9719153E-3,-3.481115E-3,3.1493956E-3,4.6512726E-4,-3.6979283E-3,5.040951E-2,-4.191617E-3,1.0710289E-2,2.2234486E-3,2.273469E-2,6.7985714E-3,1.9138068E-3,-3.7275364E-3,-3.1949056E-3,-1.0372594E-4,-3.3771805E-3,-2.1921261E-3],"categories":[0,1,2,3,5,7,8,9,10,11,12,13,14,15,16,17,18,19,20,21,22,23,24,25,26,27,28,29,31,32,33,34,35,36,37,38,39,40,41,42,43,44,45,46,47,48,49,50,51,52,53,54,55,56,57,58,59,61,62,63,64,65,66,67,68,69,70,71,72,73,74,75,76,77,78,79,80,81,82,83,84,85,86,87,88,89,90,91,92,93,94,95,96,97,98,99,100,101,102,103,105,106,107,108,109,110,111,112,114,116,117,118,119,120,122,123,124,125,127,128,129,130,131,132,133,134,135,136,137,138,139,140,141,142,143,144,145,146,147,148,149,150,151,152,153,154,155,156,157,158,159,160,161,162,163,164,165,166,167,170,171,173,174,175,176,177,178,179,180,181,182,183,184,185,186,187,188,189,190,191,192,197,0,1,2,3,5,7,8,9,10,11,12,14,15,16,18,21,22,24,26,28,29,31,32,33,34,36,37,38,39,41,42,43,44,45,46,48,49,50,51,52,53,54,55,56,57,63,65,66,68,69,70,71,74,75,78,79,80,81,82,83,84,86,87,88,89,90,91,94,95,96,97,98,99,100,101,102,103,105,106,107,108,109,110,111,116,117,119,120,123,124,125,128,129,131,132,133,134,135,136,137,139,140,141,142,143,144,145,146,147,149,150,151,152,153,154,156,157,158,159,162,163,164,166,167,170,171,173,174,175,176,177,178,179,180,181,182,183,185,186,188,189,190,191,192,197,1,3,5,7,14,15,18,24,26,34,39,42,48,51,56,63,69,70,79,80,83,84,88,91,96,97,100,101,102,103,105,109,110,124,125,128,131,132,135,136,140,146,150,153,154,157,159,162,163,164,167,173,174,175,176,181,185,186,188,189,191,192,197,0,1,2,3,5,7,8,9,10,11,12,13,14,15,16,17,18,19,20,21,22,23,24,25,26,27,28,29,30,31,32,33,34,35,36,37,38,39,40,41,42,43,44,45,46,47,48,49,50,51,52,53,54,55,56,57,58,59,61,62,63,64,65,66,67,68,69,70,71,72,73,74,75,76,77,78,79,80,81,82,83,84,85,86,87,88,89,90,91,92,93,94,95,96,97,98,99,100,101,102,103,105,106,107,108,109,110,111,112,113,114,115,116,117,118,119,120,122,123,124,125,126,127,128,129,130,131,132,133,134,135,136,137,138,139,140,141,142,143,144,145,146,147,148,149,150,151,152,153,154,155,156,157,158,159,160,161,162,163,164,165,166,167,168,169,170,171,173,174,175,176,177,178,179,180,181,182,183,184,185,186,187,188,189,190,191,192,193,194,195,197,104,115,168,169,193,194,195,0,1,2,3,4,5,6,7,8,9,10,11,12,13,14,15,16,17,18,19,20,21,22,23,24,25,26,27,28,29,30,31,32,33,34,35,36,37,38,39,40,41,42,43,44,45,46,47,48,49,50,51,52,53,54,55,56,57,58,59,60,61,62,63,64,65,66,67,68,69,70,71,72,73,74,75,76,77,78,79,80,81,82,83,84,85,86,87,88,89,90,91,92,93,94,95,96,97,98,99,100,101,102,103,104,105,106,107,108,109,110,111,112,113,114,115,116,117,118,119,120,121,122,123,124,125,126,127,128,129,130,131,132,133,134,135,136,137,138,139,140,141,142,143,144,145,146,147,148,149,150,151,152,153,154,155,156,157,158,159,160,161,162,163,164,165,166,167,168,169,170,171,172,173,174,175,176,177,178,179,180,181,182,183,184,185,186,187,188,189,190,191,192,194,196,197,17,58,67,72,73,130,187,0,1,2,3,4,5,6,7,8,9,10,11,12,13,14,15,16,17,18,19,20,21,22,23,24,25,26,27,28,29,30,31,32,33,34,35,36,37,38,39,40,41,42,43,44,45,46,47,48,49,50,51,52,53,54,55,56,57,59,60,61,62,63,64,65,66,67,68,69,70,71,73,74,75,76,77,78,79,80,81,82,83,84,85,86,87,88,89,90,91,92,93,94,95,96,97,98,99,100,101,102,103,104,105,106,107,108,109,110,111,112,113,114,115,116,117,118,119,120,121,122,123,124,125,126,127,128,129,131,132,133,134,135,136,137,138,139,140,141,142,143,144,145,146,147,148,149,150,151,152,153,154,155,156,157,158,159,160,161,162,163,164,165,166,167,168,169,170,171,172,173,174,175,176,177,178,179,180,181,182,183,184,185,186,187,188,189,190,191,192,193,194,195,196,197,0,1,2,3,4,5,6,7,8,9,10,11,12,13,14,15,16,17,18,19,21,22,23,24,25,26,27,28,29,30,31,32,33,34,35,36,37,38,39,41,42,43,44,45,46,47,48,49,50,51,52,53,54,55,56,57,58,60,61,62,63,65,66,67,68,69,70,71,72,73,74,75,76,77,78,79,80,81,82,83,84,86,87,88,89,90,91,92,93,94,95,96,97,98,99,100,101,102,103,104,105,106,107,108,109,110,111,112,113,115,116,117,118,119,120,121,122,123,124,125,126,127,128,129,130,131,132,133,134,135,136,137,138,139,140,141,142,143,144,145,146,147,148,149,150,151,152,153,154,156,157,158,159,160,161,162,163,164,165,166,167,168,169,170,171,172,173,174,175,176,177,178,179,180,181,182,183,184,185,186,188,189,190,191,192,193,194,195,196,197,9,10,16,22,29,31,33,37,38,43,44,45,49,50,55,57,65,66,68,71,75,78,81,89,90,94,106,108,116,120,123,134,141,143,145,149,152,166,171,178,179,180,182,183,190,0,1,2,3,5,6,7,8,9,10,11,12,13,14,15,16,17,18,19,20,21,22,23,24,25,26,27,28,29,31,32,33,34,35,36,37,38,39,40,41,42,43,44,45,46,47,48,49,50,51,52,53,54,55,56,57,58,59,60,61,62,63,64,65,66,67,68,69,70,71,72,73,74,75,76,77,78,79,80,81,82,83,84,85,86,87,88,89,90,91,92,93,94,95,96,97,98,99,100,101,102,103,104,105,106,107,108,109,110,111,112,113,114,116,117,118,119,120,122,123,124,125,127,128,129,130,131,132,133,134,135,136,137,138,139,140,141,142,143,144,145,146,147,148,149,150,151,152,153,154,155,156,157,158,159,160,161,162,163,164,165,166,167,168,170,171,172,173,174,175,176,177,178,179,180,181,182,183,184,185,186,187,188,189,190,191,192,193,195,196,197,0,1,2,3,5,6,7,8,9,10,11,12,13,14,15,16,17,18,19,20,21,22,23,24,25,26,27,28,29,30,31,32,33,34,35,36,37,38,39,40,41,42,43,44,45,46,47,48,49,50,51,52,53,54,55,56,57,58,59,61,62,63,64,65,66,67,68,69,70,71,72,73,74,75,76,77,78,79,80,81,82,83,84,85,86,87,88,89,90,91,92,93,94,95,96,97,98,99,100,101,102,103,104,105,106,107,108,109,110,111,112,113,114,115,116,117,118,119,120,122,123,124,125,126,127,128,129,130,131,132,133,134,135,136,137,138,139,140,141,142,143,144,145,146,147,148,149,150,151,152,153,154,155,156,157,158,159,160,161,162,163,164,165,166,167,169,170,171,172,173,174,175,176,177,178,179,180,181,182,183,184,185,186,187,188,189,190,191,192,193,194,195,196,197,13,23,25,27,35,47,58,61,67,72,73,76,92,112,118,130,148,160,161,165,184],"categories_nodes":[0,2,6,9,15,16,21,22,23,25,33,34,46],"categories_segments":[0,182,327,390,581,588,784,791,986,1176,1221,1412,1606],"categories_sizes":[182,145,63,191,7,196,7,195,190,45,191,194,21],"default_left":[0,0,0,0,0,0,1,0,0,0,0,0,0,0,0,1,0,0,0,0,0,1,0,0,0,1,0,0,0,0,0,0,0,0,0,0,0,0,0,0,0,0,0,0,0,0,1,0,0,0,0,0,0,0,0,0,0,0,0,0,0,0,0,0,0,0,0,0,0,0,0,0,0,0,0,0,0,0,0,0,0,0,0,0,0],"id":3,"left_children":[1,3,5,7,9,11,13,15,17,19,-1,21,23,25,27,29,31,33,35,37,39,41,43,45,-1,47,-1,-1,49,51,-1,53,55,57,59,-1,61,63,-1,65,67,69,71,73,75,77,79,81,83,-1,-1,-1,-1,-1,-1,-1,-1,-1,-1,-1,-1,-1,-1,-1,-1,-1,-1,-1,-1,-1,-1,-1,-1,-1,-1,-1,-1,-1,-1,-1,-1,-1,-1,-1,-1],"loss_changes":[2.3927727E2,1.4928166E2,2.5265858E1,1.0494797E2,6.199595E1,1.8998432E1,2.0336075E0,1.9491081E1,6.017276E1,2.5584463E1,0E0,1.2760372E1,1.9438865E0,1.837884E0,3.4975052E-2,5.958408E-1,2.655532E1,9.321649E1,6.703017E1,4.750075E1,8.0824757E-1,1.78091E0,1.2370811E1,5.3163543E0,0E0,1.907412E0,0E0,0E0,2.4950087E-2,2.763064E-1,0E0,4.3385895E1,1.0060287E1,7.88793E1,1.00587105E2,0E0,1.09411026E2,3.9693108E1,0E0,7.596612E-2,9.350473E-1,1.2038255E0,2.2854114E-1,1.202964E1,6.750847E0,1.7051449E0,1.064151E0,1.1704898E0,2.9503393E-1,0E0,0E0,0E0,0E0,0E0,0E0,0E0,0E0,0E0,0E0,0E0,0E0,0E0,0E0,0E0,0E0,0E0,0E0,0E0,0E0,0E0,0E0,0E0,0E0,0E0,0E0,0E0,0E0,0E0,0E0,0E0,0E0,0E0,0E0,0E0,0E0],"parents":[2147483647,0,0,1,1,2,2,3,3,4,4,5,5,6,6,7,7,8,8,9,9,11,11,12,12,13,13,14,14,15,15,16,16,17,17,18,18,19,19,20,20,21,21,22,22,23,23,25,25,28,28,29,29,31,31,32,32,33,33,34,34,36,36,37,37,39,39,40,40,41,41,42,42,43,43,44,44,45,45,46,46,47,47,48,48],"right_children":[2,4,6,8,10,12,14,16,18,20,-1,22,24,26,28,30,32,34,36,38,40,42,44,46,-1,48,-1,-1,50,52,-1,54,56,58,60,-1,62,64,-1,66,68,70,72,74,76,78,80,82,84,-1,-1,-1,-1,-1,-1,-1,-1,-1,-1,-1,-1,-1,-1,-1,-1,-1,-1,-1,-1,-1,-1,-1,-1,-1,-1,-1,-1,-1,-1,-1,-1,-1,-1,-1,-1],"split_conditions":[1E-45,3E0,1E-45,5.8064514E-1,1.35E2,4E0,1E-45,1.2E1,1.65E0,1E-45,1.7245317E-1,1.4516129E-1,5E0,5E0,5.483871E-1,1E-45,1E-45,1.4E1,2.2E1,5E0,1.33E2,1E-45,1E-45,1E-45,-3.3339043E-3,1E-45,-3.3476714E-3,-3.3692268E-3,4E0,2.9E1,-3.572036E-3,6E0,2.1E1,1E-45,1E-45,-7.673429E-3,2.8E1,2.3547654E-1,-3.2982787E-3,1.5E1,5E0,1.6129032E-2,7E0,3E0,2.4E1,1.2E1,1E-45,3.2258064E-2,1.6129032E-2,-5.8054756E-3,-3.2683557E-3,6.320784E-3,-3.1673226E-3,1.4403658E-1,3.0306594E-2,2.6044378E-3,3.5205062E-2,1.1155663E-1,2.563297E-2,8.5860886E-2,3.9718575E-3,2.7978662E-1,5.313417E-3,8.189311E-2,2.1111906E-2,-4.63239E-3,-3.0992192E-3,1.1758738E-2,-2.9719153E-3,-3.481115E-3,3.1493956E-3,4.6512726E-4,-3.6979283E-3,5.040951E-2,-4.191617E-3,1.0710289E-2,2.2234486E-3,2.273469E-2,6.7985714E-3,1.9138068E-3,-3.7275364E-3,-3.1949056E-3,-1.0372594E-4,-3.3771805E-3,-2.1921261E-3],"split_indices":[0,6,0,14,1,6,0,4,14,0,0,14,6,6,14,0,0,5,5,6,1,0,0,0,0,0,0,0,6,5,0,5,5,0,0,0,5,19,0,5,6,14,5,6,5,4,0,14,14,0,0,0,0,0,0,0,0,0,0,0,0,0,0,0,0,0,0,0,0,0,0,0,0,0,0,0,0,0,0,0,0,0,0,0,0],"split_type":[1,0,1,0,0,0,1,0,0,1,0,0,0,0,0,1,1,0,0,0,0,1,1,1,0,1,0,0,0,0,0,0,0,1,1,0,0,0,0,0,0,0,0,0,0,0,1,0,0,0,0,0,0,0,0,0,0,0,0,0,0,0,0,0,0,0,0,0,0,0,0,0,0,0,0,0,0,0,0,0,0,0,0,0,0],"sum_hessian":[6.485E3,5.21E2,5.964E3,2.16E2,3.05E2,1.213E3,4.751E3,9.9E1,1.17E2,3.04E2,1E0,6.74E2,5.39E2,2.692E3,2.059E3,3.9E1,6E1,1.1E2,7E0,1.36E2,1.68E2,2.8E2,3.94E2,1.87E2,3.52E2,1.901E3,7.91E2,2.034E3,2.5E1,1.3E1,2.6E1,1.9E1,4.1E1,4.5E1,6.5E1,2E0,5E0,6.8E1,6.8E1,1.54E2,1.4E1,1.96E2,8.4E1,1.6E1,3.78E2,3.9E1,1.48E2,8.55E2,1.046E3,1.2E1,1.3E1,1E1,3E0,3E0,1.6E1,3E1,1.1E1,3E1,1.5E1,1.8E1,4.7E1,3E0,2E0,1.1E1,5.7E1,5.1E1,1.03E2,6E0,8E0,2.8E1,1.68E2,1.4E1,7E1,1.1E1,5E0,2.5E2,1.28E2,7E0,3.2E1,4.1E1,1.07E2,1.29E2,7.26E2,2.55E2,7.91E2],"tree_param":{"num_deleted":"0","num_feature":"20","num_nodes":"85","size_leaf_vector":"1"}},{"base_weights":[1.6718626E-3,6.0059994E-1,-5.457855E-2,1.0137825E0,3.0804344E-2,1.08971395E-1,-8.41566E-2,5.182706E-1,1.4822923E0,9.295985E-1,-3.0063748E-2,2.3473659E-1,-5.549724E-2,-1.6113572E-2,-9.3155086E-2,5.0280515E-2,8.674249E-1,1.1649982E0,2.5204144E0,2.4874635E0,-2.9424126E-3,1.2869321E-1,-3.2137511E-3,2.2270326E-2,2.996006E-1,4.5518108E-2,-3.2376284E-3,2.2430116E-2,-3.2293603E-3,-7.7262804E-2,-1.1055304E-1,6.254898E-1,-8.178967E-2,1.1757306E0,5.6674E-1,7.6545715E-1,1.5714148E0,3.3491144E0,8.6056346E-1,-7.989162E-3,3.9309244E0,4.7510406E-1,-1.24037705E-1,-4.6856314E-2,3.77159E-1,7.8428614E-1,2.429385E-1,3.506136E-1,-6.367948E-2,1.8644997E-1,-4.1313916E-3,-6.4580336E-2,-3.2440082E-3,-3.28297E-3,-2.002253E-1,1.8491491E-3,5.6362376E-2,3.3861126E-3,-3.7682462E-3,4.2919684E-2,-4.5079994E-3,2.7785303E-2,-9.186051E-4,6.6766255E-2,-1.4504814E-3,8.8047616E-2,1.1902661E-2,6.246882E-2,1.3074932E-1,6.711067E-2,2.5883275E-3,1.5999459E-1,-4.1364236E-3,1.8605791E-2,-3.3282903E-3,2.5462664E-3,-4.42923E-3,2.2070203E-3,-3.6416692E-3,3.2792628E-2,3.8957654E-3,2.9263718E-2,-3.786816E-3,4.64665E-3,1.1629703E-2,1.34270415E-2,-3.4497948E-3,1.6976153E-3,-3.6082626E-3,2.6124014E-2,-9.180727E-4,1.1603204E-3,-2.5671828E-3,-2.8735644E-3,-1.2474923E-3,-8.9692725E-3,-3.7797648E-3],"categories":[0,1,2,3,5,6,7,8,9,10,11,12,13,14,15,16,17,18,19,20,21,22,23,24,25,26,27,28,29,31,32,33,34,36,37,38,39,40,41,42,43,44,45,46,47,48,49,50,51,52,53,54,55,56,57,58,59,61,62,63,64,65,66,67,68,69,70,71,72,73,74,75,76,77,78,79,80,81,82,83,84,85,86,87,88,89,90,91,93,94,95,96,97,98,99,100,101,102,103,105,106,107,108,109,110,111,112,114,115,116,117,119,120,122,123,124,125,127,128,129,130,131,132,133,134,135,136,137,138,139,140,141,142,143,144,145,146,147,148,149,150,151,152,153,154,155,156,157,158,159,160,161,162,163,164,165,166,167,170,171,172,173,174,175,176,177,178,179,180,181,182,183,184,185,186,187,189,190,191,192,197,0,1,2,3,4,5,7,8,9,10,12,14,15,16,17,18,21,22,24,26,28,29,30,31,32,33,34,35,36,37,38,39,40,41,42,43,44,46,48,49,50,51,52,53,54,55,56,57,60,61,63,65,66,68,69,70,71,73,74,75,77,78,79,80,81,82,83,84,85,87,88,89,90,91,92,94,95,96,97,99,100,101,102,103,104,105,106,107,108,109,110,111,113,115,116,117,118,119,120,121,123,124,125,126,128,129,131,132,133,134,135,136,137,139,140,141,142,143,144,145,146,147,148,149,150,151,152,153,154,155,156,157,158,159,161,162,163,164,165,166,167,168,169,170,171,173,174,175,176,177,178,179,180,181,182,183,184,185,186,187,188,189,190,191,192,193,194,195,196,197,0,1,2,3,4,5,6,7,8,9,10,11,12,13,14,15,16,17,18,19,20,21,22,23,24,25,26,27,28,29,30,31,32,33,34,35,36,37,38,39,40,41,42,43,44,45,46,47,48,49,50,51,52,53,54,55,56,57,58,59,60,61,62,63,64,65,66,67,68,69,70,71,72,73,74,75,76,77,78,79,80,81,82,83,84,85,86,87,88,89,90,91,92,93,94,95,96,97,98,99,100,101,102,103,104,105,106,107,108,109,110,111,112,113,114,115,116,117,118,119,120,121,122,123,124,125,126,127,128,129,130,131,132,133,134,135,136,137,138,139,140,141,142,143,144,145,146,147,148,149,150,151,152,153,154,155,156,157,158,159,160,161,162,163,164,165,166,167,168,169,170,171,172,173,174,175,176,177,178,179,180,181,182,183,184,185,186,187,188,189,190,191,192,193,194,195,197,0,1,3,5,7,9,10,14,15,16,18,21,22,24,26,28,29,31,33,34,36,37,38,39,41,42,43,44,46,48,49,50,51,53,54,55,56,57,63,65,66,68,69,70,71,74,75,78,79,80,81,82,84,88,89,90,91,94,95,96,97,99,100,101,102,103,105,108,109,110,111,115,116,117,119,120,123,124,125,129,131,132,133,134,135,136,137,139,140,141,142,143,144,145,146,147,148,149,150,151,152,153,154,155,156,157,158,159,162,163,164,165,166,167,170,171,173,174,175,176,177,178,179,180,181,182,183,184,185,186,189,190,191,192,197,1,3,5,7,18,24,38,42,43,48,51,54,56,63,65,69,70,71,78,79,80,88,89,90,94,96,97,101,102,103,108,109,110,111,115,124,125,132,133,136,140,141,143,147,148,153,154,156,157,162,163,167,173,176,179,181,184,185,186,189,191,192,197,0,1,2,3,4,5,6,7,8,9,10,11,12,13,14,15,16,17,18,19,20,21,22,23,24,25,26,27,28,29,30,31,32,33,34,36,37,38,39,40,41,42,43,44,45,46,47,48,49,50,51,52,53,54,55,56,57,58,59,60,61,62,63,64,65,66,67,68,69,70,71,72,73,74,75,76,77,78,79,80,81,82,83,84,85,86,87,88,89,90,91,93,94,95,96,97,98,99,100,101,102,103,104,105,106,107,108,109,110,111,112,113,114,115,116,117,118,119,120,121,122,123,124,125,126,127,128,129,130,131,132,133,134,135,136,137,138,139,140,141,142,143,144,145,146,147,148,149,150,151,152,153,154,155,156,157,158,159,160,161,162,163,164,165,166,167,168,169,170,171,172,173,174,175,176,177,178,179,180,181,182,183,184,185,186,187,188,189,190,191,192,193,194,195,196,197,0,1,2,3,5,6,7,8,9,10,11,12,13,14,15,16,17,18,19,20,21,22,23,24,25,26,27,28,29,30,31,32,33,34,36,37,38,39,40,41,42,43,44,45,46,47,48,49,50,51,52,53,54,55,56,57,58,59,61,62,63,64,65,66,67,68,69,70,71,72,73,74,75,76,77,78,79,80,81,82,83,84,85,86,87,88,89,90,91,93,94,95,96,97,98,99,100,101,102,103,105,106,107,108,109,110,111,112,113,114,115,116,117,118,119,120,121,122,123,124,125,127,128,129,130,131,132,133,134,135,136,137,138,139,140,141,142,143,144,145,146,147,148,149,150,151,152,153,154,155,156,157,158,159,160,161,162,163,164,165,166,167,168,169,170,171,172,173,174,175,176,177,178,179,180,181,182,183,184,185,186,187,188,189,190,191,192,193,194,195,196,197,0,1,2,3,4,5,6,7,8,9,10,11,12,13,14,15,16,17,18,19,20,21,22,23,24,25,26,27,28,29,30,31,32,33,34,35,36,37,38,39,40,41,42,43,44,46,47,48,49,50,51,52,53,54,55,56,57,59,60,61,62,63,64,65,66,68,69,70,71,73,74,75,76,77,78,79,80,81,82,83,84,85,86,87,88,89,90,91,92,93,94,95,96,97,98,99,100,101,102,103,104,105,106,107,108,109,110,111,112,113,114,115,116,117,118,119,120,121,122,123,124,125,126,127,128,129,130,131,132,133,134,135,136,137,138,139,140,141,142,143,144,145,146,147,148,149,150,151,152,153,154,155,156,157,158,159,160,161,162,163,164,165,166,167,168,169,170,171,172,173,174,175,176,177,178,179,180,181,182,183,184,185,186,187,188,189,190,191,192,193,194,195,196,197,0,1,2,3,4,5,7,8,9,10,11,12,13,14,15,16,17,18,21,22,23,24,25,26,27,28,29,30,31,32,33,34,35,36,37,38,39,40,41,42,43,44,45,46,47,48,49,50,51,52,53,54,55,56,57,58,59,60,61,62,63,65,66,67,68,69,70,71,72,73,74,75,76,77,78,79,80,81,82,83,84,85,86,87,88,89,90,91,92,93,94,95,96,97,98,99,100,101,102,103,104,105,106,107,108,109,110,111,112,113,115,116,117,118,119,120,121,122,123,124,125,126,128,129,130,131,132,133,134,135,136,137,138,139,140,141,142,143,144,145,146,147,148,149,150,151,152,153,154,155,156,157,158,159,160,161,162,163,164,165,166,167,168,169,170,171,173,174,175,176,177,178,179,180,181,182,183,184,185,186,187,188,189,190,191,192,193,194,195,196,197,104,118,168,169,188,193,194,195,92,0,1,2,3,4,5,6,7,8,9,10,11,12,13,14,15,16,17,18,19,20,21,22,23,24,25,26,27,28,29,30,31,32,33,34,35,36,37,38,39,40,41,42,43,44,45,46,47,48,49,50,51,52,53,54,55,56,57,58,59,60,61,62,63,64,65,66,67,68,69,70,71,72,73,74,75,76,77,78,79,80,81,82,83,84,85,86,87,88,89,90,91,93,94,95,96,97,98,99,100,101,102,103,105,106,107,108,109,110,111,112,113,114,115,116,117,119,120,121,122,123,124,125,126,127,128,129,130,131,132,133,134,135,136,137,138,139,140,141,142,143,144,145,146,147,148,149,150,151,152,153,154,155,156,157,158,159,160,161,162,163,164,165,166,167,168,169,170,171,172,173,174,175,176,177,178,179,180,181,182,183,184,185,186,187,188,189,190,191,192,194,195,196,197,0,1,2,3,4,5,6,7,8,9,10,11,12,13,14,15,16,17,18,19,20,21,22,23,24,25,26,27,28,29,30,31,32,33,34,35,36,37,38,39,40,41,42,43,44,45,46,47,48,49,50,51,52,53,54,55,56,57,58,59,60,61,62,63,64,65,66,67,68,69,70,71,72,73,74,75,76,77,78,79,80,81,82,83,84,85,86,87,88,89,90,91,92,93,94,95,96,97,98,99,100,101,102,103,104,105,106,107,108,109,110,111,112,114,115,116,117,118,119,120,121,122,123,124,125,126,127,128,129,130,131,132,133,134,135,136,137,138,139,140,141,142,143,144,145,146,147,148,149,150,151,152,153,154,155,156,157,158,159,160,161,162,163,164,165,166,167,168,170,171,172,173,174,175,176,177,178,179,180,181,182,183,184,185,186,187,188,189,190,191,192,193,195,196,197,0,1,2,3,4,5,6,7,8,9,10,11,12,13,14,15,16,17,18,19,20,21,22,23,24,25,26,27,28,29,30,31,32,33,34,35,36,37,38,39,40,41,42,43,44,45,46,47,48,49,50,51,52,53,54,55,56,57,58,59,60,61,62,63,64,65,66,67,68,69,70,71,72,73,74,75,76,77,78,79,80,81,82,83,84,85,86,87,88,89,90,91,92,93,94,95,96,97,98,99,100,101,102,103,104,105,106,107,108,109,110,111,112,113,114,115,116,117,118,119,120,122,123,124,125,127,128,129,130,131,132,133,134,135,136,137,138,139,140,141,142,143,144,145,146,147,148,149,150,151,152,153,154,155,156,157,158,159,160,161,162,163,164,165,166,167,169,170,171,172,173,174,175,176,177,178,179,180,181,182,183,184,185,186,187,189,190,191,192,193,194,195,196,197,30,118,121,168,169,188,193,194,195,13,45,58,64,67,72,86,98,0,1,2,3,4,5,6,7,8,9,10,11,12,14,15,16,17,18,19,20,21,22,23,24,25,26,27,28,29,30,31,32,33,34,35,36,37,38,39,40,41,42,43,44,45,46,47,48,49,50,51,52,53,54,55,56,57,58,59,60,61,62,63,64,65,66,67,68,69,70,71,72,73,74,75,76,77,78,79,80,81,82,83,84,85,86,87,88,89,90,91,92,93,94,95,96,97,99,100,101,102,103,104,105,106,107,108,109,110,111,112,113,114,115,116,117,118,119,120,121,122,123,124,125,126,127,128,129,130,131,132,133,134,135,136,137,138,139,140,141,142,143,144,145,146,147,148,149,150,151,152,153,154,155,156,157,158,159,160,161,162,163,164,165,166,167,168,169,170,171,172,173,174,175,176,177,178,179,180,181,182,183,184,185,186,187,188,189,190,191,192,193,194,195,196,197,13,23,25,27,45,47,58,59,72,76,98,112,130,138,160,0,1,2,3,4,5,6,7,8,9,10,11,12,13,14,15,16,17,18,19,20,21,22,23,24,25,26,27,28,29,30,31,32,33,34,35,36,37,38,39,41,42,43,44,45,46,47,48,49,50,51,52,53,54,55,56,57,58,59,60,61,62,63,64,65,66,67,68,69,70,71,72,74,75,76,77,78,79,80,81,82,83,84,85,86,87,88,89,90,91,92,93,94,95,96,97,98,99,100,101,102,103,104,105,106,107,108,109,110,111,112,113,114,115,116,117,118,119,120,121,122,123,124,125,126,127,129,130,131,132,133,134,135,136,137,138,139,140,141,142,143,144,145,146,147,148,149,150,151,152,153,154,155,156,157,158,159,160,161,162,163,164,165,166,167,168,169,170,171,172,173,174,175,176,177,178,179,180,181,182,183,184,185,186,188,189,190,191,192,193,194,195,196,197,17,40,73,85,128,187],"categories_nodes":[0,2,4,6,14,15,21,24,25,32,33,34,35,36,42,43,44,48,49,50],"categories_segments":[0,181,351,548,683,746,942,1134,1328,1519,1527,1528,1722,1917,2111,2120,2128,2324,2339,2533],"categories_sizes":[181,170,197,135,63,196,192,194,191,8,1,194,195,194,9,8,196,15,194,6],"default_left":[0,0,0,0,0,0,0,0,0,0,0,0,0,0,1,0,0,0,0,0,0,0,0,0,0,0,0,0,0,0,0,0,1,1,0,0,0,0,0,0,0,0,1,1,0,0,0,0,1,0,1,0,0,0,0,0,0,0,0,0,0,0,0,0,0,0,0,0,0,0,0,0,0,0,0,0,0,0,0,0,0,0,0,0,0,0,0,0,0,0,0,0,0,0,0,0,0],"id":4,"left_children":[1,3,5,7,9,11,13,15,17,19,21,23,25,27,29,31,33,35,37,39,-1,41,-1,43,45,47,-1,49,-1,51,53,55,57,59,61,63,65,67,69,-1,71,73,75,77,79,81,83,85,87,89,91,93,-1,-1,95,-1,-1,-1,-1,-1,-1,-1,-1,-1,-1,-1,-1,-1,-1,-1,-1,-1,-1,-1,-1,-1,-1,-1,-1,-1,-1,-1,-1,-1,-1,-1,-1,-1,-1,-1,-1,-1,-1,-1,-1,-1,-1],"loss_changes":[2.1935435E2,1.3157391E2,2.8801903E1,7.44491E1,1.2939008E1,1.8877228E1,3.085022E0,2.5937103E1,5.1742462E1,2.425875E1,2.7297382E0,7.1183224E0,2.1019702E0,2.083918E0,1.2224083E0,5.29295E0,7.7696304E0,1.9744186E1,4.938759E1,2.4896572E1,0E0,6.4499884E0,0E0,3.010608E0,1.0684933E1,4.553261E0,0E0,1.813122E0,0E0,9.052534E-1,1.9144249E-1,9.07065E0,5.003716E-1,1.5088329E1,1.0334594E1,7.971877E1,9.973982E1,2.2886475E1,1.4727815E1,0E0,2.3556927E1,2.7047048E0,2.245658E-1,9.334063E-1,3.399038E0,7.2597504E0,4.4762764E0,1.6766028E0,6.942731E-1,8.641964E0,1.2549281E0,1.1829829E0,0E0,0E0,1.4559531E-1,0E0,0E0,0E0,0E0,0E0,0E0,0E0,0E0,0E0,0E0,0E0,0E0,0E0,0E0,0E0,0E0,0E0,0E0,0E0,0E0,0E0,0E0,0E0,0E0,0E0,0E0,0E0,0E0,0E0,0E0,0E0,0E0,0E0,0E0,0E0,0E0,0E0,0E0,0E0,0E0,0E0,0E0],"parents":[2147483647,0,0,1,1,2,2,3,3,4,4,5,5,6,6,7,7,8,8,9,9,10,10,11,11,12,12,13,13,14,14,15,15,16,16,17,17,18,18,19,19,21,21,23,23,24,24,25,25,27,27,29,29,30,30,31,31,32,32,33,33,34,34,35,35,36,36,37,37,38,38,40,40,41,41,42,42,43,43,44,44,45,45,46,46,47,47,48,48,49,49,50,50,51,51,54,54],"right_children":[2,4,6,8,10,12,14,16,18,20,22,24,26,28,30,32,34,36,38,40,-1,42,-1,44,46,48,-1,50,-1,52,54,56,58,60,62,64,66,68,70,-1,72,74,76,78,80,82,84,86,88,90,92,94,-1,-1,96,-1,-1,-1,-1,-1,-1,-1,-1,-1,-1,-1,-1,-1,-1,-1,-1,-1,-1,-1,-1,-1,-1,-1,-1,-1,-1,-1,-1,-1,-1,-1,-1,-1,-1,-1,-1,-1,-1,-1,-1,-1,-1],"split_conditions":[1E-45,4E0,1E-45,5.8064514E-1,1E-45,4E0,1E-45,1.2E1,3.0104503E-1,5E0,5E0,1.1290322E-1,5E0,5E0,1E-45,1E-45,5.1E1,2E0,5.1E1,4.9E1,-2.9424126E-3,1E-45,-3.2137511E-3,5.2E1,1E-45,1E-45,-3.2376284E-3,4.8E1,-3.2293603E-3,5E0,5.483871E-1,3E0,1E-45,1E-45,1E-45,1E-45,1E-45,2E0,2.58E1,-7.989162E-3,5.1E1,5.2E1,1E-45,1E-45,1E-45,5.2E1,5.1E1,5.2E1,1E-45,1E-45,1E-45,3.2258064E-2,-3.2440082E-3,-3.28297E-3,3E0,1.8491491E-3,5.6362376E-2,3.3861126E-3,-3.7682462E-3,4.2919684E-2,-4.5079994E-3,2.7785303E-2,-9.186051E-4,6.6766255E-2,-1.4504814E-3,8.8047616E-2,1.1902661E-2,6.246882E-2,1.3074932E-1,6.711067E-2,2.5883275E-3,1.5999459E-1,-4.1364236E-3,1.8605791E-2,-3.3282903E-3,2.5462664E-3,-4.42923E-3,2.2070203E-3,-3.6416692E-3,3.2792628E-2,3.8957654E-3,2.9263718E-2,-3.786816E-3,4.64665E-3,1.1629703E-2,1.34270415E-2,-3.4497948E-3,1.6976153E-3,-3.6082626E-3,2.6124014E-2,-9.180727E-4,1.1603204E-3,-2.5671828E-3,-2.8735644E-3,-1.2474923E-3,-8.9692725E-3,-3.7797648E-3],"split_indices":[0,6,0,14,0,6,0,4,19,6,6,14,6,6,0,0,7,6,7,7,0,0,0,7,0,0,0,7,0,6,14,6,0,0,0,0,0,6,1,0,7,7,0,0,0,7,7,7,0,0,0,14,0,0,6,0,0,0,0,0,0,0,0,0,0,0,0,0,0,0,0,0,0,0,0,0,0,0,0,0,0,0,0,0,0,0,0,0,0,0,0,0,0,0,0,0,0],"split_type":[1,0,1,0,1,0,1,0,0,0,0,0,0,0,1,1,0,0,0,0,0,1,0,0,1,1,0,0,0,0,0,0,1,1,1,1,1,0,0,0,0,0,1,1,1,0,0,0,1,1,1,0,0,0,0,0,0,0,0,0,0,0,0,0,0,0,0,0,0,0,0,0,0,0,0,0,0,0,0,0,0,0,0,0,0,0,0,0,0,0,0,0,0,0,0,0,0],"sum_hessian":[6.509E3,5.58E2,5.951E3,3.23E2,2.35E2,9.11E2,5.04E3,1.58E2,1.65E2,1.4E1,2.21E2,5.16E2,3.95E2,5.89E2,4.451E3,6.8E1,9E1,1.28E2,3.7E1,5E0,9E0,7.2E1,1.49E2,1.21E2,3.95E2,1.35E2,2.6E2,4.15E2,1.74E2,2.329E3,2.122E3,1.2E1,5.6E1,4.3E1,4.7E1,6.6E1,6.2E1,2.4E1,1.3E1,2E0,3E0,3E1,4.2E1,1.02E2,1.9E1,4E1,3.55E2,3.5E1,1E2,5.7E1,3.58E2,1.653E3,6.76E2,2.098E3,2.4E1,9E0,3E0,1E1,4.6E1,3.6E1,7E0,2.9E1,1.8E1,2.3E1,4.3E1,2.8E1,3.4E1,1.2E1,1.2E1,4E0,9E0,2E0,1E0,2.4E1,6E0,4E0,3.8E1,3.9E1,6.3E1,4E0,1.5E1,3.3E1,7E0,2.22E2,1.33E2,2.9E1,6E0,3.2E1,6.8E1,1.3E1,4.4E1,2.35E2,1.23E2,7E2,9.53E2,9E0,1.5E1],"tree_param":{"num_deleted":"0","num_feature":"20","num_nodes":"97","size_leaf_vector":"1"}},{"base_weights":[5.9062354E-3,-4.667191E-2,7.2961557E-1,1.3509646E-1,-7.6661885E-2,1.494943E0,1.9811212E-1,2.8144228E-1,-5.5708513E-2,-1.540222E-2,-9.034807E-2,2.5945132E0,8.712935E-1,5.57358E-1,-9.560603E-2,4.837364E-2,3.598507E-1,4.136653E-2,-3.132345E-3,2.2329273E-2,-3.1388442E-3,-7.590176E-2,-1.06592044E-1,6.3768096E0,2.1017914E0,1.5973271E0,5.288918E-1,1.1558957E0,-3.1038343E-3,-7.2041433E-3,-1.3531484E-1,-9.31806E-2,1.3900237E-1,7.228034E-1,2.3309556E-1,5.224563E-1,-2.835241E-2,-4.8614904E-2,8.812751E-2,-6.399535E-2,-3.1472675E-3,-3.1709045E-3,-1.2657359E-1,4.0881577E-1,7.5121766E-1,6.052603E-1,3.4339724E0,6.505036E-1,6.3808312E0,1.098122E0,-8.202221E-2,1.4184545E0,-1.9037284E-1,9.100637E-2,-3.0306713E-3,-1.9894563E-1,-1.1372453E-1,-3.4306808E-3,-2.889926E-4,1.9623613E-4,7.382313E-3,4.104438E-2,1.19676525E-2,-9.087505E-4,9.788506E-3,3.5312474E-2,3.5367408E-3,2.9009357E-3,-3.7549105E-3,-1.535971E-4,-3.5077068E-3,1.0994242E-2,1.9094914E-3,-2.823703E-3,-1.3371874E-3,-3.9979587E-3,-2.9850204E-3,5.3630374E-2,1.3554746E-3,6.7670435E-2,-3.926545E-3,1.9201338E-2,1.4815891E-1,1.0089574E-1,4.285883E-3,2.934692E-1,-8.442415E-3,1.3424799E-2,3.8623776E-2,-7.2326693E-3,4.4210246E-3,5.953622E-2,2.1830993E-2,-2.650144E-3,-6.527807E-3,4.690894E-3,-3.6069488E-3,-4.5206556E-3,-7.878928E-3,-4.0073167E-3,-3.066429E-3],"categories":[0,1,2,3,4,5,7,8,9,10,12,13,14,15,16,17,18,21,22,23,24,25,26,28,29,31,32,33,34,36,37,38,39,40,41,42,43,44,46,47,48,49,50,51,52,53,54,55,56,57,61,63,65,66,67,68,69,70,71,73,74,75,76,77,78,79,80,81,82,84,85,86,87,88,89,90,91,94,95,96,97,98,99,100,101,102,103,104,105,106,107,108,109,110,111,113,114,115,116,117,119,120,121,122,123,124,125,126,128,129,131,132,133,134,135,136,137,139,140,141,142,143,144,145,146,147,148,149,150,151,152,153,154,155,156,157,158,159,161,162,163,164,165,166,167,168,169,170,171,173,174,175,176,177,178,179,180,181,182,183,185,186,187,188,189,190,191,192,194,196,197,0,1,3,5,7,9,10,14,15,16,18,22,24,25,26,28,29,31,32,33,34,36,37,38,41,42,43,44,46,47,48,49,50,51,53,54,55,56,57,63,65,66,67,68,69,70,71,74,75,78,79,80,82,85,88,89,90,91,94,95,96,97,98,99,100,101,102,103,104,105,108,109,110,111,115,116,117,120,123,124,125,128,129,131,132,133,134,135,136,137,139,140,141,142,143,145,146,149,150,151,152,153,154,157,158,159,162,163,164,165,166,167,168,169,171,173,174,175,176,177,178,179,180,181,182,183,185,186,188,189,190,191,192,194,197,0,1,2,3,5,6,7,8,9,10,11,12,13,14,15,16,17,18,19,20,21,23,24,25,26,27,28,29,31,32,33,34,35,36,37,38,39,40,41,42,43,44,45,46,47,48,49,50,51,52,53,54,55,56,57,58,59,61,62,63,64,65,66,67,68,69,70,71,72,73,74,75,76,77,78,79,80,81,82,83,84,85,86,87,88,89,90,91,92,93,94,95,96,97,98,99,100,101,102,103,104,105,106,107,108,109,110,111,112,114,115,116,117,118,119,120,121,122,123,124,125,126,127,128,129,130,131,132,133,134,135,136,137,138,139,140,141,142,143,144,145,146,147,148,149,150,151,152,153,154,155,156,157,158,159,160,161,162,163,164,165,166,167,170,171,172,173,174,175,176,177,178,179,180,181,182,183,184,185,186,187,188,189,190,191,192,193,194,195,196,197,0,1,2,3,5,7,8,9,10,11,12,13,14,15,16,17,18,19,20,21,22,23,24,25,26,27,28,29,30,31,32,33,34,36,37,38,39,40,41,42,43,44,45,46,47,48,49,50,51,52,53,54,55,56,57,58,59,61,62,63,64,65,66,67,68,69,70,71,72,73,74,75,76,77,78,79,80,81,82,83,84,85,86,87,88,89,90,91,92,93,94,95,96,97,98,99,100,101,102,103,105,106,107,108,109,110,111,112,113,114,115,116,117,118,119,120,123,124,125,126,127,128,129,130,131,132,133,134,135,136,137,138,139,140,141,142,143,144,145,146,147,148,149,150,151,152,153,154,155,156,157,158,159,160,161,162,163,164,165,166,167,168,169,170,171,172,173,174,175,176,177,178,179,180,181,182,183,184,185,186,187,189,190,191,192,193,194,195,197,1,3,5,7,14,15,18,24,26,34,38,42,47,50,51,54,56,63,65,67,68,69,71,80,88,89,90,94,96,98,100,102,103,104,105,109,110,124,125,128,131,132,134,135,136,140,141,145,157,159,162,163,166,167,168,175,176,179,181,182,186,188,192,113,115,126,168,169,194,0,1,2,3,4,5,6,7,8,9,10,11,12,13,14,15,16,17,18,19,20,21,22,23,24,25,26,27,28,29,30,31,32,33,34,36,37,38,39,40,41,42,43,44,46,47,48,49,50,51,52,53,54,55,56,57,59,61,62,63,64,65,66,67,68,69,70,71,73,74,75,76,77,78,79,80,81,82,83,84,85,86,87,88,89,90,91,93,94,95,96,97,98,99,100,101,102,103,104,105,106,107,108,109,110,111,112,113,114,115,116,117,118,119,120,121,122,123,124,125,126,127,128,129,131,132,133,134,135,136,137,138,139,140,141,142,143,144,145,146,147,148,149,150,151,152,153,154,155,156,157,158,159,160,161,162,163,164,165,166,167,168,169,170,171,172,173,174,175,176,177,178,179,180,181,182,183,184,185,186,187,188,189,190,191,192,193,194,196,197,0,1,2,3,4,5,6,7,8,9,10,11,12,13,14,15,16,17,18,19,20,21,22,23,24,25,26,27,28,29,30,31,32,33,34,35,36,37,38,39,40,41,42,43,44,45,46,47,48,49,50,51,52,53,54,55,56,57,58,59,60,61,62,63,65,66,67,68,69,70,71,72,73,74,75,76,77,78,79,80,81,82,83,84,85,86,87,88,89,90,91,93,94,95,96,97,98,99,100,101,102,103,104,105,106,107,108,109,110,111,112,113,114,115,116,117,118,119,120,121,122,123,124,125,126,127,128,129,130,131,132,133,134,135,136,137,138,139,140,141,142,143,144,145,146,147,148,149,150,151,152,153,154,155,156,157,158,159,160,161,162,163,164,165,166,167,168,169,170,171,173,174,175,176,177,178,179,180,181,182,183,184,185,186,187,188,189,190,191,192,193,194,195,196,197,47,98,104,168,188,0,1,2,3,4,5,6,7,8,9,10,11,12,13,14,15,16,17,18,19,20,21,23,24,25,26,27,28,29,30,31,32,33,34,35,36,37,38,39,40,41,42,43,44,45,46,47,48,49,50,51,52,53,54,55,56,57,58,59,60,61,62,63,64,65,66,67,68,69,70,71,72,73,74,75,76,77,78,79,80,81,82,83,84,85,86,87,88,89,90,91,92,93,94,95,96,97,98,99,100,101,102,103,104,105,106,107,108,109,110,111,112,113,114,115,116,117,118,119,120,121,122,123,124,125,126,127,128,129,130,131,132,133,134,135,136,137,138,139,140,141,142,143,144,145,146,147,148,149,150,151,152,153,154,155,156,157,158,159,160,161,162,163,164,165,166,167,168,170,171,172,173,174,175,176,177,178,179,180,181,182,183,184,185,186,187,188,189,190,191,192,193,194,195,196,197,0,1,2,3,4,5,7,8,9,10,11,12,13,14,15,16,17,18,19,20,21,22,23,24,25,26,27,28,29,30,31,32,33,34,35,36,37,38,39,40,41,42,43,44,45,46,47,48,49,50,51,52,53,54,55,56,57,58,59,60,61,62,63,64,65,66,68,69,70,71,72,73,74,75,76,77,78,79,80,81,82,83,84,85,86,87,88,89,90,91,92,93,94,95,96,97,98,99,100,101,102,103,105,106,107,108,109,110,111,112,113,114,115,116,117,118,119,120,123,124,125,126,127,128,129,130,131,132,133,134,135,136,137,138,139,140,141,142,143,144,145,146,147,148,149,150,151,152,153,154,155,156,157,158,159,160,161,162,163,164,165,166,167,168,169,170,171,172,173,174,175,176,177,178,179,180,181,182,183,184,185,186,187,188,189,190,191,192,193,194,195,197,27,30,35,45,58,59,72,83,112,118,130,160,184,193,195,8,12,13,21,52,61,73,76,86,87,107,148,155,161,187,0,1,2,3,4,5,6,7,8,9,10,11,12,14,15,16,18,19,20,21,22,23,24,25,26,27,28,29,30,31,32,33,34,35,36,37,38,39,40,41,42,43,44,45,46,47,48,49,50,51,52,53,54,55,56,57,58,59,60,61,62,63,64,65,66,67,68,69,70,71,72,74,75,76,77,78,79,80,81,82,83,84,85,86,87,88,89,90,91,92,93,94,95,96,97,98,99,100,101,102,103,104,105,106,107,108,109,110,111,112,113,114,115,116,117,118,119,120,121,122,123,124,125,126,127,128,129,130,131,132,133,134,135,136,137,138,139,140,141,142,143,144,145,146,147,148,149,150,151,152,153,154,155,156,157,158,159,160,161,162,163,164,165,166,167,168,169,170,171,172,173,174,175,176,177,178,179,180,181,182,183,184,185,186,188,189,190,191,192,193,194,195,196,197,0,1,2,3,5,6,7,8,9,10,11,12,13,14,15,16,17,18,19,20,21,22,23,24,25,26,27,28,29,30,31,32,33,34,35,36,37,38,39,40,41,42,43,44,45,46,47,48,49,50,51,52,53,54,55,56,57,58,59,60,61,62,63,64,65,66,67,68,69,70,71,72,73,74,75,76,77,78,79,80,81,82,83,84,85,86,87,88,89,90,91,92,93,94,95,96,97,98,99,100,101,102,103,104,105,106,107,108,109,110,111,112,113,114,115,116,117,118,119,120,121,122,123,124,125,126,127,128,129,130,131,132,133,134,135,136,137,138,139,140,141,142,143,144,145,146,147,148,149,150,151,152,153,154,155,156,157,158,159,160,161,162,163,164,165,166,167,168,169,170,171,172,173,174,175,176,177,178,179,180,181,182,183,184,185,186,187,188,189,190,191,192,193,194,195,196,197,0,1,2,3,4,5,6,7,8,9,10,11,12,13,14,15,16,17,18,19,20,21,22,23,24,25,26,27,28,29,31,32,33,34,35,36,37,38,39,40,41,42,43,44,45,46,47,48,49,50,51,52,53,54,55,56,57,58,59,60,61,62,63,64,65,66,67,68,69,70,71,72,73,74,75,76,77,78,79,80,81,82,83,84,85,86,87,88,89,90,91,92,93,94,95,96,97,98,99,100,101,102,103,104,105,106,107,108,109,110,111,112,113,114,115,116,117,118,119,120,121,122,123,124,125,126,127,128,129,130,131,132,133,134,135,136,137,138,139,140,141,142,143,144,145,146,147,148,149,150,151,152,153,154,155,156,157,158,159,160,161,162,163,164,165,166,167,168,169,170,171,172,173,174,175,176,177,178,179,180,181,182,183,184,185,186,187,188,189,190,191,192,193,194,195,196,197,0,1,2,3,4,5,6,7,8,9,10,11,12,13,14,15,16,17,18,19,20,21,22,23,24,25,26,27,28,29,30,31,32,33,34,35,36,37,38,39,40,41,42,43,44,45,46,47,48,49,50,51,52,53,54,55,56,57,58,59,60,61,62,63,64,65,66,67,68,69,70,71,72,73,74,75,76,77,78,79,80,81,82,83,84,85,86,87,88,89,90,91,92,93,94,95,96,97,98,99,100,101,102,103,104,105,106,107,108,109,110,111,112,113,114,115,116,117,118,119,120,121,122,123,124,125,126,127,128,129,130,131,132,133,134,135,136,137,138,139,140,141,142,143,144,145,146,147,148,149,150,151,152,153,154,155,156,157,158,159,160,161,162,163,164,165,166,167,168,169,170,171,172,173,174,175,176,177,178,179,180,181,182,183,184,185,186,187,188,189,190,191,192,193,195,196,197,4,6,35,60,121,196,126,168],"categories_nodes":[1,4,5,6,10,14,16,17,22,23,26,36,37,38,44,45,47,52,55],"categories_segments":[0,171,306,497,686,749,755,945,1140,1145,1341,1533,1548,1563,1757,1954,2151,2348,2354],"categories_sizes":[171,135,191,189,63,6,190,195,5,196,192,15,15,194,197,197,197,6,2],"default_left":[0,0,0,0,0,0,0,0,0,0,1,0,0,0,1,0,0,0,0,0,0,0,1,0,0,0,0,0,0,0,0,0,0,0,0,0,1,1,0,0,0,0,0,0,0,0,0,0,0,0,0,0,1,0,0,1,0,0,0,0,0,0,0,0,0,0,0,0,0,0,0,0,0,0,0,0,0,0,0,0,0,0,0,0,0,0,0,0,0,0,0,0,0,0,0,0,0,0,0,0,0],"id":5,"left_children":[1,3,5,7,9,11,13,15,17,19,21,23,25,27,29,31,33,35,-1,37,-1,39,41,43,45,47,49,51,-1,53,55,57,59,61,63,65,67,69,71,73,-1,-1,75,-1,77,79,81,83,85,87,89,91,93,95,-1,97,99,-1,-1,-1,-1,-1,-1,-1,-1,-1,-1,-1,-1,-1,-1,-1,-1,-1,-1,-1,-1,-1,-1,-1,-1,-1,-1,-1,-1,-1,-1,-1,-1,-1,-1,-1,-1,-1,-1,-1,-1,-1,-1,-1,-1],"loss_changes":[2.4831873E2,3.317564E1,1.7949805E2,2.4085745E1,4.377632E0,1.218595E2,2.7698751E1,8.90057E0,1.7772608E0,3.2174652E0,9.936943E-1,1.07732605E2,2.8240807E1,4.679156E1,5.080236E-1,1.6037335E0,1.6623753E1,4.240987E0,0E0,3.1411815E0,0E0,7.7486134E-1,2.252388E-2,2.752769E2,1.15546936E2,1.6342722E2,2.8257881E1,2.2185463E1,0E0,4.330348E-1,1.1475575E-1,8.5587054E-2,1.076317E0,1.910159E1,6.685996E0,4.098654E0,1.3558996E0,9.62033E-1,2.3545249E0,9.361582E-1,0E0,0E0,1.4141798E-3,0E0,3.5781198E0,3.552877E1,1.2716016E2,4.3585793E1,1.3872165E2,4.5977707E0,1.49506E0,1.8889236E1,1.1330247E-2,3.3633393E-1,0E0,3.4183025E-2,3.9417148E-3,0E0,0E0,0E0,0E0,0E0,0E0,0E0,0E0,0E0,0E0,0E0,0E0,0E0,0E0,0E0,0E0,0E0,0E0,0E0,0E0,0E0,0E0,0E0,0E0,0E0,0E0,0E0,0E0,0E0,0E0,0E0,0E0,0E0,0E0,0E0,0E0,0E0,0E0,0E0,0E0,0E0,0E0,0E0,0E0],"parents":[2147483647,0,0,1,1,2,2,3,3,4,4,5,5,6,6,7,7,8,8,9,9,10,10,11,11,12,12,13,13,14,14,15,15,16,16,17,17,19,19,21,21,22,22,23,23,24,24,25,25,26,26,27,27,29,29,30,30,31,31,32,32,33,33,34,34,35,35,36,36,37,37,38,38,39,39,42,42,44,44,45,45,46,46,47,47,48,48,49,49,50,50,51,51,52,52,53,53,55,55,56,56],"right_children":[2,4,6,8,10,12,14,16,18,20,22,24,26,28,30,32,34,36,-1,38,-1,40,42,44,46,48,50,52,-1,54,56,58,60,62,64,66,68,70,72,74,-1,-1,76,-1,78,80,82,84,86,88,90,92,94,96,-1,98,100,-1,-1,-1,-1,-1,-1,-1,-1,-1,-1,-1,-1,-1,-1,-1,-1,-1,-1,-1,-1,-1,-1,-1,-1,-1,-1,-1,-1,-1,-1,-1,-1,-1,-1,-1,-1,-1,-1,-1,-1,-1,-1,-1,-1],"split_conditions":[5.645161E-1,1E-45,3E0,4E0,1E-45,1E-45,1E-45,1.6129032E-1,5E0,5E0,1E-45,5E0,1.3E1,5E0,1E-45,2.5E-2,1E-45,1E-45,-3.132345E-3,8.064516E-2,-3.1388442E-3,5E0,1E-45,1E-45,8E-1,3.2E1,1E-45,2.9E1,-3.1038343E-3,5E0,4E0,2.8E1,2E0,1.5E1,1.2E1,9E0,1E-45,1E-45,1E-45,2.5E-2,-3.1472675E-3,-3.1709045E-3,5E0,4.0881577E-1,1E-45,1E-45,1.9E1,1E-45,4.164E1,1E0,4.164E1,1.26E1,1E-45,2.5E1,-3.0306713E-3,1E-45,5E0,-3.4306808E-3,-2.889926E-4,1.9623613E-4,7.382313E-3,4.104438E-2,1.19676525E-2,-9.087505E-4,9.788506E-3,3.5312474E-2,3.5367408E-3,2.9009357E-3,-3.7549105E-3,-1.535971E-4,-3.5077068E-3,1.0994242E-2,1.9094914E-3,-2.823703E-3,-1.3371874E-3,-3.9979587E-3,-2.9850204E-3,5.3630374E-2,1.3554746E-3,6.7670435E-2,-3.926545E-3,1.9201338E-2,1.4815891E-1,1.0089574E-1,4.285883E-3,2.934692E-1,-8.442415E-3,1.3424799E-2,3.8623776E-2,-7.2326693E-3,4.4210246E-3,5.953622E-2,2.1830993E-2,-2.650144E-3,-6.527807E-3,4.690894E-3,-3.6069488E-3,-4.5206556E-3,-7.878928E-3,-4.0073167E-3,-3.066429E-3],"split_indices":[14,0,6,6,0,0,0,14,6,6,0,5,5,6,0,14,0,0,0,14,0,6,0,0,14,1,0,5,0,6,6,5,6,5,4,5,0,0,0,14,0,0,6,0,0,0,5,0,1,6,1,1,0,5,0,0,6,0,0,0,0,0,0,0,0,0,0,0,0,0,0,0,0,0,0,0,0,0,0,0,0,0,0,0,0,0,0,0,0,0,0,0,0,0,0,0,0,0,0,0,0],"split_type":[0,1,0,0,1,1,1,0,0,0,1,0,0,0,1,0,1,1,0,0,0,0,1,1,0,0,1,0,0,0,0,0,0,0,0,0,1,1,1,0,0,0,0,0,1,1,0,1,0,0,0,0,1,0,0,1,0,0,0,0,0,0,0,0,0,0,0,0,0,0,0,0,0,0,0,0,0,0,0,0,0,0,0,0,0,0,0,0,0,0,0,0,0,0,0,0,0,0,0,0,0],"sum_hessian":[6.524E3,6.083E3,4.41E2,8.61E2,5.222E3,1.8E2,2.61E2,4.87E2,3.74E2,9.54E2,4.268E3,6.4E1,1.16E2,1.17E2,1.44E2,1.23E2,3.64E2,1.25E2,2.49E2,6.71E2,2.83E2,2.262E3,2.006E3,6E0,5.8E1,3.6E1,8E1,6.1E1,5.6E1,4.5E1,9.9E1,4.8E1,7.5E1,9.3E1,2.71E2,1.5E1,1.1E2,3.23E2,3.48E2,1.606E3,6.56E2,1.926E3,8E1,2E0,4E0,2.8E1,3E1,3.1E1,5E0,4.1E1,3.9E1,5.1E1,1E1,2.2E1,2.3E1,2.3E1,7.6E1,3.8E1,1E1,3.4E1,4.1E1,3E1,6.3E1,7.1E1,2E2,5E0,1E1,4.8E1,6.2E1,1.98E2,1.25E2,2.7E1,3.21E2,6.28E2,9.78E2,6.1E1,1.9E1,1E0,3E0,8E0,2E1,1.1E1,1.9E1,4E0,2.7E1,3E0,2E0,1E1,3.1E1,2.3E1,1.6E1,2.7E1,2.4E1,3E0,7E0,1.7E1,5E0,1.5E1,8E0,2.4E1,5.2E1],"tree_param":{"num_deleted":"0","num_feature":"20","num_nodes":"101","size_leaf_vector":"1"}},{"base_weights":[1.5990758E-4,6.000942E-1,-4.6280846E-2,1.1157999E0,-2.0610303E-2,9.7274944E-2,-7.67087E-2,4.1125965E0,9.5020425E-1,1.5104026E-1,-3.0289907E-3,2.1483397E-1,-4.9630504E-2,-9.884233E-3,-8.561331E-2,3.7036103E-1,4.0822774E-1,1.4979937E0,3.9911634E-1,7.379321E-1,-1.4782293E-2,9.635717E-2,3.2068866E-1,1.607635E-1,-7.8038335E-2,2.880652E-2,-3.0365298E-3,-6.9141746E-2,-1.0423559E-1,1.4764943E0,-2.6052853E-1,1.6881648E0,-2.1174897E-1,1.0825499E0,7.705651E-2,1.2638819E0,-4.3708E-2,-1.2042911E-1,1.7083876E-1,3.6899477E-1,-9.9459626E-2,6.422714E-1,9.149926E-2,6.745308E-1,-3.0105235E-3,-2.348431E-2,-1.0873934E-1,4.5521382E-2,-3.4590063E-3,-5.5343274E-2,-3.052137E-3,-3.0891313E-3,-1.7413111E-1,5.1843688E-2,1.0824125E-2,-2.2982848E-3,-8.352404E-3,2.0477936E-2,5.7193957E-2,-3.7502933E-3,-1.1269791E-2,-7.6543144E-3,6.0726378E-2,8.844353E-3,-2.7720556E-3,6.350247E-2,1.4539704E-2,5.7914155E-3,-5.3105853E-3,1.6575088E-3,-5.2358573E-3,2.5328042E-2,-3.297666E-3,1.3691487E-2,-3.9641852E-3,-9.336057E-4,-4.2127743E-3,2.7052583E-2,1.1307029E-2,4.7414238E-3,-3.0478996E-3,3.0202487E-2,5.806134E-3,3.6020607E-3,-3.0264144E-3,-3.7042336E-3,-3.0353093E-3,4.3086804E-4,5.0862804E-3,-7.718658E-4,-2.2022254E-3,-1.0354853E-2,-3.8052995E-3],"categories":[0,1,2,3,5,6,7,8,9,10,11,12,13,14,15,16,17,18,19,20,21,23,24,25,26,27,28,29,31,32,33,34,36,37,38,39,40,41,42,43,44,45,46,47,48,49,50,51,52,53,54,55,56,57,58,59,61,62,63,64,65,66,67,68,69,70,71,72,73,74,75,76,77,78,79,80,81,82,83,84,85,86,87,88,89,90,91,92,93,94,95,96,97,98,99,100,101,102,103,105,106,107,108,109,110,111,112,114,116,117,118,119,120,121,122,123,124,125,127,128,129,130,131,132,133,134,135,136,137,138,139,140,141,142,143,144,145,146,147,148,149,150,151,152,153,154,155,156,157,158,159,160,161,162,163,164,165,166,167,170,171,172,173,174,175,176,177,178,179,180,181,182,183,184,185,186,187,189,190,191,192,193,194,197,0,1,2,3,4,5,7,9,10,11,12,14,15,16,17,18,21,22,23,24,26,28,29,30,31,33,34,35,36,37,38,39,41,42,43,44,46,48,49,50,51,52,53,54,55,56,57,60,61,63,65,66,68,69,70,71,73,74,75,77,78,79,80,81,82,84,85,87,88,89,90,91,93,94,95,96,97,98,99,100,101,102,103,104,105,106,107,108,109,110,111,112,113,114,115,116,117,119,120,123,124,125,126,128,129,131,132,133,134,135,136,137,139,140,141,142,143,144,145,146,147,148,149,150,151,152,153,154,155,156,157,158,159,162,163,164,165,166,167,168,169,170,171,173,174,175,176,177,178,179,180,181,182,183,185,186,187,188,189,190,191,192,194,195,196,197,0,1,3,5,7,9,10,14,15,16,18,21,23,24,26,29,31,33,34,36,37,38,39,41,42,43,44,46,48,49,50,51,53,54,55,56,57,63,65,66,68,69,70,71,74,75,77,78,79,80,81,82,84,85,87,88,89,90,91,94,95,96,97,99,100,101,102,103,105,107,108,109,110,111,112,116,117,119,120,123,124,125,129,131,132,133,134,135,136,137,139,140,141,142,143,144,145,146,147,148,149,150,151,152,153,154,157,158,159,162,163,164,166,167,170,171,173,174,175,176,177,178,179,180,181,182,183,185,186,189,190,191,192,194,197,0,1,2,3,4,5,6,7,8,9,10,11,12,13,14,15,16,17,18,19,20,21,23,24,25,26,27,28,29,30,31,32,33,34,35,36,37,38,39,40,41,42,43,44,45,46,47,48,49,50,51,52,53,54,55,56,57,58,59,60,61,62,63,64,65,66,67,68,69,70,71,72,73,74,75,76,77,78,79,80,81,82,83,84,85,86,87,88,89,90,91,92,93,94,95,96,97,98,99,100,101,102,103,104,105,106,107,108,109,110,111,112,113,114,115,116,117,118,119,120,121,122,123,124,125,126,127,128,129,130,131,132,133,134,135,136,137,138,139,140,141,142,143,144,145,146,147,148,149,150,151,152,153,154,155,156,157,158,159,160,161,162,163,164,165,166,167,168,170,171,172,173,174,175,176,177,178,179,180,181,182,183,184,185,186,187,188,189,190,191,192,193,194,196,197,0,1,2,3,5,6,7,8,9,10,11,12,13,14,15,16,17,18,19,20,21,22,23,24,25,26,27,28,29,31,32,33,34,35,36,37,38,39,40,41,42,43,44,45,46,47,48,49,50,51,52,53,54,55,56,57,58,59,61,62,63,64,65,66,67,68,69,70,71,72,73,74,75,76,77,78,79,80,81,82,83,84,85,86,87,88,89,90,91,92,93,94,95,96,97,98,99,100,101,102,103,104,105,106,107,108,109,110,111,112,114,116,117,118,119,120,121,122,123,124,125,126,127,128,129,130,131,132,133,134,135,136,137,138,139,140,141,142,143,144,145,146,147,148,149,150,151,152,153,154,155,156,157,158,159,160,161,162,163,164,165,166,167,169,170,171,172,173,174,175,176,177,178,179,180,181,182,183,184,185,186,187,189,190,191,192,193,194,195,196,197,0,1,2,3,5,6,7,8,9,10,11,12,13,14,15,16,17,18,19,20,21,22,23,24,25,26,27,28,29,30,31,32,33,34,36,37,38,39,40,41,42,43,44,45,46,47,48,49,50,51,52,53,54,55,56,57,58,59,60,61,62,63,64,65,66,67,68,69,70,71,72,73,74,75,76,77,78,79,80,81,82,83,84,85,86,87,88,89,90,91,92,93,94,95,96,97,98,99,100,101,102,103,104,105,106,107,108,109,110,111,112,113,114,115,116,117,118,119,120,121,122,123,124,125,126,127,128,129,130,131,132,133,134,135,136,137,138,139,140,141,142,143,144,145,146,147,148,149,150,151,152,153,154,155,156,157,158,159,160,161,162,163,164,165,166,167,168,169,170,171,172,173,174,175,176,177,178,179,180,181,182,183,184,185,186,187,188,189,190,191,192,193,194,195,197,0,1,2,3,4,5,7,9,10,11,12,13,14,15,16,17,18,19,20,21,22,23,24,25,26,27,28,29,30,31,32,33,34,35,36,37,38,39,40,41,42,43,44,45,46,47,48,49,50,51,52,53,54,55,56,57,58,59,60,61,62,63,65,66,67,68,69,70,71,72,73,74,75,76,77,78,79,80,81,82,83,84,85,86,87,88,89,90,91,92,93,94,95,96,97,98,99,100,101,102,103,104,105,106,107,108,109,110,111,112,113,114,115,116,117,118,119,120,121,122,123,124,125,126,127,128,129,130,131,132,133,134,135,136,137,138,139,140,141,142,143,144,145,146,147,148,149,150,151,152,153,154,155,156,157,158,159,160,161,162,163,164,165,166,167,168,169,170,171,173,174,175,176,177,178,179,180,181,182,183,184,185,186,187,188,189,190,191,192,193,194,195,196,197,1,7,15,24,26,33,34,38,42,48,49,51,57,63,68,69,70,71,75,79,80,82,89,90,94,96,97,102,103,107,109,110,111,123,124,125,131,135,136,140,141,142,149,150,153,157,159,163,167,174,175,176,178,179,181,182,185,186,189,191,192,194,197,35,60,104,115,168,188,0,1,2,3,4,5,7,8,9,10,11,12,14,15,16,17,18,19,20,21,22,23,24,26,28,29,30,31,32,33,34,35,36,37,38,39,41,42,43,44,45,46,47,48,49,50,51,52,53,54,55,56,57,60,61,62,63,64,65,66,68,69,70,71,73,74,75,76,77,78,79,80,81,82,83,84,85,87,88,89,90,91,93,94,95,96,97,98,99,100,101,102,103,104,105,106,107,108,109,110,111,112,113,114,115,116,117,118,119,120,121,122,123,124,125,126,127,128,129,131,132,133,134,135,136,137,139,140,141,142,143,144,145,146,147,148,149,150,151,152,153,154,155,156,157,158,159,160,161,162,163,164,165,166,167,168,169,170,171,172,173,174,175,176,177,178,179,180,181,182,183,184,185,186,187,188,189,190,191,192,193,194,195,196,197,0,1,2,3,4,5,6,7,8,9,10,11,12,13,14,15,16,17,18,19,21,22,23,24,25,26,27,28,29,30,31,32,33,34,35,36,37,38,39,40,41,42,43,44,46,48,49,50,51,52,53,54,55,56,57,58,59,60,61,63,64,65,66,68,69,70,71,72,73,74,75,76,77,78,79,80,81,82,84,85,86,87,88,89,90,91,92,93,94,95,96,97,98,99,100,101,102,103,104,105,106,107,108,109,110,111,112,113,114,115,116,117,119,120,123,124,125,126,127,128,129,131,132,133,134,135,136,137,138,139,140,141,142,143,144,145,146,147,148,149,150,151,152,153,154,155,156,157,158,159,161,162,163,164,165,166,167,168,169,170,171,173,174,175,176,177,178,179,180,181,182,183,185,186,187,188,189,190,191,192,194,195,196,197,13,25,27,45,47,58,72,76,83,92,118,121,122,130,160,161,184,193,194,0,1,2,3,5,6,7,8,9,10,11,12,13,14,15,16,17,18,19,20,21,22,23,24,25,26,27,28,29,30,31,32,33,34,35,36,37,38,39,40,41,42,43,44,45,46,47,48,49,50,51,52,53,54,55,56,57,58,59,60,61,62,63,64,65,66,67,68,69,70,71,72,73,74,75,76,77,78,79,80,81,82,83,84,85,86,87,88,89,90,91,92,93,94,95,96,97,98,99,100,101,102,103,104,105,106,107,108,109,110,111,112,113,114,115,116,117,118,119,120,121,122,123,124,125,126,127,128,129,130,131,132,133,134,135,136,137,138,139,140,141,142,143,144,145,146,147,148,149,150,151,152,153,154,155,156,157,158,159,160,161,162,163,164,165,166,167,168,169,170,171,172,173,174,175,176,177,178,179,180,181,182,183,184,185,186,187,188,189,190,191,192,193,194,195,197,35,60,104,115,168,4,60,22,126,169,195,35,196,22,60,104,115,126,168,169,195,22,30,113,115,168,169,188,195,8,20,45,47,64,83,118,121,160,161,184,193,0,1,2,3,4,5,7,8,9,10,11,12,14,15,16,17,18,20,21,22,23,24,26,28,29,30,31,33,34,35,36,37,38,39,40,41,42,43,44,45,46,47,48,49,50,51,52,53,54,55,56,57,58,60,61,62,63,65,66,67,68,69,70,71,72,73,74,75,77,78,79,80,81,82,83,84,85,87,88,89,90,91,92,93,94,95,96,97,98,99,100,101,102,103,104,105,106,107,108,109,110,111,112,113,114,115,116,117,118,119,120,121,122,123,124,125,126,128,129,130,131,132,133,134,135,136,137,139,140,141,142,143,144,145,146,147,148,149,150,151,152,153,154,155,156,157,158,159,160,162,163,164,165,166,167,168,169,170,171,172,173,174,175,176,177,178,179,180,181,182,183,184,185,186,187,188,189,190,191,192,193,194,195,196,197,3,5,9,10,14,16,18,29,31,36,37,43,44,50,55,56,65,66,78,87,88,91,100,101,105,108,112,116,119,120,132,134,139,143,144,145,152,162,164,166,171,173,177,180,190],"categories_nodes":[0,2,6,7,8,9,12,14,16,21,22,24,28,29,30,32,34,36,37,38,40,42,49],"categories_segments":[0,184,350,485,680,871,1066,1260,1323,1329,1514,1698,1716,1717,1913,1918,1920,1924,1926,1934,1942,1954,2139],"categories_sizes":[184,166,135,195,191,195,194,63,6,185,184,18,1,196,5,2,4,2,8,8,12,185,45],"default_left":[0,0,0,0,0,0,0,0,0,0,0,0,0,0,1,0,1,0,0,0,0,0,0,0,1,0,0,0,1,0,1,0,1,0,1,0,1,1,1,0,1,0,0,0,0,0,0,0,0,1,0,0,0,0,0,0,0,0,0,0,0,0,0,0,0,0,0,0,0,0,0,0,0,0,0,0,0,0,0,0,0,0,0,0,0,0,0,0,0,0,0,0,0],"id":6,"left_children":[1,3,5,7,9,11,13,15,17,19,-1,21,23,25,27,-1,29,31,33,35,37,39,41,43,45,47,-1,49,51,53,55,57,59,61,63,65,67,69,71,73,75,77,79,81,-1,83,85,87,-1,89,-1,-1,91,-1,-1,-1,-1,-1,-1,-1,-1,-1,-1,-1,-1,-1,-1,-1,-1,-1,-1,-1,-1,-1,-1,-1,-1,-1,-1,-1,-1,-1,-1,-1,-1,-1,-1,-1,-1,-1,-1,-1,-1],"loss_changes":[1.803189E2,1.4886989E2,2.6246605E1,1.2214136E2,2.9394004E0,1.8161497E1,2.9487953E0,3.914242E2,7.245711E1,6.6286616E0,0E0,7.293232E0,2.8097055E0,2.066631E0,1.334465E0,0E0,7.5287695E0,3.969986E1,2.6769577E1,6.221794E0,1.0795287E0,1.4824905E1,2.264187E1,7.5802E0,6.891649E-1,9.9523425E-1,0E0,1.0396519E0,1.6334915E-1,4.9944496E-1,1.696527E-3,2.2625854E1,1.3786614E-1,4.9643066E1,3.1268792E0,4.955283E0,2.5510845E-1,3.4228843E-1,3.8742573E0,5.140314E0,4.491663E-1,8.474041E0,2.3419409E0,2.841259E0,0E0,1.6786805E0,1.6925573E-2,1.4235263E0,0E0,8.727746E-1,0E0,0E0,2.3928678E-1,0E0,0E0,0E0,0E0,0E0,0E0,0E0,0E0,0E0,0E0,0E0,0E0,0E0,0E0,0E0,0E0,0E0,0E0,0E0,0E0,0E0,0E0,0E0,0E0,0E0,0E0,0E0,0E0,0E0,0E0,0E0,0E0,0E0,0E0,0E0,0E0,0E0,0E0,0E0,0E0],"parents":[2147483647,0,0,1,1,2,2,3,3,4,4,5,5,6,6,7,7,8,8,9,9,11,11,12,12,13,13,14,14,16,16,17,17,18,18,19,19,20,20,21,21,22,22,23,23,24,24,25,25,27,27,28,28,29,29,30,30,31,31,32,32,33,33,34,34,35,35,36,36,37,37,38,38,39,39,40,40,41,41,42,42,43,43,45,45,46,46,47,47,49,49,52,52],"right_children":[2,4,6,8,10,12,14,16,18,20,-1,22,24,26,28,-1,30,32,34,36,38,40,42,44,46,48,-1,50,52,54,56,58,60,62,64,66,68,70,72,74,76,78,80,82,-1,84,86,88,-1,90,-1,-1,92,-1,-1,-1,-1,-1,-1,-1,-1,-1,-1,-1,-1,-1,-1,-1,-1,-1,-1,-1,-1,-1,-1,-1,-1,-1,-1,-1,-1,-1,-1,-1,-1,-1,-1,-1,-1,-1,-1,-1,-1],"split_conditions":[1E-45,4E0,1E-45,5E0,5E0,4E0,1E-45,1E-45,1E-45,1E-45,-3.0289907E-3,5E1,1E-45,5E0,1E-45,3.7036103E-1,1E-45,2.9E1,1.5E1,2.3E1,5.1E1,1E-45,1E-45,5E0,1E-45,2.9E1,-3.0365298E-3,5E0,1E-45,1E-45,1E-45,1.2E1,1E-45,2E0,1E-45,2.8269708E-1,1E-45,1E-45,1E-45,2.9E1,1E-45,2E1,1E-45,5E1,-3.0105235E-3,5E0,5E0,2.6E1,-3.4590063E-3,1E-45,-3.052137E-3,-3.0891313E-3,7E0,5.1843688E-2,1.0824125E-2,-2.2982848E-3,-8.352404E-3,2.0477936E-2,5.7193957E-2,-3.7502933E-3,-1.1269791E-2,-7.6543144E-3,6.0726378E-2,8.844353E-3,-2.7720556E-3,6.350247E-2,1.4539704E-2,5.7914155E-3,-5.3105853E-3,1.6575088E-3,-5.2358573E-3,2.5328042E-2,-3.297666E-3,1.3691487E-2,-3.9641852E-3,-9.336057E-4,-4.2127743E-3,2.7052583E-2,1.1307029E-2,4.7414238E-3,-3.0478996E-3,3.0202487E-2,5.806134E-3,3.6020607E-3,-3.0264144E-3,-3.7042336E-3,-3.0353093E-3,4.3086804E-4,5.0862804E-3,-7.718658E-4,-2.2022254E-3,-1.0354853E-2,-3.8052995E-3],"split_indices":[0,6,0,5,6,6,0,0,0,0,0,7,0,6,0,0,0,5,5,5,7,0,0,6,0,5,0,6,0,0,0,5,0,6,0,19,0,0,0,5,0,5,0,7,0,6,6,5,0,0,0,0,5,0,0,0,0,0,0,0,0,0,0,0,0,0,0,0,0,0,0,0,0,0,0,0,0,0,0,0,0,0,0,0,0,0,0,0,0,0,0,0,0],"split_type":[1,0,1,0,0,0,1,1,1,1,0,0,1,0,1,0,1,0,0,0,0,1,1,0,1,0,0,0,1,1,1,0,1,0,1,0,1,1,1,0,1,0,1,0,0,0,0,0,0,1,0,0,0,0,0,0,0,0,0,0,0,0,0,0,0,0,0,0,0,0,0,0,0,0,0,0,0,0,0,0,0,0,0,0,0,0,0,0,0,0,0,0,0],"sum_hessian":[6.47E3,4.64E2,6.006E3,2.53E2,2.11E2,1.05E3,4.956E3,1.2E1,2.41E2,6.7E1,1.44E2,5.83E2,4.67E2,5.83E2,4.373E3,3E0,9E0,1.2E2,1.21E2,1.4E1,5.3E1,2.76E2,3.07E2,5.5E1,4.12E2,4.1E2,1.73E2,2.323E3,2.05E3,3E0,6E0,1.08E2,1.2E1,3.8E1,8.3E1,8E0,6E0,3.4E1,1.9E1,1.15E2,1.61E2,1.27E2,1.8E2,1.8E1,3.7E1,1.49E2,2.63E2,3.68E2,4.2E1,1.634E3,6.89E2,2.016E3,3.4E1,2E0,1E0,1E0,5E0,2E1,8.8E1,9E0,3E0,1.6E1,2.2E1,3.6E1,4.7E1,3E0,5E0,2E0,4E0,8E0,2.6E1,5E0,1.4E1,9.8E1,1.7E1,6.1E1,1E2,6.3E1,6.4E1,1.34E2,4.6E1,1E1,8E0,5.2E1,9.7E1,8.4E1,1.79E2,2.95E2,7.3E1,6.2E2,1.014E3,6E0,2.8E1],"tree_param":{"num_deleted":"0","num_feature":"20","num_nodes":"93","size_leaf_vector":"1"}},{"base_weights":[-4.3107662E-3,-4.7808725E-2,3.6240217E-1,4.3786997E-1,-5.3031843E-2,5.35127E-1,-2.9486094E-3,3.2916346E0,1.4815678E-2,-6.902081E-2,2.1809082E-2,4.204563E-1,1.6362909E0,6.749214E0,-3.9826776E-3,4.0380284E-1,-1.2785806E-1,-5.667982E-2,-2.9588586E-3,9.929591E-2,-7.55284E-2,3.9683422E-1,1.6752759E-1,2.1339197E0,7.0470795E-3,2.75609E-1,2.874308E0,-2.3748142E-1,3.0481002E0,-1.484289E-1,-2.886814E-3,-7.5489186E-2,-2.6811045E-2,4.690924E-1,4.519744E-2,6.820352E-2,-8.41437E-2,1.142068E0,3.3775726E-1,1.4798543E0,3.686504E0,2.0876504E-1,-6.883952E-3,1.3420747E-1,-4.86362E-3,-9.7875E-3,-2.386291E-3,-6.9461553E-3,1.4411066E-1,-2.7751597E-3,-5.3331675E-3,-1.3800919E-4,-2.3143846E-3,9.860848E-4,-1.4345256E-3,2.1105302E-2,-8.71676E-4,2.9500301E-3,-1.7271228E-3,2.7402643E-2,-6.426171E-5,-8.877438E-6,-2.9060328E-3,1.1403312E-1,-4.0349393E-4,1.3341133E-2,1.4237352E-3,6.2113766E-2,2.0578213E-3,1.7171543E-2,2.4643758E-1,1.5168312E-3,1.2085502E-2],"categories":[0,1,2,3,4,6,7,9,10,11,12,13,16,17,18,20,21,1,2,6,13,15,16,19,20,21,1,5,6,7,8,9,11,14,17,20,21,0,1,2,3,4,5,6,8,10,11,12,13,14,15,16,17,18,19,20,21,0,1,3,4,5,8,9,11,12,13,14,16,17,18,19],"categories_nodes":[31,32,36,37,38],"categories_segments":[0,17,26,37,57],"categories_sizes":[17,9,11,20,15],"default_left":[0,0,0,0,0,0,0,0,0,0,0,0,0,0,0,0,0,0,0,0,0,0,0,0,0,0,0,0,0,0,0,1,1,0,0,0,1,1,1,0,0,0,0,0,0,0,0,0,0,0,0,0,0,0,0,0,0,0,0,0,0,0,0,0,0,0,0,0,0,0,0,0,0],"id":7,"left_children":[1,3,5,7,9,11,-1,13,15,17,19,21,23,25,-1,27,29,31,-1,33,35,37,-1,39,41,-1,43,45,47,49,-1,51,53,55,57,59,61,63,65,67,69,71,-1,-1,-1,-1,-1,-1,-1,-1,-1,-1,-1,-1,-1,-1,-1,-1,-1,-1,-1,-1,-1,-1,-1,-1,-1,-1,-1,-1,-1,-1,-1],"loss_changes":[1.0379626E2,1.4779539E1,5.495758E1,7.4803665E1,6.8893013E0,6.270018E1,0E0,9.561682E1,3.104033E0,1.7274513E0,7.655465E0,5.3406693E1,3.8090614E1,1.1378067E1,0E0,2.6160063E1,1.2394786E-2,1.8800488E0,0E0,1.1281863E1,5.6297064E-1,1.9646156E1,0E0,3.1102188E1,6.204093E-1,0E0,1.5293512E1,1.5630859E-1,1.8385328E1,2.1297753E-2,0E0,2.4102592E-1,1.6263385E0,8.428223E0,2.7032883E0,1.5478474E0,4.533975E-1,1.01445724E2,1.3111649E1,2.2362392E1,1.3630798E2,1.9456664E-1,0E0,0E0,0E0,0E0,0E0,0E0,0E0,0E0,0E0,0E0,0E0,0E0,0E0,0E0,0E0,0E0,0E0,0E0,0E0,0E0,0E0,0E0,0E0,0E0,0E0,0E0,0E0,0E0,0E0,0E0,0E0],"parents":[2147483647,0,0,1,1,2,2,3,3,4,4,5,5,7,7,8,8,9,9,10,10,11,11,12,12,13,13,15,15,16,16,17,17,19,19,20,20,21,21,23,23,24,24,26,26,27,27,28,28,29,29,31,31,32,32,33,33,34,34,35,35,36,36,37,37,38,38,39,39,40,40,41,41],"right_children":[2,4,6,8,10,12,-1,14,16,18,20,22,24,26,-1,28,30,32,-1,34,36,38,-1,40,42,-1,44,46,48,50,-1,52,54,56,58,60,62,64,66,68,70,72,-1,-1,-1,-1,-1,-1,-1,-1,-1,-1,-1,-1,-1,-1,-1,-1,-1,-1,-1,-1,-1,-1,-1,-1,-1,-1,-1,-1,-1,-1,-1],"split_conditions":[3.4643734E-1,2E0,5E0,1E0,1.2776412E-1,1.4766585E0,-2.9486094E-3,1.2E1,1.4E1,5E0,4E0,1.35E2,2.7E1,1.9164619E-1,-3.9826776E-3,1.3E1,4E0,5.4054055E-2,-2.9588586E-3,5.01E0,2E0,5E0,1.6752759E-1,2.2E1,2.9E1,2.75609E-1,5E0,5E0,1.9164619E-1,1.2E1,-2.886814E-3,1E-45,1E-45,2.6E1,1.2520076E2,1.8867925E-2,1E-45,1E-45,1E-45,1.6E1,2.2585E1,2.8E1,-6.883952E-3,1.3420747E-1,-4.86362E-3,-9.7875E-3,-2.386291E-3,-6.9461553E-3,1.4411066E-1,-2.7751597E-3,-5.3331675E-3,-1.3800919E-4,-2.3143846E-3,9.860848E-4,-1.4345256E-3,2.1105302E-2,-8.71676E-4,2.9500301E-3,-1.7271228E-3,2.7402643E-2,-6.426171E-5,-8.877438E-6,-2.9060328E-3,1.1403312E-1,-4.0349393E-4,1.3341133E-2,1.4237352E-3,6.2113766E-2,2.0578213E-3,1.7171543E-2,2.4643758E-1,1.5168312E-3,1.2085502E-2],"split_indices":[13,1,6,6,13,13,0,5,5,6,6,1,5,13,0,5,6,13,0,1,5,5,0,5,5,0,5,6,13,4,0,2,2,5,18,17,2,2,2,5,1,5,0,0,0,0,0,0,0,0,0,0,0,0,0,0,0,0,0,0,0,0,0,0,0,0,0,0,0,0,0,0,0],"split_type":[0,0,0,0,0,0,0,0,0,0,0,0,0,0,0,0,0,0,0,0,0,0,0,0,0,0,0,0,0,0,0,1,1,0,0,0,1,1,1,0,0,0,0,0,0,0,0,0,0,0,0,0,0,0,0,0,0,0,0,0,0,0,0,0,0,0,0,0,0,0,0,0,0],"sum_hessian":[6.505E3,5.816E3,6.89E2,6.1E1,5.755E3,5.01E2,1.88E2,7E0,5.4E1,4.742E3,1.013E3,4.55E2,4.6E1,3E0,4E0,1.4E1,4E1,3.349E3,1.393E3,5.64E2,4.49E2,4.54E2,1E0,3.5E1,1.1E1,1E0,2E0,1.2E1,2E0,2.2E1,1.8E1,2.054E3,1.295E3,7.1E1,4.93E2,2.5E1,4.24E2,3.2E1,4.22E2,2.6E1,9E0,6E0,5E0,1E0,1E0,7E0,5E0,1E0,1E0,9E0,1.3E1,4.7E1,2.007E3,3.37E2,9.58E2,4.8E1,2.3E1,3.25E2,1.68E2,1E0,2.4E1,5.6E1,3.68E2,9E0,2.3E1,3.08E2,1.14E2,1.8E1,8E0,6E0,3E0,4E0,2E0],"tree_param":{"num_deleted":"0","num_feature":"20","num_nodes":"73","size_leaf_vector":"1"}},{"base_weights":[8.250225E-4,-4.333693E-2,7.1804565E-1,1.280125E-1,-7.19575E-2,1.345448E0,-1.7429262E-2,2.2107998E-1,-2.8688442E-3,-1.6764024E-2,-8.5018866E-2,1.7078329E0,4.037921E-1,1.5438919E0,-4.440345E-2,3.112258E-1,-2.1861646E-2,1.4410697E-2,-2.876998E-3,-7.204347E-2,-9.9744625E-2,3.6752028E0,1.537403E0,6.4213955E-1,-1.1924425E-1,7.091305E-2,-1.4379123E-3,2.092287E-1,-1.0124729E-1,7.629297E-1,2.2386199E-1,3.3555076E-1,-1.07794106E-1,3.4480907E-2,-8.3936274E-2,-2.9295213E-3,-6.24611E-2,-9.89139E-2,-1.5250772E-1,3.909516E-1,1.4800794E-1,1.9040098E0,-1.8115595E-1,1.0468681E0,2.9747638E-1,1.982571E-1,-2.4679881E-1,6.562034E-1,-2.7529893E-3,-4.4707093E-2,-1.22221656E-1,5.3179048E-2,1.7797275E-2,4.122219E-3,1.3068173E-2,1.8981863E-2,-3.388716E-3,4.645301E-4,-4.6068593E-3,-3.0673998E-3,1.4524672E-3,4.295043E-3,-3.4325733E-3,-1.4570827E-3,-2.8698351E-3,-2.9169333E-3,-3.167277E-3,-4.930432E-3,-2.3918906E-3,4.118958E-2,-1.19438E-2,-9.538522E-3,6.0947318E-2,-2.2810493E-3,-8.170255E-3,2.3187678E-3,3.7068915E-2,2.0501375E-2,-3.3964838E-3,1.3000574E-2,-5.438673E-3,-1.0888676E-2,-4.2581605E-3,-6.5137417E-4,3.721128E-2,1.0577518E-3,-3.1603496E-3,-5.5693947E-3,-2.8084067E-3],"categories":[0,1,2,3,4,5,7,8,9,10,12,14,15,16,17,18,19,20,21,22,24,25,26,28,29,31,32,33,34,36,37,38,39,40,41,42,43,44,45,46,48,49,50,51,52,53,54,55,56,57,61,62,63,65,66,67,68,69,70,71,72,74,75,76,77,78,79,80,81,82,84,85,87,88,89,90,91,93,94,95,96,97,98,99,100,101,102,103,105,106,107,108,109,110,111,113,115,116,117,119,120,121,123,124,125,126,128,129,131,132,133,134,135,136,137,139,140,141,142,143,144,145,146,147,148,149,150,151,152,153,154,155,156,157,158,159,160,161,162,163,164,165,166,167,168,169,170,171,173,174,175,176,177,178,179,180,181,182,183,185,186,187,188,189,190,191,192,194,196,197,0,1,3,5,7,9,10,12,14,15,16,18,20,21,22,24,25,26,31,33,34,36,37,38,41,42,43,44,45,46,48,49,50,51,55,56,57,63,65,66,67,68,69,70,71,72,74,75,76,78,79,80,82,85,88,89,90,91,94,96,97,99,100,101,102,103,105,107,108,109,110,115,116,119,120,121,123,124,125,131,132,133,134,135,136,137,139,140,141,142,143,144,145,146,147,149,150,151,152,153,154,157,158,159,160,161,162,163,164,166,167,168,169,170,171,173,174,175,176,177,178,179,180,181,182,183,185,186,188,189,190,191,192,194,197,0,1,2,3,5,6,7,8,9,10,11,12,13,14,15,16,17,18,19,20,21,23,24,25,26,27,28,29,31,32,33,34,35,36,37,38,39,40,41,42,43,44,45,46,47,48,49,50,51,52,53,54,55,56,57,58,59,61,62,63,64,65,66,67,68,69,70,71,72,73,74,75,76,77,78,79,80,81,82,83,84,85,86,87,88,89,90,91,92,93,94,95,96,97,98,99,100,101,102,103,104,105,106,107,108,109,110,111,112,114,115,116,117,118,119,120,122,123,124,125,127,128,129,130,131,132,133,134,135,136,137,138,139,140,141,142,143,144,145,146,147,148,149,150,151,152,153,154,155,156,157,158,159,160,161,162,163,164,165,166,167,170,171,172,173,174,175,176,177,178,179,180,181,182,183,184,185,186,187,189,190,191,192,193,195,196,197,0,1,2,3,4,5,7,8,9,10,11,12,13,14,15,16,17,18,19,20,21,22,23,24,25,26,27,28,29,30,31,32,33,34,35,36,37,38,39,40,41,42,43,44,45,46,47,48,49,50,51,52,53,54,55,56,57,58,59,60,61,62,63,64,65,66,67,68,69,70,71,72,73,74,75,76,77,78,79,80,81,82,83,84,85,86,87,88,89,90,91,92,93,94,95,96,97,98,99,100,101,102,103,104,105,106,107,108,109,110,111,112,113,114,115,116,117,118,119,120,121,122,123,124,125,126,127,128,129,130,131,132,133,134,135,136,137,138,139,140,141,142,143,144,145,146,147,148,149,150,151,152,153,154,155,156,157,158,159,160,161,162,163,164,165,166,167,168,169,170,171,172,173,174,175,176,177,178,179,180,181,182,183,184,185,186,187,188,189,190,191,192,193,194,195,196,197,3,5,7,9,10,15,18,24,26,34,37,38,42,44,45,55,56,57,63,67,70,71,72,80,89,91,94,96,99,100,103,105,107,109,110,115,125,131,132,136,140,142,143,145,149,153,154,159,161,162,163,167,168,169,176,181,182,185,186,188,189,192,197,0,1,2,3,4,5,7,8,9,10,11,12,13,14,15,16,17,18,19,20,21,22,23,24,25,26,27,28,29,30,31,32,33,34,35,36,37,38,39,40,41,42,43,44,45,46,47,48,49,50,51,52,53,54,55,56,57,58,59,60,61,62,63,64,65,66,68,69,70,71,72,73,74,75,76,77,78,79,80,81,82,83,84,85,86,87,88,89,90,91,92,93,94,95,96,97,98,99,100,101,102,103,104,105,106,107,108,109,110,111,112,113,114,115,116,117,118,119,120,121,122,123,124,125,126,127,128,129,130,131,132,133,134,135,136,137,138,139,140,141,142,143,144,145,146,147,148,149,150,151,152,153,154,155,156,157,158,159,160,161,162,163,164,165,166,167,168,169,170,171,172,173,174,175,176,177,178,179,180,181,182,183,184,185,186,187,188,189,190,191,192,193,194,195,197,22,30,60,67,113,115,121,126,168,169,188,194,0,1,2,3,4,5,6,7,8,9,10,11,12,13,14,15,16,17,18,19,20,21,22,23,24,25,26,27,28,29,31,32,33,34,35,36,37,38,39,40,41,42,43,44,45,46,47,48,49,50,51,52,53,54,55,56,57,58,59,60,61,62,63,64,65,66,67,68,69,70,71,72,73,74,75,76,77,78,79,80,81,82,83,84,85,86,87,88,89,90,91,93,94,95,96,97,98,99,100,101,102,103,104,105,106,107,108,109,110,111,112,113,114,115,116,117,118,119,120,121,122,123,124,125,126,127,128,129,130,131,132,133,134,135,136,137,138,139,140,141,142,143,144,145,146,147,148,149,150,151,152,153,154,155,156,157,158,159,160,161,162,163,164,165,166,167,168,169,170,171,173,174,175,176,177,178,179,180,181,182,183,184,185,186,187,188,189,190,191,192,194,196,197,0,1,2,3,4,5,7,8,9,10,11,12,14,15,16,17,18,19,20,21,22,23,24,25,26,27,28,29,30,31,32,33,34,35,36,37,38,39,40,41,42,43,44,45,46,47,48,49,50,51,52,53,54,55,56,57,58,60,61,62,63,64,65,66,67,68,69,70,71,72,73,74,75,76,77,78,79,80,81,82,83,84,85,86,87,88,89,90,91,92,93,94,95,96,97,98,99,100,101,102,103,104,105,106,107,108,109,110,111,112,113,114,115,116,117,118,119,120,121,122,123,124,125,126,128,129,131,132,133,134,135,136,137,138,139,140,141,142,143,144,145,146,147,148,149,150,151,152,153,154,155,156,157,158,159,160,161,162,163,164,165,166,167,168,169,170,171,172,173,174,175,176,177,178,179,180,181,182,183,185,186,187,188,189,190,191,192,193,194,195,196,197,115,168,188,0,1,2,3,4,5,6,7,8,9,10,11,12,13,14,15,16,17,18,19,20,21,23,24,25,26,27,28,29,30,31,32,33,34,35,36,37,38,39,40,41,42,43,44,45,46,47,48,49,50,51,52,53,54,55,56,57,58,59,60,61,62,63,64,65,66,67,68,69,70,71,72,73,74,75,76,77,78,79,80,81,82,83,84,85,86,87,88,89,90,91,92,93,94,95,96,97,98,99,100,101,102,103,104,105,106,107,108,109,110,111,112,113,114,115,116,117,118,119,120,121,122,123,124,125,126,127,128,129,130,131,132,133,134,135,136,137,138,139,140,141,142,143,144,145,146,147,148,149,150,151,152,153,154,155,156,157,158,159,160,161,162,163,164,165,166,167,168,170,171,172,173,174,175,176,177,178,179,180,181,182,183,184,185,186,187,188,189,190,191,192,193,194,195,196,197,22,169,22,60,115,121,126,168,169,188,194,23,27,35,47,58,60,64,83,92,104,114,118,122,172,193,195,2,8,17,19,28,29,32,39,40,53,54,77,81,84,87,93,95,98,106,111,117,128,129,148,155,156,165,187,30,121,126,168,188,194,169],"categories_nodes":[1,4,5,6,10,12,14,15,16,20,21,22,28,32,34,40,42],"categories_segments":[0,170,305,492,689,752,947,959,1152,1344,1347,1543,1545,1554,1570,1598,1604],"categories_sizes":[170,135,187,197,63,195,12,193,192,3,196,2,9,16,28,6,1],"default_left":[0,0,0,0,0,0,0,0,0,0,1,0,0,0,1,0,0,0,0,0,1,0,1,0,0,0,0,0,1,0,0,0,1,0,1,0,0,0,0,0,1,0,1,0,0,0,0,0,0,0,0,0,0,0,0,0,0,0,0,0,0,0,0,0,0,0,0,0,0,0,0,0,0,0,0,0,0,0,0,0,0,0,0,0,0,0,0,0,0],"id":8,"left_children":[1,3,5,7,9,11,13,15,-1,17,19,21,23,25,27,29,31,33,-1,35,37,39,41,43,45,-1,-1,47,49,51,53,55,57,59,61,-1,63,65,67,-1,69,71,73,75,77,79,81,83,-1,85,87,-1,-1,-1,-1,-1,-1,-1,-1,-1,-1,-1,-1,-1,-1,-1,-1,-1,-1,-1,-1,-1,-1,-1,-1,-1,-1,-1,-1,-1,-1,-1,-1,-1,-1,-1,-1,-1,-1],"loss_changes":[2.0641803E2,3.011559E1,1.7444724E2,1.8316357E1,3.7912407E0,6.892377E1,7.438744E0,1.360681E1,0E0,2.488158E0,8.0563927E-1,4.363864E1,7.307107E0,4.0285897E0,2.515398E0,1.770575E1,5.2267227E0,1.4319575E0,0E0,5.4968166E-1,7.213783E-2,3.6109607E2,8.665979E1,5.268383E0,8.1840575E-1,0E0,0E0,