{"learner":{"attributes":{"scikit_learn":"{\"_estimator_type\": \"regressor\"}"},"feature_names":["v_id_producto","categoria","anio","mes","dia_del_mes","dia_de_la_semana","semana_del_anio","es_fin_de_semana","es_fin_mes","anio_mes","mes_sin","mes_cos","promedio_total","promedio_mensual"],"feature_types":["c","c","int","int","int","int","int","int","int","int","float","float","float","float"],"gradient_booster":{"model":{"gbtree_model_param":{"num_parallel_tree":"1","num_trees":"150"},"iteration_indptr":[0,1,2,3,4,5,6,7,8,9,10,11,12,13,14,15,16,17,18,19,20,21,22,23,24,25,26,27,28,29,30,31,32,33,34,35,36,37,38,39,40,41,42,43,44,45,46,47,48,49,50,51,52,53,54,55,56,57,58,59,60,61,62,63,64,65,66,67,68,69,70,71,72,73,74,75,76,77,78,79,80,81,82,83,84,85,86,87,88,89,90,91,92,93,94,95,96,97,98,99,100,101,102,103,104,105,106,107,108,109,110,111,112,113,114,115,116,117,118,119,120,121,122,123,124,125,126,127,128,129,130,131,132,133,134,135,136,137,138,139,140,141,142,143,144,145,146,147,148,149,150],"tree_info":[0,0,0,0,0,0,0,0,0,0,0,0,0,0,0,0,0,0,0,0,0,0,0,0,0,0,0,0,0,0,0,0,0,0,0,0,0,0,0,0,0,0,0,0,0,0,0,0,0,0,0,0,0,0,0,0,0,0,0,0,0,0,0,0,0,0,0,0,0,0,0,0,0,0,0,0,0,0,0,0,0,0,0,0,0,0,0,0,0,0,0,0,0,0,0,0,0,0,0,0,0,0,0,0,0,0,0,0,0,0,0,0,0,0,0,0,0,0,0,0,0,0,0,0,0,0,0,0,0,0,0,0,0,0,0,0,0,0,0,0,0,0,0,0,0,0,0,0,0,0],"trees":[{"base_weights":[-6.657294E-3,4.7633037E-1,-6.607863E-2,1.2424242E0,3.9412317E-1,7.897722E-2,-9.5706835E-2,2.6941288E0,8.6008525E-1,6.659772E-1,2.1624018E-1,9.844819E-2,-6.249362E-3,-7.3425956E-2,-1.2578417E-1,4.8018645E-2,3.8276514E-1,7.8726664E-2,4.8216544E-3,6.0528953E-2,1.1210262E-2,2.6481772E-2,9.298767E-4,4.8557413E-4,7.4502626E-3,-1.8732895E-3,-4.2743767E-3,-5.033287E-3,-6.310399E-3],"categories":[0,1,2,3,5,7,8,9,10,11,12,13,14,15,16,17,18,19,21,23,24,25,26,27,28,29,31,32,33,34,36,37,38,39,40,41,42,43,44,45,46,47,48,49,50,51,52,53,54,55,56,57,58,61,62,63,64,65,66,68,69,70,71,72,73,74,75,76,77,78,79,80,81,82,83,84,85,86,87,88,89,90,91,93,94,95,96,97,98,99,100,101,102,103,105,106,107,108,109,110,111,112,114,116,117,119,120,121,123,124,125,127,128,129,130,131,132,133,134,135,136,137,138,139,140,141,142,143,144,145,146,147,148,149,150,151,152,153,154,155,156,157,158,159,161,162,163,164,165,166,167,170,171,173,174,175,176,177,178,179,180,181,182,183,184,185,186,187,188,189,190,191,192,193,195,197,0,1,2,3,5,6,7,8,9,10,11,12,13,14,15,16,17,18,19,20,21,22,23,24,25,26,27,28,29,30,31,32,33,34,35,36,37,38,39,40,41,42,43,44,45,46,47,48,49,50,51,52,53,54,55,56,57,58,59,60,61,62,63,64,65,66,67,68,69,70,71,72,73,74,75,76,77,78,79,80,81,82,83,84,85,86,87,88,89,90,91,92,93,94,95,96,97,98,99,100,101,102,103,104,105,106,107,108,109,110,111,112,113,114,115,116,117,118,119,120,121,122,123,124,125,126,127,128,129,130,131,132,133,134,135,136,137,138,139,140,141,142,143,144,145,146,147,148,149,150,151,152,153,154,155,156,157,158,159,160,161,162,163,164,165,166,167,168,169,170,171,172,173,174,175,176,177,178,179,180,181,182,183,184,185,186,187,188,189,190,191,192,193,194,195,197,0,1,2,3,5,7,8,9,10,12,13,14,15,16,18,21,24,25,26,29,31,32,33,34,36,37,38,39,41,42,43,44,45,46,47,49,50,51,53,54,55,56,57,63,65,66,68,69,70,71,72,73,74,75,77,78,79,80,81,82,83,84,85,87,88,89,90,91,94,95,96,97,98,99,100,101,102,103,105,106,108,109,110,111,116,117,119,120,123,124,125,129,131,132,133,134,135,136,137,139,140,141,142,143,144,146,147,148,149,150,151,152,153,154,155,156,157,158,159,162,163,164,165,166,167,170,171,173,174,175,176,177,178,179,180,181,182,183,185,186,187,188,189,190,191,192,197,1,3,5,7,9,14,15,18,24,34,39,42,47,49,51,53,56,57,68,69,70,71,75,79,80,88,89,91,94,100,102,103,105,108,109,123,124,125,132,134,135,136,141,146,147,149,150,157,159,162,163,167,170,174,175,176,179,182,185,186,188,191,197,0,1,2,3,5,6,7,8,9,10,11,12,13,14,15,16,17,18,19,20,21,22,23,24,25,26,27,28,29,30,31,32,33,34,35,36,37,38,39,40,41,42,43,44,45,46,47,48,49,50,51,52,53,54,55,56,57,58,59,60,61,62,63,64,65,66,67,68,69,70,71,72,73,74,75,76,77,78,79,80,81,82,83,84,85,86,87,88,89,90,91,92,93,94,95,96,97,98,99,100,101,102,103,104,105,106,107,108,109,110,111,112,113,114,115,116,117,118,119,120,121,122,123,124,125,126,127,128,129,130,131,132,133,134,135,136,137,138,139,140,141,142,143,144,145,146,147,148,149,150,151,152,153,154,155,156,157,158,159,160,161,162,163,164,165,166,167,168,169,170,171,172,173,174,175,176,177,178,179,180,181,182,183,184,185,186,187,188,189,190,191,192,193,194,195,196,197,0,1,2,3,4,5,6,7,8,9,10,11,12,13,14,15,16,17,18,19,20,21,23,24,25,26,27,28,29,31,32,33,34,36,37,38,39,40,41,42,43,44,45,46,47,48,49,50,51,52,53,54,55,56,57,58,59,61,62,63,64,65,66,67,68,69,70,71,72,73,74,75,76,77,78,79,80,81,82,83,84,85,86,87,88,89,90,91,92,93,94,95,96,97,98,99,100,101,102,103,105,106,107,108,109,110,111,112,113,114,116,117,118,119,120,121,122,123,124,125,127,128,129,130,131,132,133,134,135,136,137,138,139,140,141,142,143,144,145,146,147,148,149,150,151,152,153,154,155,156,157,158,159,160,161,162,163,164,165,166,167,168,170,171,172,173,174,175,176,177,178,179,180,181,182,183,184,185,186,187,188,189,190,191,192,193,195,196,197,0,1,2,3,4,5,7,8,9,10,11,12,13,14,15,16,17,18,19,21,22,23,24,25,26,27,28,29,30,31,32,33,34,35,36,37,38,39,40,41,42,43,44,45,46,47,48,49,50,51,52,53,54,55,56,57,58,61,62,63,64,65,66,67,68,69,70,71,72,73,74,75,76,77,78,79,80,81,82,83,84,85,86,87,88,89,90,91,93,94,95,96,97,98,99,100,101,102,103,104,105,106,107,108,109,110,111,112,113,114,115,116,117,118,119,120,121,123,124,125,126,127,128,129,130,131,132,133,134,135,136,137,138,139,140,141,142,143,144,145,146,147,148,149,150,151,152,153,154,155,156,157,158,159,160,161,162,163,164,165,166,167,169,170,171,173,174,175,176,177,178,179,180,181,182,183,184,185,186,187,188,189,190,191,192,193,194,195,196,197,8,10,12,16,21,25,26,29,31,33,37,41,43,44,45,46,50,54,55,63,65,72,74,82,83,84,85,87,90,95,96,97,99,101,110,116,117,119,120,129,131,133,137,139,140,142,143,144,151,152,153,154,155,164,165,166,171,173,178,180,183,189,190,1,3,5,7,14,15,18,24,34,39,42,47,49,51,53,56,57,68,69,70,71,75,79,80,88,89,91,94,100,102,103,105,108,109,123,124,125,132,134,135,136,141,146,147,149,150,157,159,162,163,167,170,174,175,176,179,182,185,186,188,191,197],"categories_nodes":[0,1,2,6,8,9,10,13,14],"categories_segments":[0,176,372,519,582,779,968,1158,1221],"categories_sizes":[176,196,147,63,197,189,190,63,62],"default_left":[0,0,0,0,0,0,1,0,0,0,0,0,0,1,1,0,0,0,0,0,0,0,0,0,0,0,0,0,0],"id":0,"left_children":[1,3,5,7,9,11,13,15,17,19,21,23,-1,25,27,-1,-1,-1,-1,-1,-1,-1,-1,-1,-1,-1,-1,-1,-1],"loss_changes":[2.148206E2,5.115265E1,2.8652023E1,4.153125E1,3.573777E1,4.5039396E0,3.7000427E0,1.3027148E2,3.4765903E1,7.0221405E1,2.7863272E1,4.632869E0,0E0,1.3769474E0,1.235199E-2,0E0,0E0,0E0,0E0,0E0,0E0,0E0,0E0,0E0,0E0,0E0,0E0,0E0,0E0],"parents":[2147483647,0,0,1,1,2,2,3,3,4,4,5,5,6,6,7,7,8,8,9,9,10,10,11,11,13,13,14,14],"right_children":[2,4,6,8,10,12,14,16,18,20,22,24,-1,26,28,-1,-1,-1,-1,-1,-1,-1,-1,-1,-1,-1,-1,-1,-1],"split_conditions":[1E-45,1E-45,1E-45,9E0,1.5E1,2.9E1,1E-45,8E0,1E-45,1E-45,1E-45,1.3E1,-6.249362E-3,1E-45,1E-45,4.8018645E-2,3.8276514E-1,7.8726664E-2,4.8216544E-3,6.0528953E-2,1.1210262E-2,2.6481772E-2,9.298767E-4,4.8557413E-4,7.4502626E-3,-1.8732895E-3,-4.2743767E-3,-5.033287E-3,-6.310399E-3],"split_indices":[0,0,0,4,4,4,0,4,0,0,0,4,0,0,0,0,0,0,0,0,0,0,0,0,0,0,0,0,0],"split_type":[1,1,1,0,0,0,1,0,1,1,1,0,0,1,1,0,0,0,0,0,0,0,0,0,0,0,0,0,0],"sum_hessian":[7.483E3,8.19E2,6.664E3,7.8E1,7.41E2,1.13E3,5.534E3,1.5E1,6.3E1,2.92E2,4.49E2,1.032E3,9.8E1,3.181E3,2.353E3,1.2E1,3E0,3.2E1,3.1E1,1.3E2,1.62E2,1.73E2,2.76E2,3.75E2,6.57E2,8E2,2.381E3,4.3E1,2.31E3],"tree_param":{"num_deleted":"0","num_feature":"14","num_nodes":"29","size_leaf_vector":"1"}},{"base_weights":[5.045348E-3,-4.76143E-2,7.960521E-1,-7.586028E-2,1.8100263E-1,1.213852E0,-7.294297E-3,-1.0183761E-1,-9.0527965E-4,3.842309E-1,-7.4740455E-2,8.20656E-1,1.7023785E0,-5.8549414E-3,-4.378E-3,2.6596517E-3,-6.2427893E-3,2.9617844E-2,9.94333E-3,1.952228E-3,-6.7935507E-3,6.78227E-2,2.2881022E-2,1.8463776E-1,7.467299E-2],"categories":[0,1,2,3,4,5,8,9,10,11,12,13,14,15,16,18,19,20],"categories_nodes":[9],"categories_segments":[0],"categories_sizes":[18],"default_left":[0,0,0,0,0,0,0,0,0,1,0,0,0,0,0,0,0,0,0,0,0,0,0,0,0],"id":1,"left_children":[1,3,5,7,9,11,-1,13,15,17,19,21,23,-1,-1,-1,-1,-1,-1,-1,-1,-1,-1,-1,-1],"loss_changes":[3.1298544E2,4.5506878E1,1.8474808E2,1.2210369E1,4.0308743E1,6.1031097E1,0E0,1.0044785E0,1.0836045E1,1.654839E1,2.3980799E0,3.4780754E1,5.4364105E1,0E0,0E0,0E0,0E0,0E0,0E0,0E0,0E0,0E0,0E0,0E0,0E0],"parents":[2147483647,0,0,1,1,2,2,3,3,4,4,5,5,7,7,8,8,9,9,10,10,11,11,12,12],"right_children":[2,4,6,8,10,12,-1,14,16,18,20,22,24,-1,-1,-1,-1,-1,-1,-1,-1,-1,-1,-1,-1],"split_conditions":[5.8064514E-1,2.2580644E-1,5E0,7.54717E-2,4E0,7.358491E-1,-7.294297E-3,1.8867925E-2,5E0,1E-45,5E0,1.4E1,7E0,-5.8549414E-3,-4.378E-3,2.6596517E-3,-6.2427893E-3,2.9617844E-2,9.94333E-3,1.952228E-3,-6.7935507E-3,6.78227E-2,2.2881022E-2,1.8463776E-1,7.467299E-2],"split_indices":[13,13,5,13,5,13,0,13,5,1,5,4,4,0,0,0,0,0,0,0,0,0,0,0,0],"split_type":[0,0,0,0,0,0,0,0,0,1,0,0,0,0,0,0,0,0,0,0,0,0,0,0,0],"sum_hessian":[7.512E3,7.044E3,4.68E2,6.27E3,7.74E2,3.24E2,1.44E2,4.656E3,1.614E3,4.31E2,3.43E2,1.81E2,1.43E2,2.247E3,2.409E3,1.124E3,4.9E2,2.02E2,2.29E2,1.2E2,2.23E2,7.2E1,1.09E2,1.2E1,1.31E2],"tree_param":{"num_deleted":"0","num_feature":"14","num_nodes":"25","size_leaf_vector":"1"}},{"base_weights":[-1.3117919E-2,-5.618618E-2,5.047746E-1,-8.5401684E-2,7.624157E-2,9.491499E-1,4.4244025E-3,-1.0057892E-1,-4.581291E-2,1.5527827E-1,-6.150605E-3,1.1339792E0,3.990809E-1,3.0863297E-1,-1.410907E-1,-5.486969E-3,-4.2167213E-3,-7.23356E-4,-5.9317327E-3,1.0452301E-2,-8.274698E-4,3.7763E-2,6.674735E-2,1.9037316E-3,9.563845E-2,8.864002E-3,1.03712164E-1,-6.832925E-3,-8.619418E-3],"categories":[],"categories_nodes":[],"categories_segments":[],"categories_sizes":[],"default_left":[0,0,0,0,0,0,0,0,0,0,0,0,0,0,0,0,0,0,0,0,0,0,0,0,0,0,0,0,0],"id":2,"left_children":[1,3,5,7,9,11,13,15,17,19,-1,21,23,25,27,-1,-1,-1,-1,-1,-1,-1,-1,-1,-1,-1,-1,-1,-1],"loss_changes":[1.6675621E2,2.6709953E1,1.27620865E2,3.3931885E0,1.9673048E1,3.0454742E1,1.2039887E1,5.989227E-1,3.579769E0,8.262934E0,0E0,1.626883E1,4.2550343E1,2.0041073E1,1.9657612E-3,0E0,0E0,0E0,0E0,0E0,0E0,0E0,0E0,0E0,0E0,0E0,0E0,0E0,0E0],"parents":[2147483647,0,0,1,1,2,2,3,3,4,4,5,5,6,6,7,7,8,8,9,9,11,11,12,12,13,13,14,14],"right_children":[2,4,6,8,10,12,14,16,18,20,-1,22,24,26,28,-1,-1,-1,-1,-1,-1,-1,-1,-1,-1,-1,-1,-1,-1],"split_conditions":[4.8387095E-1,1.4516129E-1,4E0,5.6603774E-2,5E0,1E0,5E0,3.2258064E-2,5E0,1E0,-6.150605E-3,4.8E1,1.4150944E0,1.6451613E0,1.5806452E0,-5.486969E-3,-4.2167213E-3,-7.23356E-4,-5.9317327E-3,1.0452301E-2,-8.274698E-4,3.7763E-2,6.674735E-2,1.9037316E-3,9.563845E-2,8.864002E-3,1.03712164E-1,-6.832925E-3,-8.619418E-3],"split_indices":[13,13,5,13,5,8,5,13,5,8,0,6,13,13,13,0,0,0,0,0,0,0,0,0,0,0,0,0,0],"split_type":[0,0,0,0,0,0,0,0,0,0,0,0,0,0,0,0,0,0,0,0,0,0,0,0,0,0,0,0,0],"sum_hessian":[7.474E3,6.901E3,5.73E2,5.654E3,1.247E3,3.03E2,2.7E2,4.086E3,1.568E3,8.93E2,3.54E2,2.26E2,7.7E1,8.7E1,1.83E2,2.609E3,1.477E3,1.097E3,4.71E2,6.8E2,2.13E2,8E1,1.46E2,6.3E1,1.4E1,8.2E1,5E0,1.65E2,1.8E1],"tree_param":{"num_deleted":"0","num_feature":"14","num_nodes":"29","size_leaf_vector":"1"}},{"base_weights":[6.4633824E-3,-3.6299586E-2,8.8591194E-1,-7.226291E-2,2.1159792E-1,1.4667709E0,1.2725982E-1,-9.212874E-2,-1.9448458E-3,4.047186E-1,-3.529438E-2,1.3187475E0,3.8498256E0,1.4456263E0,-3.8471714E-2,-5.304729E-3,-4.011565E-3,2.2989605E-3,-5.6439876E-3,2.915529E-2,1.0429434E-2,6.3089556E-3,-6.1532264E-3,4.088691E-2,8.2347184E-2,2.654624E-1,-1.573778E-3,1.8411556E-1,-5.4569645E-3,9.925446E-3,-7.141856E-3],"categories":[0,1,2,3,4,5,8,9,11,12,13,14,15,16,17,18,19,20,6,7,9,15,18,21],"categories_nodes":[9,14],"categories_segments":[0,18],"categories_sizes":[18,6],"default_left":[0,0,0,0,0,0,0,0,0,1,0,0,0,0,1,0,0,0,0,0,0,0,0,0,0,0,0,0,0,0,0],"id":3,"left_children":[1,3,5,7,9,11,13,15,17,19,21,23,25,27,29,-1,-1,-1,-1,-1,-1,-1,-1,-1,-1,-1,-1,-1,-1,-1,-1],"loss_changes":[2.8224133E2,6.3821507E1,1.5316647E2,8.732006E0,4.326005E1,6.441437E1,3.3266834E1,8.01342E-1,7.331259E0,1.768679E1,5.6703763E0,2.940152E1,6.2476166E1,5.9519733E1,3.3919857E0,0E0,0E0,0E0,0E0,0E0,0E0,0E0,0E0,0E0,0E0,0E0,0E0,0E0,0E0,0E0,0E0],"parents":[2147483647,0,0,1,1,2,2,3,3,4,4,5,5,6,6,7,7,8,8,9,9,10,10,11,11,12,12,13,13,14,14],"right_children":[2,4,6,8,10,12,14,16,18,20,22,24,26,28,30,-1,-1,-1,-1,-1,-1,-1,-1,-1,-1,-1,-1,-1,-1,-1,-1],"split_conditions":[6.451613E-1,2.2580644E-1,4E0,8.064516E-2,4E0,1.8113208E0,3.0714285E-1,1.8867925E-2,5E0,1E-45,5E0,5.3571427E-1,1E0,5E0,1E-45,-5.304729E-3,-4.011565E-3,2.2989605E-3,-5.6439876E-3,2.915529E-2,1.0429434E-2,6.3089556E-3,-6.1532264E-3,4.088691E-2,8.2347184E-2,2.654624E-1,-1.573778E-3,1.8411556E-1,-5.4569645E-3,9.925446E-3,-7.141856E-3],"split_indices":[13,13,5,13,5,13,12,13,5,1,5,12,8,5,1,0,0,0,0,0,0,0,0,0,0,0,0,0,0,0,0],"split_type":[0,0,0,0,0,0,0,0,0,1,0,0,0,0,1,0,0,0,0,0,0,0,0,0,0,0,0,0,0,0,0],"sum_hessian":[7.503E3,7.156E3,3.47E2,6.25E3,9.06E2,1.96E2,1.51E2,4.873E3,1.377E3,5.08E2,3.98E2,1.86E2,1E1,1.6E1,1.35E2,2.238E3,2.635E3,9.62E2,4.15E2,2.65E2,2.43E2,1.4E2,2.58E2,7.5E1,1.11E2,7E0,3E0,6E0,1E1,4.1E1,9.4E1],"tree_param":{"num_deleted":"0","num_feature":"14","num_nodes":"31","size_leaf_vector":"1"}},{"base_weights":[5.356363E-3,-4.497296E-2,7.61674E-1,1.15454234E-1,-7.6405734E-2,1.1659352E0,-1.2847665E-1,2.0636693E-1,-1.1383033E-1,-1.8220045E-2,-8.7207E-2,1.5320351E0,4.4961688E-1,-5.8274614E-3,-7.996817E-3,2.5932157E-2,7.117383E-3,-5.4922453E-3,-6.3656843E-3,8.6439506E-4,-5.5002114E-3,-3.491203E-3,-5.405238E-3,7.077683E-2,1.6121973E-1,1.6010888E-2,7.0022754E-2],"categories":[0,1,2,3,4,5,7,8,9,10,12,13,14,15,16,17,18,20,21,22,24,25,26,28,29,31,33,34,36,37,38,39,40,41,42,43,44,46,49,50,51,53,54,55,56,57,58,63,65,66,67,68,69,70,71,73,74,75,76,77,78,79,80,81,82,83,84,87,88,89,90,91,93,94,95,96,97,98,99,100,101,102,103,105,108,109,110,111,112,113,115,116,117,119,120,121,123,124,125,126,128,129,130,132,133,134,135,136,137,139,140,141,142,143,144,145,146,147,148,149,150,151,152,153,154,155,156,157,158,159,161,162,163,164,165,166,167,168,169,170,171,173,174,175,176,177,178,179,180,181,182,183,184,185,186,187,188,189,190,191,192,194,196,197,1,3,5,7,9,10,12,14,15,16,18,21,22,24,26,28,29,31,33,34,36,37,38,39,41,42,43,44,46,49,50,51,53,54,55,56,57,58,63,65,66,67,68,69,70,71,74,75,77,78,79,80,82,84,87,88,89,90,91,94,96,97,99,100,101,102,103,105,108,109,110,111,112,115,116,119,120,121,123,124,125,129,130,132,133,134,135,136,137,139,140,141,142,143,144,146,147,148,149,150,151,152,153,154,155,157,158,159,162,163,164,165,166,167,168,169,170,171,173,174,175,176,177,178,179,180,182,183,185,186,188,189,190,191,197,0,1,2,3,5,6,7,8,9,10,11,12,13,14,15,16,17,18,19,20,21,23,24,25,26,27,28,29,31,32,33,34,35,36,37,38,39,40,41,42,43,44,45,46,47,48,49,50,51,52,53,54,55,56,57,58,59,61,62,63,64,65,66,67,68,69,70,71,72,73,74,75,76,77,78,79,80,81,82,83,84,85,86,87,88,89,90,91,92,93,94,95,96,97,98,99,100,101,102,103,104,105,106,107,108,109,110,111,112,113,114,115,116,117,118,119,120,122,123,124,125,127,128,129,130,131,132,133,134,135,136,137,138,139,140,141,142,143,144,145,146,147,148,149,150,151,152,153,154,155,156,157,158,159,160,161,162,163,164,165,166,167,170,171,172,173,174,175,176,177,178,179,180,181,182,183,184,185,186,187,189,190,191,192,195,197,4,6,60,126,0,1,2,3,4,5,6,7,8,9,10,11,12,13,14,15,16,17,18,19,20,21,22,23,24,25,26,27,28,29,30,31,32,33,34,35,36,37,38,39,40,41,42,43,44,46,47,48,49,50,51,52,53,54,55,56,57,58,59,61,62,63,64,65,66,67,68,69,70,71,72,73,74,75,76,77,78,79,80,81,82,83,84,85,86,87,88,89,90,91,92,93,94,95,96,97,98,99,100,101,102,103,105,106,107,108,109,110,111,112,113,114,115,116,117,118,119,120,121,122,123,124,125,126,127,128,129,130,131,132,133,134,135,136,137,138,139,140,141,142,143,144,145,146,147,148,149,150,151,152,153,154,155,156,157,158,159,160,161,162,163,164,165,166,167,168,169,170,171,173,174,175,176,177,178,179,180,181,182,183,184,185,186,187,188,189,190,191,192,194,196,197,6,35,59,60,92,104,172,1,3,5,7,12,14,18,22,24,34,42,51,56,57,58,68,69,70,71,79,80,84,88,89,91,94,100,102,103,105,109,110,112,121,124,125,130,132,133,135,136,141,142,147,148,150,157,159,162,163,167,168,169,174,175,176,179,182,185,186,188,191,197],"categories_nodes":[1,4,5,6,7,8,10],"categories_segments":[0,164,299,485,489,681,688],"categories_sizes":[164,135,186,4,192,7,63],"default_left":[0,0,0,0,0,0,1,0,1,0,1,0,0,0,0,0,0,0,0,0,0,0,0,0,0,0,0],"id":4,"left_children":[1,3,5,7,9,11,13,15,17,19,21,23,25,-1,-1,-1,-1,-1,-1,-1,-1,-1,-1,-1,-1,-1,-1],"loss_changes":[2.8734854E2,3.5700848E1,1.6964072E2,2.4203548E1,3.7183762E0,8.427826E1,3.6893845E-2,1.6539268E1,3.748417E-3,3.0263164E0,1.80587E0,3.762744E1,1.3208731E1,0E0,0E0,0E0,0E0,0E0,0E0,0E0,0E0,0E0,0E0,0E0,0E0,0E0,0E0],"parents":[2147483647,0,0,1,1,2,2,3,3,4,4,5,5,6,6,7,7,8,8,9,9,10,10,11,11,12,12],"right_children":[2,4,6,8,10,12,14,16,18,20,22,24,26,-1,-1,-1,-1,-1,-1,-1,-1,-1,-1,-1,-1,-1,-1],"split_conditions":[5.660377E-1,1E-45,1E0,1E0,1E-45,1E-45,1E-45,1E-45,1E-45,1E0,1E-45,1.8113208E0,7.358491E-1,-5.8274614E-3,-7.996817E-3,2.5932157E-2,7.117383E-3,-5.4922453E-3,-6.3656843E-3,8.6439506E-4,-5.5002114E-3,-3.491203E-3,-5.405238E-3,7.077683E-2,1.6121973E-1,1.6010888E-2,7.0022754E-2],"split_indices":[13,0,7,7,0,0,0,0,0,7,0,13,13,0,0,0,0,0,0,0,0,0,0,0,0,0,0],"split_type":[0,1,0,0,1,1,1,1,1,0,1,0,0,0,0,0,0,0,0,0,0,0,0,0,0,0,0],"sum_hessian":[7.547E3,7.077E3,4.7E2,1.159E3,5.918E3,3.23E2,1.47E2,8.3E2,3.29E2,9.27E2,4.991E3,2.13E2,1.1E2,1.1E2,3.7E1,1.4E2,6.9E2,2.61E2,6.8E1,6.69E2,2.58E2,2.727E3,2.264E3,2.01E2,1.2E1,9.8E1,1.2E1],"tree_param":{"num_deleted":"0","num_feature":"14","num_nodes":"27","size_leaf_vector":"1"}},{"base_weights":[-1.0889658E-2,-5.799223E-2,2.6419753E-1,-3.9782204E-2,-5.1112236E-3,4.1950756E-1,-1.1691741E-1,-7.307904E-2,4.515209E-3,8.6848277E-1,2.1457703E-1,-5.724332E-3,-8.498459E-3,-3.0981172E-3,-4.6514915E-3,4.9173194E-3,-1.0527977E-3,3.70797E-2,9.1495864E-2,5.7279665E-2,7.883835E-3],"categories":[0,1,3,4,5,6,7,9,10,11,12,13,14,15,16,17,18,19,0,1,3,7,10,11,16,18,19,21,0,1,2,3,4,5,6,7,9,11,12,13,15,16,18,21],"categories_nodes":[5,7,8],"categories_segments":[0,18,28],"categories_sizes":[18,10,16],"default_left":[0,0,0,0,0,1,0,1,1,0,0,0,0,0,0,0,0,0,0,0,0],"id":5,"left_children":[1,3,5,7,-1,9,11,13,15,17,19,-1,-1,-1,-1,-1,-1,-1,-1,-1,-1],"loss_changes":[9.8024445E1,5.1984673E0,6.551426E1,6.7512383E0,0E0,7.213251E1,2.1936417E-2,5.7376575E-1,4.7168374E0,2.8653793E1,2.8478931E1,0E0,0E0,0E0,0E0,0E0,0E0,0E0,0E0,0E0,0E0],"parents":[2147483647,0,0,1,1,2,2,3,3,5,5,6,6,7,7,8,8,9,9,10,10],"right_children":[2,4,6,8,-1,10,12,14,16,18,20,-1,-1,-1,-1,-1,-1,-1,-1,-1,-1],"split_conditions":[2.8333333E-1,5E0,5E0,5.952381E-2,-5.1112236E-3,1E-45,1.55E0,1E-45,1E-45,1.55E0,5E0,-5.724332E-3,-8.498459E-3,-3.0981172E-3,-4.6514915E-3,4.9173194E-3,-1.0527977E-3,3.70797E-2,9.1495864E-2,5.7279665E-2,7.883835E-3],"split_indices":[12,5,5,12,0,1,12,1,1,12,4,0,0,0,0,0,0,0,0,0,0],"split_type":[0,0,0,0,0,1,0,1,1,0,0,0,0,0,0,0,0,0,0,0,0],"sum_hessian":[7.563E3,6.458E3,1.105E3,4.576E3,1.882E3,7.85E2,3.2E2,2.612E3,1.964E3,2.45E2,5.4E2,3.09E2,1.1E1,1.68E3,9.32E2,4.2E2,1.544E3,2.18E2,2.7E1,3E1,5.1E2],"tree_param":{"num_deleted":"0","num_feature":"14","num_nodes":"21","size_leaf_vector":"1"}},{"base_weights":[-5.2485764E-3,-5.5203445E-2,3.3061925E-1,-8.035256E-2,6.2970235E-3,7.565646E-1,3.5384506E-2,-8.887925E-2,-5.9422463E-2,4.8797138E-2,-4.8836363E-3,4.8348764E-1,1.6635087E0,3.030113E-1,-6.417794E-2,-4.8641516E-3,-4.09768E-3,-2.1237263E-3,-4.9772584E-3,7.4567283E-3,1.2688548E-3,4.6908487E-2,1.4134729E-2,3.0243725E-2,1.05033435E-1,2.8639322E-2,-6.6839545E-3,8.158975E-3,-4.4701784E-3],"categories":[0,1,3,4,5,6,7,9,10,11,12,13,16,18,19,20,21,5,7,8,9,15,17,18],"categories_nodes":[9,13],"categories_segments":[0,17],"categories_sizes":[17,7],"default_left":[0,0,0,0,0,0,0,0,0,1,0,0,0,1,0,0,0,0,0,0,0,0,0,0,0,0,0,0,0],"id":6,"left_children":[1,3,5,7,9,11,13,15,17,19,-1,21,23,25,27,-1,-1,-1,-1,-1,-1,-1,-1,-1,-1,-1,-1,-1,-1],"loss_changes":[1.25049644E2,1.0035383E1,1.2132571E2,8.165474E-1,8.329645E0,9.7023605E1,1.5234072E1,1.8234444E-1,9.0424824E-1,3.1403904E0,0E0,2.7580368E1,4.0843475E1,1.8336842E1,2.4061813E0,0E0,0E0,0E0,0E0,0E0,0E0,0E0,0E0,0E0,0E0,0E0,0E0,0E0,0E0],"parents":[2147483647,0,0,1,1,2,2,3,3,4,4,5,5,6,6,7,7,8,8,9,9,11,11,12,12,13,13,14,14],"right_children":[2,4,6,8,10,12,14,16,18,20,-1,22,24,26,28,-1,-1,-1,-1,-1,-1,-1,-1,-1,-1,-1,-1,-1,-1],"split_conditions":[3.018868E-1,7.54717E-2,3E0,3.773585E-2,5E0,7.258065E-1,4E0,1.6129032E-2,5E0,1E-45,-4.8836363E-3,3.0476192E-1,4.8E1,1E-45,4.6E1,-4.8641516E-3,-4.09768E-3,-2.1237263E-3,-4.9772584E-3,7.4567283E-3,1.2688548E-3,4.6908487E-2,1.4134729E-2,3.0243725E-2,1.05033435E-1,2.8639322E-2,-6.6839545E-3,8.158975E-3,-4.4701784E-3],"split_indices":[13,13,5,13,5,13,5,13,5,1,0,12,6,1,6,0,0,0,0,0,0,0,0,0,0,0,0,0,0],"split_type":[0,0,0,0,0,0,0,0,0,1,0,0,0,1,0,0,0,0,0,0,0,0,0,0,0,0,0,0,0],"sum_hessian":[7.451E3,6.487E3,9.64E2,4.604E3,1.883E3,3.94E2,5.7E2,3.269E3,1.335E3,1.337E3,5.46E2,3.04E2,9E1,1.54E2,4.16E2,1.471E3,1.798E3,9.4E2,3.95E2,2.52E2,1.085E3,9.2E1,2.12E2,2.7E1,6.3E1,9.5E1,5.9E1,4.1E1,3.75E2],"tree_param":{"num_deleted":"0","num_feature":"14","num_nodes":"29","size_leaf_vector":"1"}},{"base_weights":[2.3527107E-4,4.3410826E-1,-4.9812283E-2,6.5788096E-1,-1.1011863E-1,5.5975996E-2,-7.2379105E-2,2.3435209E0,5.7728046E-1,-1.0421215E-1,-7.22411E-3,1.2011185E-1,-4.7666444E-3,-5.1322956E-2,-1.0040918E-1,1.9370216E-1,2.1698975E-3,3.2959323E-2,-1.2092994E-2,-4.7212616E-3,-5.666757E-3,7.1285577E-3,-7.0400424E-3,-1.6810971E-3,-4.667186E-3,-4.7312365E-3,-1.0723529E-2],"categories":[0,1,2,3,5,7,8,9,10,12,13,14,15,16,17,18,19,20,21,22,23,24,25,26,27,28,29,31,32,33,34,36,37,38,39,40,41,42,43,44,45,46,47,48,49,50,51,52,53,54,55,56,57,59,61,62,63,64,65,66,67,68,69,70,71,72,73,74,75,76,77,78,79,80,81,82,83,84,85,86,87,88,89,90,91,93,94,95,96,97,98,99,100,101,102,103,105,106,107,108,109,110,111,112,114,115,116,117,118,119,120,123,124,125,127,128,129,130,131,132,133,134,135,136,137,138,139,140,141,142,143,144,145,146,147,148,149,150,151,152,153,154,155,156,157,158,159,161,162,163,164,165,166,167,168,170,171,173,174,175,176,177,178,179,180,181,182,183,184,185,186,187,189,190,191,192,197,0,1,2,3,5,7,8,9,10,12,14,15,16,18,21,22,24,25,26,29,31,32,33,34,36,37,38,39,41,42,43,44,45,46,49,50,51,52,53,54,55,56,57,61,63,64,65,66,68,69,70,71,73,74,75,77,78,79,80,81,82,84,87,88,89,90,91,94,95,96,97,99,100,101,102,103,105,107,108,109,110,111,114,115,116,117,119,120,123,124,125,129,132,133,134,135,136,137,139,140,141,142,143,144,146,147,149,150,151,152,153,154,155,157,158,159,161,162,163,164,165,166,167,168,170,171,173,174,175,176,177,178,179,180,181,182,183,184,185,186,187,189,190,191,192,197,0,1,2,3,5,6,7,8,9,10,11,12,13,14,15,16,17,18,19,20,21,22,23,24,25,26,27,28,29,30,31,32,33,34,35,36,37,38,39,40,41,42,43,44,45,46,47,48,49,50,51,52,53,54,55,56,57,58,59,60,61,62,63,64,65,66,67,68,69,70,71,72,73,74,75,76,77,78,79,80,81,82,83,84,85,86,87,88,89,90,91,92,93,94,95,96,97,98,99,100,101,102,103,104,105,106,107,108,109,110,111,112,113,114,115,116,117,118,119,120,121,122,123,124,125,126,127,128,129,130,131,132,133,134,135,136,137,138,139,140,141,142,143,144,145,146,147,148,149,150,151,152,153,154,155,156,157,158,159,160,161,162,163,164,165,166,167,168,169,170,171,172,173,174,175,176,177,178,179,180,181,182,183,184,185,186,187,188,189,190,191,192,193,194,195,196,197,4,60,126,3,5,7,10,14,18,22,24,34,36,41,42,44,45,50,51,54,56,57,63,69,70,71,79,80,84,88,89,91,100,102,103,105,109,111,115,124,132,134,135,136,141,143,149,150,154,157,159,162,163,167,168,173,174,175,176,179,182,183,184,185,186,197,6,30,35,92,104,122,169,172,194,22,115,168],"categories_nodes":[0,2,3,4,6,9,14],"categories_segments":[0,177,323,520,523,586,595],"categories_sizes":[177,146,197,3,63,9,3],"default_left":[0,0,0,0,1,0,1,0,0,1,0,0,0,0,1,0,0,0,0,0,0,0,0,0,0,0,0],"id":7,"left_children":[1,3,5,7,9,11,13,15,17,19,-1,21,-1,23,25,-1,-1,-1,-1,-1,-1,-1,-1,-1,-1,-1,-1],"loss_changes":[1.6439874E2,9.5428635E1,1.6209082E1,7.405138E1,3.1422853E-2,1.1598414E1,3.2970448E0,8.78416E1,3.5785553E1,7.06625E-3,0E0,4.9365444E0,0E0,2.3748236E0,1.5625248E0,0E0,0E0,0E0,0E0,0E0,0E0,0E0,0E0,0E0,0E0,0E0,0E0],"parents":[2147483647,0,0,1,1,2,2,3,3,4,4,5,5,6,6,7,7,8,8,9,9,11,11,13,13,14,14],"right_children":[2,4,6,8,10,12,14,16,18,20,-1,22,-1,24,26,-1,-1,-1,-1,-1,-1,-1,-1,-1,-1,-1,-1],"split_conditions":[1E-45,5E0,1E-45,1E-45,1E-45,5E0,1E-45,3E0,2.9E1,1E-45,-7.22411E-3,2.9E1,-4.7666444E-3,5E0,1E-45,1.9370216E-1,2.1698975E-3,3.2959323E-2,-1.2092994E-2,-4.7212616E-3,-5.666757E-3,7.1285577E-3,-7.0400424E-3,-1.6810971E-3,-4.667186E-3,-4.7312365E-3,-1.0723529E-2],"split_indices":[0,5,0,0,0,5,0,5,4,0,0,4,0,5,0,0,0,0,0,0,0,0,0,0,0,0,0],"split_type":[1,0,1,1,1,0,1,0,0,1,0,0,0,0,1,0,0,0,0,0,0,0,0,0,0,0,0],"sum_hessian":[7.569E3,7.82E2,6.787E3,5.54E2,2.28E2,1.193E3,5.594E3,2.4E1,5.3E2,1.98E2,3E1,8.38E2,3.55E2,3.196E3,2.398E3,1.4E1,1E1,4.82E2,4.8E1,1.01E2,9.7E1,7.72E2,6.6E1,2.25E3,9.46E2,2.284E3,1.14E2],"tree_param":{"num_deleted":"0","num_feature":"14","num_nodes":"27","size_leaf_vector":"1"}},{"base_weights":[1.2125425E-2,-3.185602E-2,6.4298195E-1,-5.570905E-2,1.617739E-1,7.37654E-1,-2.4021223E-1,-7.4571885E-2,-2.0156238E-2,3.15339E-1,6.897791E-2,5.724974E-1,1.2235022E0,-3.8780048E-1,-1.4676705E-1,-4.2885495E-3,-3.077937E-3,-5.424524E-4,-5.376899E-3,8.861602E-3,7.29514E-2,1.9048221E-2,1.7913831E-3,3.1871315E-2,-1.6234964E-2,4.656632E-2,1.5906702E-1,-1.3667879E-2,-2.6429413E-2,-1.1522442E-2,-4.4609816E-3],"categories":[0,1,2,3,4,5,6,7,8,9,10,12,13,14,15,16,17,18,19,20,9],"categories_nodes":[10,11],"categories_segments":[0,20],"categories_sizes":[20,1],"default_left":[0,0,0,0,0,0,0,0,0,0,1,1,0,0,0,0,0,0,0,0,0,0,0,0,0,0,0,0,0,0,0],"id":8,"left_children":[1,3,5,7,9,11,13,15,17,19,21,23,25,27,29,-1,-1,-1,-1,-1,-1,-1,-1,-1,-1,-1,-1,-1,-1,-1,-1],"loss_changes":[2.0775465E2,3.2339634E1,4.0980698E1,4.1785145E0,1.0922422E1,3.4685852E1,6.0507107E-1,5.8815575E-1,1.7571416E0,4.5389366E1,4.950717E0,1.9489044E1,6.0532806E1,1.4552546E-1,1.2872523E-1,0E0,0E0,0E0,0E0,0E0,0E0,0E0,0E0,0E0,0E0,0E0,0E0,0E0,0E0,0E0,0E0],"parents":[2147483647,0,0,1,1,2,2,3,3,4,4,5,5,6,6,7,7,8,8,9,9,10,10,11,11,12,12,13,13,14,14],"right_children":[2,4,6,8,10,12,14,16,18,20,22,24,26,28,30,-1,-1,-1,-1,-1,-1,-1,-1,-1,-1,-1,-1,-1,-1,-1,-1],"split_conditions":[5.660377E-1,2.2580644E-1,2.9E1,5.6603774E-2,1.5E1,1.3548387E0,4.9E1,1.8867925E-2,2.9E1,1.4E1,1E-45,1E-45,2.6E1,1.3548387E0,3E1,-4.2885495E-3,-3.077937E-3,-5.424524E-4,-5.376899E-3,8.861602E-3,7.29514E-2,1.9048221E-2,1.7913831E-3,3.1871315E-2,-1.6234964E-2,4.656632E-2,1.5906702E-1,-1.3667879E-2,-2.6429413E-2,-1.1522442E-2,-4.4609816E-3],"split_indices":[13,13,4,13,4,13,6,13,4,4,1,1,4,13,4,0,0,0,0,0,0,0,0,0,0,0,0,0,0,0,0],"split_type":[0,0,0,0,0,0,0,0,0,0,1,1,0,0,0,0,0,0,0,0,0,0,0,0,0,0,0,0,0,0,0],"sum_hessian":[7.486E3,6.999E3,4.87E2,6.232E3,7.67E2,4.4E2,4.7E1,4.071E3,2.161E3,2.88E2,4.79E2,3.3E2,1.1E2,1.7E1,3E1,2.185E3,1.886E3,1.954E3,2.07E2,2.58E2,3E1,4.5E1,4.34E2,3.08E2,2.2E1,9.7E1,1.3E1,1.1E1,6E0,1.1E1,1.9E1],"tree_param":{"num_deleted":"0","num_feature":"14","num_nodes":"31","size_leaf_vector":"1"}},{"base_weights":[4.482211E-3,4.777117E-1,-3.854561E-2,9.041223E-1,-7.997065E-2,9.424862E-2,-6.333978E-2,1.7090573E0,7.1239233E-1,2.0027001E-1,-1.4457203E-1,1.7732656E-1,-9.717072E-2,-4.46578E-2,-8.991625E-2,9.77105E-3,1.0525993E-1,7.58264E-2,2.6571224E-2,3.5180237E-2,-6.0286294E-3,-1.8656475E-2,-6.5955766E-3,1.0279193E-2,-7.260605E-3,-4.5252535E-3,-5.7360074E-3,-9.616512E-4,-3.8177096E-3,-4.378448E-3,-1.2447931E-2],"categories":[0,1,2,3,5,6,7,8,9,10,11,12,13,14,15,16,17,18,19,20,21,23,24,25,26,27,28,29,31,32,33,34,35,36,37,38,39,40,41,42,43,44,45,46,47,48,49,50,51,52,53,54,55,56,57,59,61,62,63,64,65,66,67,68,69,70,71,72,73,74,75,76,77,78,79,80,81,82,83,84,85,86,87,88,89,90,91,93,94,95,96,97,98,99,100,101,102,103,104,105,106,107,108,109,110,111,112,114,116,117,118,119,120,123,124,125,127,128,129,130,131,132,133,134,135,136,137,138,139,140,141,142,143,144,145,146,147,148,149,150,151,152,153,154,155,156,157,158,159,160,161,162,163,164,165,166,167,169,170,171,172,173,174,175,176,177,178,179,180,181,182,183,184,185,186,187,189,190,191,192,194,197,0,1,2,3,4,5,6,7,8,9,10,11,12,13,14,15,16,18,19,21,22,24,25,26,29,30,31,32,33,34,36,37,38,39,41,42,43,44,46,49,50,51,52,53,54,55,56,57,58,60,61,63,65,66,68,69,70,71,72,74,75,76,77,78,79,80,81,82,83,84,87,88,89,90,91,92,94,95,96,97,98,99,100,101,102,103,105,106,107,108,109,110,111,113,115,116,117,119,120,121,122,123,124,125,126,128,129,130,132,133,134,135,136,137,138,139,140,141,142,143,144,145,146,147,148,149,150,151,152,153,154,155,156,157,158,159,161,162,163,164,165,166,167,168,169,170,171,173,174,175,176,177,178,179,180,181,182,183,185,186,187,188,189,190,191,192,193,195,196,197,0,1,2,3,5,6,7,8,9,10,11,12,13,14,15,16,17,18,19,20,21,22,23,24,25,26,27,28,29,31,32,33,34,35,36,37,38,39,40,41,42,43,44,45,46,47,48,49,50,51,52,53,54,55,56,57,58,59,60,61,62,63,64,65,66,67,68,69,70,71,72,73,74,75,76,77,78,79,80,81,82,83,84,85,86,87,88,89,90,91,92,93,94,95,96,97,98,99,100,101,102,103,104,105,106,107,108,109,110,111,112,113,114,115,116,117,118,119,120,121,122,123,124,125,126,127,128,129,130,131,132,133,134,135,136,137,138,139,140,141,142,143,144,145,146,147,148,149,150,151,152,153,154,155,156,157,158,159,160,161,162,163,164,165,166,167,169,170,171,172,173,174,175,176,177,178,179,180,181,182,183,184,185,186,187,188,189,190,191,192,193,194,195,196,197,4,22,30,58,60,115,121,126,168,188,193,195,196,1,3,5,7,14,18,21,24,37,42,44,46,51,55,56,65,66,68,69,70,71,72,80,87,89,90,91,94,97,99,100,103,105,109,119,124,129,130,132,133,134,135,136,140,141,149,150,153,154,157,159,162,163,167,169,176,178,182,185,186,190,191,197,20,59,67,104,160,172,194,169],"categories_nodes":[0,2,3,4,6,12,14],"categories_segments":[0,182,352,547,560,623,630],"categories_sizes":[182,170,195,13,63,7,1],"default_left":[0,0,0,0,1,0,1,0,0,0,0,0,1,0,1,0,0,0,0,0,0,0,0,0,0,0,0,0,0,0,0],"id":9,"left_children":[1,3,5,7,9,11,13,15,17,19,21,23,25,27,29,-1,-1,-1,-1,-1,-1,-1,-1,-1,-1,-1,-1,-1,-1,-1,-1],"loss_changes":[1.5171556E2,1.4774716E2,2.24939E1,5.310666E1,4.917015E0,1.711266E1,2.8538437E0,3.976274E1,4.081357E1,8.320887E0,5.873833E-1,6.865408E0,2.7752161E-2,2.723997E0,8.6483383E-1,0E0,0E0,0E0,0E0,0E0,0E0,0E0,0E0,0E0,0E0,0E0,0E0,0E0,0E0,0E0,0E0],"parents":[2147483647,0,0,1,1,2,2,3,3,4,4,5,5,6,6,7,7,8,8,9,9,10,10,11,11,12,12,13,13,14,14],"right_children":[2,4,6,8,10,12,14,16,18,20,22,24,26,28,30,-1,-1,-1,-1,-1,-1,-1,-1,-1,-1,-1,-1,-1,-1,-1,-1],"split_conditions":[1E-45,4E0,1E-45,1E-45,1E-45,5E0,1E-45,1E0,9E0,5E0,2E0,2.9E1,1E-45,4E0,1E-45,9.77105E-3,1.0525993E-1,7.58264E-2,2.6571224E-2,3.5180237E-2,-6.0286294E-3,-1.8656475E-2,-6.5955766E-3,1.0279193E-2,-7.260605E-3,-4.5252535E-3,-5.7360074E-3,-9.616512E-4,-3.8177096E-3,-4.378448E-3,-1.2447931E-2],"split_indices":[0,5,0,0,0,5,0,5,4,5,4,4,0,5,0,0,0,0,0,0,0,0,0,0,0,0,0,0,0,0,0],"split_type":[1,0,1,1,1,0,1,0,0,0,0,0,1,0,1,0,0,0,0,0,0,0,0,0,0,0,0,0,0,0,0],"sum_hessian":[7.449E3,6.2E2,6.829E3,3.51E2,2.69E2,1.074E3,5.755E3,6.6E1,2.85E2,5E1,2.19E2,7.49E2,3.25E2,3.381E3,2.374E3,1.4E1,5.2E1,5.1E1,2.34E2,1.9E1,3.1E1,1E1,2.09E2,6.89E2,6E1,2.4E2,8.5E1,1.877E3,1.504E3,2.341E3,3.3E1],"tree_param":{"num_deleted":"0","num_feature":"14","num_nodes":"31","size_leaf_vector":"1"}},{"base_weights":[3.0193126E-3,4.8123667E-1,-3.802062E-2,1.0825988E0,9.176682E-2,8.4266536E-2,-6.0713477E-2,1.572046E0,2.2770594E-1,3.3210373E-1,-1.14530765E-1,1.8925048E-1,-5.0290324E-2,-4.064562E-2,-8.965437E-2,2.1578138E-1,6.816782E-2,-2.5969727E-3,2.6095225E-2,3.706528E-2,-5.575471E-3,-6.666232E-4,-9.315894E-3,1.2133468E-3,1.1996759E-2,2.276477E-3,-4.626548E-3,-1.1642881E-3,-4.128776E-3,-4.2996327E-3,-1.702151E-2],"categories":[0,1,2,3,5,6,7,8,9,10,11,12,13,14,15,16,17,18,19,20,21,23,24,25,26,27,28,29,31,32,33,34,35,36,37,38,39,40,41,42,43,44,45,46,47,48,49,50,51,52,53,54,55,56,57,59,61,62,63,64,65,66,67,68,69,70,71,72,73,74,75,76,77,78,79,80,81,82,83,84,85,86,87,88,89,90,91,93,94,95,96,97,98,99,100,101,102,103,104,105,106,107,108,109,110,111,112,114,115,116,117,119,120,121,123,124,125,127,128,129,130,131,132,133,134,135,136,137,138,139,140,141,142,143,144,145,146,147,148,149,150,151,152,153,154,155,156,157,158,159,160,161,162,163,164,165,166,167,170,171,173,174,175,176,177,178,179,180,181,182,183,184,185,186,187,189,190,191,192,194,195,197,0,1,2,3,4,5,7,8,9,10,12,13,14,15,16,18,21,22,24,25,26,29,30,31,32,33,34,36,37,38,39,40,41,42,43,44,45,46,49,50,51,52,53,54,55,56,57,58,59,60,63,65,66,67,68,69,70,71,73,74,75,76,77,78,79,80,81,82,84,85,87,88,89,90,91,92,94,95,96,97,98,99,100,101,102,103,105,106,107,108,109,110,111,112,113,115,116,117,118,119,120,121,122,123,124,125,126,129,131,132,133,134,135,136,137,139,140,141,142,143,144,145,146,147,148,149,150,151,152,153,154,155,156,157,158,159,161,162,163,164,166,167,168,169,170,171,172,173,174,175,176,177,178,179,180,181,182,183,185,186,187,188,189,190,191,192,193,194,196,197,0,1,2,3,5,6,7,8,9,10,11,12,13,14,15,16,17,18,19,20,21,23,24,25,26,27,28,29,31,32,33,34,35,36,37,38,39,40,41,42,43,44,45,46,47,48,49,50,51,52,53,54,55,56,57,59,60,61,62,63,64,65,66,67,68,69,70,71,72,73,74,75,76,77,78,79,80,81,82,83,84,85,86,87,88,89,90,91,92,93,94,95,96,97,98,99,100,101,102,103,104,105,106,107,108,109,110,111,112,114,115,116,117,118,119,120,121,122,123,124,125,127,128,129,130,131,132,133,134,135,136,137,138,139,140,141,142,143,144,145,146,147,148,149,150,151,152,153,154,155,156,157,158,159,160,161,162,163,164,165,166,167,170,171,172,173,174,175,176,177,178,179,180,181,182,183,184,185,186,187,188,189,190,191,192,194,195,197,0,1,2,3,4,5,6,7,8,9,10,11,12,13,14,15,16,17,18,19,20,21,22,23,24,25,26,27,28,29,30,31,32,33,34,35,36,37,38,39,40,41,42,43,44,45,46,47,48,49,50,51,52,53,54,55,56,57,58,59,61,62,63,64,65,66,67,68,69,70,71,72,73,74,75,76,77,78,79,80,81,82,83,84,85,86,87,88,89,90,91,93,94,95,96,97,98,99,100,101,102,103,104,105,106,107,108,109,110,111,112,113,114,115,116,117,119,120,121,123,124,125,126,127,128,129,130,131,132,133,134,135,136,137,138,139,140,141,142,143,144,145,146,147,148,149,150,151,152,153,154,155,156,157,158,159,160,161,162,163,164,165,166,167,168,169,170,171,173,174,175,176,177,178,179,180,181,182,183,184,185,186,187,189,190,191,192,193,194,195,197,1,3,5,7,10,14,18,24,34,42,45,51,54,57,67,68,69,70,71,79,80,82,88,89,91,94,96,100,102,103,105,109,112,115,121,124,125,132,135,136,141,145,146,150,152,153,156,157,159,162,163,167,173,174,175,176,179,182,185,186,191,194,197,22,58,168,169,193,11,19,20,27,28,47,48,61,62,72,83,93,114,128,130,138,160,165,184,195,194],"categories_nodes":[0,2,3,4,6,10,12,14],"categories_segments":[0,182,352,540,731,794,799,819],"categories_sizes":[182,170,188,191,63,5,20,1],"default_left":[0,0,0,0,0,0,1,0,0,0,1,0,1,0,1,0,0,0,0,0,0,0,0,0,0,0,0,0,0,0,0],"id":10,"left_children":[1,3,5,7,9,11,13,15,17,19,21,23,25,27,29,-1,-1,-1,-1,-1,-1,-1,-1,-1,-1,-1,-1,-1,-1,-1,-1],"loss_changes":[1.4725261E2,1.3878864E2,1.9180677E1,9.713504E1,1.7936749E1,1.5294187E1,3.381733E0,7.8854706E1,7.102435E0,3.0397724E1,1.414139E0,5.078356E0,1.9267715E0,2.5049548E0,2.1617222E0,0E0,0E0,0E0,0E0,0E0,0E0,0E0,0E0,0E0,0E0,0E0,0E0,0E0,0E0,0E0,0E0],"parents":[2147483647,0,0,1,1,2,2,3,3,4,4,5,5,6,6,7,7,8,8,9,9,10,10,11,11,12,12,13,13,14,14],"right_children":[2,4,6,8,10,12,14,16,18,20,22,24,26,28,30,-1,-1,-1,-1,-1,-1,-1,-1,-1,-1,-1,-1,-1,-1,-1,-1],"split_conditions":[1E-45,3E0,1E-45,1E-45,1E-45,4E0,1E-45,5E0,5E1,5E0,1E-45,1.2E1,1E-45,5E0,1E-45,2.1578138E-1,6.816782E-2,-2.5969727E-3,2.6095225E-2,3.706528E-2,-5.575471E-3,-6.666232E-4,-9.315894E-3,1.2133468E-3,1.1996759E-2,2.276477E-3,-4.626548E-3,-1.1642881E-3,-4.128776E-3,-4.2996327E-3,-1.702151E-2],"split_indices":[0,5,0,0,0,5,0,4,6,5,0,4,0,5,0,0,0,0,0,0,0,0,0,0,0,0,0,0,0,0,0],"split_type":[1,0,1,1,1,0,1,0,0,0,1,0,1,0,1,0,0,0,0,0,0,0,0,0,0,0,0,0,0,0,0],"sum_hessian":[7.501E3,5.92E2,6.909E3,2.32E2,3.6E2,1.081E3,5.828E3,1.47E2,8.5E1,1.66E2,1.94E2,6.07E2,4.74E2,3.443E3,2.385E3,9E0,1.38E2,4.4E1,4.1E1,8.6E1,8E1,8.1E1,1.13E2,1.43E2,4.64E2,1.45E2,3.29E2,2.436E3,1.007E3,2.352E3,3.3E1],"tree_param":{"num_deleted":"0","num_feature":"14","num_nodes":"31","size_leaf_vector":"1"}},{"base_weights":[2.2065635E-3,-2.1818805E-2,6.688331E-1,-4.793948E-2,1.4834045E-1,4.5083043E-1,1.085076E0,-6.345311E-2,-4.0542567E-3,1.7345533E-1,-3.3454856E-1,8.956028E-1,2.8267977E-1,1.2808492E0,2.9639307E-1,-3.8771124E-3,-2.5223074E-3,4.9544434E-4,-2.2465924E-3,3.7211792E-3,1.6288726E-2,-4.36527E-3,-1.7454566E-2,7.4327E-3,6.5695934E-2,2.5048379E-2,-2.0473424E-2,1.04016714E-1,5.4980244E-2,4.1593548E-2,-1.9550625E-2],"categories":[1,3,5,7,11,13,16,18,8,21],"categories_nodes":[8,12,14],"categories_segments":[0,8,9],"categories_sizes":[8,1,1],"default_left":[0,0,0,0,0,0,0,0,1,0,0,0,1,0,1,0,0,0,0,0,0,0,0,0,0,0,0,0,0,0,0],"id":11,"left_children":[1,3,5,7,9,11,13,15,17,19,21,23,25,27,29,-1,-1,-1,-1,-1,-1,-1,-1,-1,-1,-1,-1,-1,-1,-1,-1],"loss_changes":[1.2016623E2,3.2195446E1,2.3194489E1,4.2746058E0,1.1749123E1,1.2685287E1,1.3362236E1,8.462162E-1,9.3709457E-1,1.3808184E1,1.421113E-1,1.4490322E1,1.9393246E1,8.000511E0,7.318991E0,0E0,0E0,0E0,0E0,0E0,0E0,0E0,0E0,0E0,0E0,0E0,0E0,0E0,0E0,0E0,0E0],"parents":[2147483647,0,0,1,1,2,2,3,3,4,4,5,5,6,6,7,7,8,8,9,9,10,10,11,11,12,12,13,13,14,14],"right_children":[2,4,6,8,10,12,14,16,18,20,22,24,26,28,30,-1,-1,-1,-1,-1,-1,-1,-1,-1,-1,-1,-1,-1,-1,-1,-1],"split_conditions":[6.792453E-1,2.2580644E-1,1.4150944E0,7.54717E-2,6.7741936E-1,4.7E1,5.1E1,1.8867925E-2,1E-45,5E1,4.9E1,4.6E1,1E-45,4.6E1,1E-45,-3.8771124E-3,-2.5223074E-3,4.9544434E-4,-2.2465924E-3,3.7211792E-3,1.6288726E-2,-4.36527E-3,-1.7454566E-2,7.4327E-3,6.5695934E-2,2.5048379E-2,-2.0473424E-2,1.04016714E-1,5.4980244E-2,4.1593548E-2,-1.9550625E-2],"split_indices":[13,13,13,13,13,6,6,13,1,6,6,6,1,6,1,0,0,0,0,0,0,0,0,0,0,0,0,0,0,0,0],"split_type":[0,0,0,0,0,0,0,0,1,0,0,0,1,0,1,0,0,0,0,0,0,0,0,0,0,0,0,0,0,0,0],"sum_hessian":[7.501E3,7.241E3,2.6E2,6.278E3,9.63E2,1.72E2,8.8E1,4.638E3,1.64E3,9.16E2,4.7E1,4.6E1,1.26E2,7E1,1.8E1,2.224E3,2.414E3,1.223E3,4.17E2,5.56E2,3.6E2,3E0,4.4E1,1.7E1,2.9E1,9.6E1,3E1,1.1E1,5.9E1,1E1,8E0],"tree_param":{"num_deleted":"0","num_feature":"14","num_nodes":"31","size_leaf_vector":"1"}},{"base_weights":[-1.6696583E-3,3.294395E-1,-4.038583E-2,5.105116E-1,-1.1870942E-1,3.89116E-2,-6.0896724E-2,5.715224E-1,-2.5556323E-1,-9.798407E-2,-1.6674036E-1,9.2749245E-2,-8.8507146E-2,-5.804114E-2,-2.720358E-1,3.4598246E-2,1.7330043E-2,-1.0525495E-2,-2.2537852E-2,-4.016607E-3,-5.7005268E-3,-1.0134303E-2,-6.8704933E-3,5.6666206E-3,-6.9084815E-3,-4.061865E-3,-5.544859E-3,-2.1035082E-3,-3.8960294E-3,-1.691645E-2,-5.450211E-3],"categories":[0,1,2,3,5,7,8,9,10,11,12,13,14,15,16,18,19,20,21,22,23,24,25,26,27,28,29,31,32,33,34,35,36,37,38,39,40,41,42,43,44,46,47,48,49,50,51,52,53,54,55,56,57,59,61,62,63,64,65,66,67,68,69,70,71,72,73,74,75,76,77,78,79,80,81,82,83,84,85,86,87,88,89,90,91,92,93,94,95,96,97,98,99,100,101,102,103,105,106,107,108,109,110,111,112,114,116,117,119,120,122,123,124,125,126,127,128,129,130,131,132,133,134,135,136,137,138,139,140,141,142,143,144,145,146,147,148,149,150,151,152,153,154,155,156,157,158,159,161,162,163,164,165,166,167,170,171,172,173,174,175,176,177,178,179,180,181,182,183,184,185,186,187,189,190,191,192,197,0,1,2,3,5,7,8,9,10,12,14,15,16,18,21,22,24,25,26,28,29,31,32,33,34,36,37,38,39,40,41,42,43,44,46,49,50,51,53,54,55,56,57,63,64,65,66,68,69,70,71,74,75,78,79,80,81,82,84,86,87,88,89,90,91,93,94,96,97,99,100,101,102,103,105,107,108,109,110,111,114,116,117,119,120,123,124,125,126,129,132,133,134,135,136,137,139,140,141,142,143,144,146,147,148,149,150,152,153,154,155,156,157,158,159,162,163,164,165,166,167,170,171,173,174,175,176,177,178,179,180,181,182,183,184,185,186,189,190,191,192,197,4,6,60,113,194,196,22,126,0,1,2,3,5,7,8,9,10,11,12,13,14,15,16,17,18,19,20,21,22,23,24,25,26,27,28,29,30,31,32,33,34,35,36,37,38,39,40,41,42,43,44,45,46,47,48,49,50,51,52,53,54,55,56,57,59,61,62,63,64,65,66,67,68,69,70,71,72,73,74,75,76,77,78,79,80,81,82,83,84,85,86,87,88,89,90,91,92,93,94,95,96,97,98,99,100,101,102,103,105,106,107,108,109,110,111,112,114,116,117,118,119,120,122,123,124,125,126,127,128,129,130,131,132,133,134,135,136,137,138,139,140,141,142,143,144,145,146,147,148,149,150,151,152,153,154,155,156,157,158,159,161,162,163,164,165,166,167,169,170,171,172,173,174,175,176,177,178,179,180,181,182,183,184,185,186,187,188,189,190,191,192,193,197,4,60,113,196,30,104,115,121,160,168,193,20,35,59,67,92,122,127,172,1,5,7,10,14,18,24,26,28,34,36,38,42,43,44,49,51,55,56,57,66,68,69,70,71,78,79,80,82,84,88,89,100,102,103,105,119,124,132,134,135,136,141,146,148,152,156,157,159,162,163,164,167,174,175,176,179,182,184,185,186,191,197],"categories_nodes":[0,2,4,6,7,8,9,12,13],"categories_segments":[0,178,320,326,328,513,517,524,532],"categories_sizes":[178,142,6,2,185,4,7,8,63],"default_left":[0,0,0,0,1,0,1,0,1,1,0,0,1,1,0,0,0,0,0,0,0,0,0,0,0,0,0,0,0,0,0],"id":12,"left_children":[1,3,5,7,9,11,13,15,17,19,21,23,25,27,29,-1,-1,-1,-1,-1,-1,-1,-1,-1,-1,-1,-1,-1,-1,-1,-1],"loss_changes":[9.6247635E1,6.384234E1,1.0935442E1,2.6319855E1,2.096312E-1,9.488626E0,3.2044334E0,1.3819931E1,2.7446485E-1,3.638792E-2,4.2787433E-2,4.6356125E0,5.7890177E-2,1.6702328E0,7.304802E-1,0E0,0E0,0E0,0E0,0E0,0E0,0E0,0E0,0E0,0E0,0E0,0E0,0E0,0E0,0E0,0E0],"parents":[2147483647,0,0,1,1,2,2,3,3,4,4,5,5,6,6,7,7,8,8,9,9,10,10,11,11,12,12,13,13,14,14],"right_children":[2,4,6,8,10,12,14,16,18,20,22,24,26,28,30,-1,-1,-1,-1,-1,-1,-1,-1,-1,-1,-1,-1,-1,-1,-1,-1],"split_conditions":[1E-45,1E0,1E-45,2.9E1,1E-45,1E0,1E-45,1E-45,1E-45,1E-45,1.2E1,2.9E1,1E-45,1E-45,1E0,3.4598246E-2,1.7330043E-2,-1.0525495E-2,-2.2537852E-2,-4.016607E-3,-5.7005268E-3,-1.0134303E-2,-6.8704933E-3,5.6666206E-3,-6.9084815E-3,-4.061865E-3,-5.544859E-3,-2.1035082E-3,-3.8960294E-3,-1.691645E-2,-5.450211E-3],"split_indices":[0,7,0,4,0,7,0,0,0,0,3,4,0,0,7,0,0,0,0,0,0,0,0,0,0,0,0,0,0,0,0],"split_type":[1,0,1,0,1,0,1,1,1,1,0,0,1,1,0,0,0,0,0,0,0,0,0,0,0,0,0,0,0,0,0],"sum_hessian":[7.506E3,7.85E2,6.721E3,5.59E2,2.26E2,1.381E3,5.34E3,5.18E2,4.1E1,1.6E2,6.6E1,9.71E2,4.1E2,5.27E3,7E1,3.36E2,1.82E2,3.5E1,6E0,7.9E1,8.1E1,2.7E1,3.9E1,8.92E2,7.9E1,3.13E2,9.7E1,2.924E3,2.346E3,4.9E1,2.1E1],"tree_param":{"num_deleted":"0","num_feature":"14","num_nodes":"31","size_leaf_vector":"1"}},{"base_weights":[1.2759369E-2,-3.0374644E-2,4.782498E-1,1.1486457E-1,-5.279621E-2,7.470032E-1,-1.2989628E-1,1.9216423E-1,-8.223058E-2,-5.6957784E-3,-6.2981E-2,1.4505635E0,4.9083468E-1,-1.17298275E-1,-1.0593935E-2,-4.6709643E-4,1.5092139E-2,-3.7983307E-3,-4.911852E-3,1.257169E-3,-3.8151839E-3,-2.9301096E-3,-6.3622403E-3,6.564062E-2,1.2789816E-1,3.972967E-2,1.5189548E-2,-5.150389E-3,-6.867235E-3],"categories":[0,1,2,3,4,5,6,7,9,10,12,13,14,15,16,18,21,22,24,25,26,28,29,31,32,33,34,35,36,37,38,39,40,41,42,43,44,46,47,49,50,51,52,53,54,55,56,57,60,61,62,63,65,66,67,68,69,70,71,73,74,75,76,78,79,80,81,82,83,84,86,87,88,89,90,91,93,94,95,96,97,98,99,100,101,102,103,105,106,108,109,110,111,112,113,115,116,117,118,119,120,121,122,123,124,125,126,129,130,131,132,133,134,135,136,137,139,140,141,142,143,144,145,146,147,148,149,150,151,152,153,154,155,156,157,158,159,162,163,164,165,166,167,168,169,170,171,173,174,175,176,177,178,179,180,181,182,183,184,185,186,187,188,189,190,191,192,193,194,196,197,1,2,3,5,6,7,9,10,12,14,15,16,18,21,22,24,26,28,29,31,32,33,34,37,38,39,40,41,42,43,44,46,49,50,51,53,54,55,56,57,61,63,65,67,68,69,70,71,73,74,75,78,79,80,81,82,84,88,89,90,91,94,95,97,99,100,101,102,103,105,106,108,109,110,112,115,119,120,121,123,124,125,129,130,131,132,133,134,135,136,137,139,140,141,142,143,144,145,146,147,150,152,153,154,157,158,159,162,163,164,165,166,167,168,169,170,171,173,174,175,176,177,178,179,181,182,183,185,186,188,189,190,191,192,197,0,1,2,3,5,6,7,8,9,10,11,12,13,14,15,16,17,18,19,20,21,23,24,25,26,27,28,29,31,32,33,34,35,36,37,38,39,40,41,42,43,44,45,46,47,48,49,50,51,52,53,54,55,56,57,58,59,60,61,62,63,64,65,66,67,68,69,70,71,72,73,74,75,76,77,78,79,80,81,82,83,84,85,86,87,88,89,90,91,92,93,94,95,96,97,98,99,100,101,102,103,104,105,106,107,108,109,110,111,112,113,114,115,116,117,118,119,120,122,123,124,125,126,127,128,129,130,131,132,133,134,135,136,137,138,139,140,141,142,143,144,145,146,147,148,149,150,151,152,153,154,155,156,157,158,159,161,162,163,164,165,166,167,168,169,170,171,172,173,174,175,176,177,178,179,180,181,182,183,184,185,186,187,189,190,191,192,193,194,195,197,6,18,22,67,106,115,121,130,131,167,168,169,188,0,1,2,3,4,5,6,7,8,9,10,11,12,13,14,15,16,17,18,19,20,21,22,23,24,25,26,27,28,29,30,31,32,33,34,35,36,37,38,39,40,41,42,43,44,45,46,47,48,49,50,51,52,53,54,55,56,57,58,59,60,61,62,63,64,65,66,67,68,69,70,71,72,73,74,75,76,77,78,79,80,81,82,83,84,85,86,87,88,89,90,91,92,93,94,95,96,97,98,99,100,101,102,103,104,105,106,107,108,109,110,111,112,113,114,116,117,118,119,120,121,123,124,125,126,127,128,129,130,131,132,133,134,135,136,137,138,139,140,141,142,143,144,145,146,147,148,149,150,151,152,153,154,155,156,157,158,159,160,161,162,163,164,165,166,167,170,171,172,173,174,175,176,177,178,179,180,181,182,183,184,185,186,187,188,189,190,191,192,195,196,197,6,30,60,115,126,160,168,194],"categories_nodes":[1,4,5,10,12,13],"categories_segments":[0,171,306,497,510,702],"categories_sizes":[171,135,191,13,192,8],"default_left":[0,0,0,0,0,0,0,0,0,0,1,0,0,1,0,0,0,0,0,0,0,0,0,0,0,0,0,0,0],"id":13,"left_children":[1,3,5,7,9,11,13,15,17,19,21,23,25,27,-1,-1,-1,-1,-1,-1,-1,-1,-1,-1,-1,-1,-1,-1,-1],"loss_changes":[1.5152666E2,2.249865E1,1.0469949E2,1.4093299E1,2.8702145E0,7.9310165E1,1.7861152E-1,1.4677818E1,1.8706322E-2,2.3209434E0,1.3770237E0,1.4642242E1,1.8337494E1,3.541231E-2,0E0,0E0,0E0,0E0,0E0,0E0,0E0,0E0,0E0,0E0,0E0,0E0,0E0,0E0,0E0],"parents":[2147483647,0,0,1,1,2,2,3,3,4,4,5,5,6,6,7,7,8,8,9,9,10,10,11,11,12,12,13,13],"right_children":[2,4,6,8,10,12,14,16,18,20,22,24,26,28,-1,-1,-1,-1,-1,-1,-1,-1,-1,-1,-1,-1,-1,-1,-1],"split_conditions":[4.3548387E-1,1E-45,1E0,1E0,1E-45,1E-45,1.4150944E0,1.1290322E-1,2.0967741E-1,1E0,1E-45,1.8113208E0,1E-45,1E-45,-1.0593935E-2,-4.6709643E-4,1.5092139E-2,-3.7983307E-3,-4.911852E-3,1.257169E-3,-3.8151839E-3,-2.9301096E-3,-6.3622403E-3,6.564062E-2,1.2789816E-1,3.972967E-2,1.5189548E-2,-5.150389E-3,-6.867235E-3],"split_indices":[13,0,7,7,0,0,13,13,13,7,0,13,0,0,0,0,0,0,0,0,0,0,0,0,0,0,0,0,0],"split_type":[0,1,0,0,1,1,0,0,0,0,1,0,1,1,0,0,0,0,0,0,0,0,0,0,0,0,0,0,0],"sum_hessian":[7.545E3,6.906E3,6.39E2,9.23E2,5.983E3,4.43E2,1.96E2,6.63E2,2.6E2,1.064E3,4.919E3,1.17E2,3.26E2,1.72E2,2.4E1,2.34E2,4.29E2,1.91E2,6.9E1,7.41E2,3.23E2,4.607E3,3.12E2,1.06E2,1.1E1,1.23E2,2.03E2,1.04E2,6.8E1],"tree_param":{"num_deleted":"0","num_feature":"14","num_nodes":"29","size_leaf_vector":"1"}},{"base_weights":[2.2950268E-3,4.38923E-1,-2.6549732E-2,7.347575E-2,7.978372E-1,8.7438166E-2,-4.7873642E-2,5.372432E-1,-1.02586925E-1,1.1321144E0,-1.1299918E-1,1.6640246E-1,-8.6398385E-2,-3.1084085E-2,-7.365739E-2,7.484066E-2,-1.5029758E-2,-1.5702731E-3,-1.4068464E-2,8.720104E-2,2.4264626E-2,-4.9480195E-3,-9.945031E-3,1.0475963E-2,1.4558883E-3,-3.9232923E-3,-6.235412E-3,-7.199497E-4,-3.5400724E-3,-3.3939804E-3,-5.380626E-3],"categories":[0,1,2,3,5,6,7,8,9,10,11,12,13,14,15,16,17,18,19,20,21,23,24,25,26,27,28,29,31,32,33,34,35,36,37,38,39,40,41,42,43,44,45,46,47,48,49,50,51,52,53,54,55,56,57,58,59,60,61,62,63,64,65,66,67,68,69,70,71,72,73,74,75,76,77,78,79,80,81,82,83,84,85,86,87,88,89,90,91,92,93,94,95,96,97,98,99,100,101,102,103,104,105,106,107,108,109,110,111,112,113,114,116,117,118,119,120,121,122,123,124,125,127,128,129,130,131,132,133,134,135,136,137,138,139,140,141,142,143,144,145,146,147,148,149,150,151,152,153,154,155,156,157,158,159,160,161,162,163,164,165,166,167,170,171,172,173,174,175,176,177,178,179,180,181,182,183,184,185,186,187,189,190,191,192,197,0,1,2,3,4,5,7,8,9,10,11,12,13,14,15,16,18,21,22,23,24,25,26,27,29,30,31,32,33,34,36,37,38,39,40,41,42,43,44,46,48,49,50,51,52,53,54,55,56,57,61,63,64,65,66,67,68,69,70,71,74,75,76,77,78,79,80,81,82,84,87,88,89,90,91,93,94,95,96,97,98,99,100,101,102,103,104,105,106,108,109,110,111,112,114,115,116,117,119,120,121,122,123,124,125,126,129,131,132,133,134,135,136,137,139,140,141,142,143,144,146,147,148,149,150,151,152,153,154,155,156,157,158,159,162,163,164,165,166,167,168,169,170,171,173,174,175,176,177,178,179,180,181,182,183,184,185,186,187,188,189,190,191,192,193,194,195,196,197,0,1,2,3,4,5,6,7,8,9,10,11,12,13,14,15,16,17,18,19,20,21,22,23,24,25,26,27,28,29,30,31,32,33,34,35,36,37,38,39,40,41,42,43,44,45,46,47,48,49,50,51,52,53,54,55,56,57,58,59,60,61,62,63,64,65,66,67,68,69,70,71,72,73,74,75,76,77,78,79,80,81,82,83,84,85,86,87,88,89,90,91,92,93,94,95,96,97,98,99,100,101,102,103,104,105,106,107,108,109,110,111,112,113,114,115,116,117,118,119,120,121,122,123,124,125,127,128,129,130,131,132,133,134,135,136,137,138,139,140,141,142,143,144,145,146,147,148,149,150,151,152,153,154,155,156,157,158,159,160,161,162,163,164,165,166,167,168,169,170,171,172,173,174,175,176,177,178,179,180,181,182,183,184,185,186,187,188,189,190,191,192,193,195,197,1,3,5,7,18,24,34,42,44,48,53,56,63,66,67,68,69,70,71,79,80,88,89,91,94,100,101,103,105,109,112,120,121,122,123,124,125,132,135,136,141,142,144,147,150,152,154,157,159,162,163,165,167,171,174,176,179,182,185,186,187,190,197,4,6,35,60,113,172,18,44,48,66,67,112,122,167,187],"categories_nodes":[0,2,3,6,10,12,14],"categories_segments":[0,186,355,550,613,614,619],"categories_sizes":[186,169,195,63,1,5,9],"default_left":[0,0,0,0,0,0,1,0,0,0,1,0,1,0,1,0,0,0,0,0,0,0,0,0,0,0,0,0,0,0,0],"id":14,"left_children":[1,3,5,7,9,11,13,15,17,19,21,23,25,27,29,-1,-1,-1,-1,-1,-1,-1,-1,-1,-1,-1,-1,-1,-1,-1,-1],"loss_changes":[9.470916E1,6.1063896E1,1.7150116E1,1.899841E1,7.167883E1,1.5278667E1,2.5704212E0,5.1903664E1,2.1418552E0,6.723027E1,5.749762E-2,4.522146E0,9.5969915E-2,2.385319E0,4.523573E-1,0E0,0E0,0E0,0E0,0E0,0E0,0E0,0E0,0E0,0E0,0E0,0E0,0E0,0E0,0E0,0E0],"parents":[2147483647,0,0,1,1,2,2,3,3,4,4,5,5,6,6,7,7,8,8,9,9,10,10,11,11,12,12,13,13,14,14],"right_children":[2,4,6,8,10,12,14,16,18,20,22,24,26,28,30,-1,-1,-1,-1,-1,-1,-1,-1,-1,-1,-1,-1,-1,-1,-1,-1],"split_conditions":[1E-45,4.9E1,1E-45,1E-45,1E0,1E0,1E-45,4.7E1,4.8E1,5.1E1,1E-45,1E0,1E-45,1E0,1E-45,7.484066E-2,-1.5029758E-2,-1.5702731E-3,-1.4068464E-2,8.720104E-2,2.4264626E-2,-4.9480195E-3,-9.945031E-3,1.0475963E-2,1.4558883E-3,-3.9232923E-3,-6.235412E-3,-7.199497E-4,-3.5400724E-3,-3.3939804E-3,-5.380626E-3],"split_indices":[0,6,0,0,7,7,0,6,6,6,0,8,0,7,0,0,0,0,0,0,0,0,0,0,0,0,0,0,0,0,0],"split_type":[1,0,1,1,0,0,1,0,0,0,1,0,1,0,1,0,0,0,0,0,0,0,0,0,0,0,0,0,0,0,0],"sum_hessian":[7.518E3,4.65E2,7.053E3,2.31E2,2.34E2,1.111E3,5.942E3,6.3E1,1.68E2,1.71E2,6.3E1,7.64E2,3.47E2,3.6E3,2.342E3,2.9E1,3.4E1,1.21E2,4.7E1,8.7E1,8.4E1,5.6E1,7E0,5.81E2,1.83E2,2.9E2,5.7E1,2.536E3,1.064E3,2.004E3,3.38E2],"tree_param":{"num_deleted":"0","num_feature":"14","num_nodes":"31","size_leaf_vector":"1"}},{"base_weights":[1.6854092E-3,-1.6804852E-2,6.866655E-1,-3.840716E-2,1.6994981E-1,1.4599521E0,2.2588655E-1,-5.2736055E-2,6.589754E-3,3.482913E-1,-5.361746E-2,3.7964404E0,8.904389E-1,6.065298E-1,-1.6453941E-1,-3.5139907E-3,-2.2674592E-3,2.9972051E-3,-3.1873554E-3,1.1976617E-2,3.3562556E-2,1.3616909E-3,-4.8283576E-3,3.0164886E-1,-9.555239E-3,1.0265304E-1,-1.7030912E-2,1.3069205E-1,1.9420974E-2,-1.0543362E-2,-6.48653E-3],"categories":[0,1,2,3,4,5,6,7,10,11,12,13,14,15,16,17,18,19,20,0,1,3,4,5,8,9,10,11,12,13,14,15,16,17,18,19,20,21],"categories_nodes":[11,12],"categories_segments":[0,19],"categories_sizes":[19,19],"default_left":[0,0,0,0,0,0,0,0,0,0,0,1,1,0,0,0,0,0,0,0,0,0,0,0,0,0,0,0,0,0,0],"id":15,"left_children":[1,3,5,7,9,11,13,15,17,19,21,23,25,27,29,-1,-1,-1,-1,-1,-1,-1,-1,-1,-1,-1,-1,-1,-1,-1,-1],"loss_changes":[9.4445206E1,2.9299816E1,6.9507805E1,4.1970644E0,3.0041779E1,9.375772E1,1.8527811E1,6.3661575E-1,5.90694E0,1.4556496E1,1.16593E0,1.2600902E2,8.657454E1,2.6567093E1,7.262623E-2,0E0,0E0,0E0,0E0,0E0,0E0,0E0,0E0,0E0,0E0,0E0,0E0,0E0,0E0,0E0,0E0],"parents":[2147483647,0,0,1,1,2,2,3,3,4,4,5,5,6,6,7,7,8,8,9,9,10,10,11,11,12,12,13,13,14,14],"right_children":[2,4,6,8,10,12,14,16,18,20,22,24,26,28,30,-1,-1,-1,-1,-1,-1,-1,-1,-1,-1,-1,-1,-1,-1,-1,-1],"split_conditions":[7.358491E-1,3.018868E-1,3E0,9.4339624E-2,4E0,9E0,5E0,1.6129032E-2,4E0,3E0,5E0,1E-45,1E-45,7.419355E-1,1.2E1,-3.5139907E-3,-2.2674592E-3,2.9972051E-3,-3.1873554E-3,1.1976617E-2,3.3562556E-2,1.3616909E-3,-4.8283576E-3,3.0164886E-1,-9.555239E-3,1.0265304E-1,-1.7030912E-2,1.3069205E-1,1.9420974E-2,-1.0543362E-2,-6.48653E-3],"split_indices":[13,13,5,13,5,4,5,13,5,5,5,1,1,13,3,0,0,0,0,0,0,0,0,0,0,0,0,0,0,0,0],"split_type":[0,0,0,0,0,0,0,0,0,0,0,1,1,0,0,0,0,0,0,0,0,0,0,0,0,0,0,0,0,0,0],"sum_hessian":[7.455E3,7.26E3,1.95E2,6.508E3,7.52E2,7.2E1,1.23E2,4.936E3,1.572E3,4.18E2,3.34E2,1.3E1,5.9E1,6.2E1,6.1E1,1.46E3,3.476E3,8.94E2,6.78E2,3.14E2,1.04E2,1.16E2,2.18E2,8E0,5E0,3E1,2.9E1,5E0,5.7E1,2.4E1,3.7E1],"tree_param":{"num_deleted":"0","num_feature":"14","num_nodes":"31","size_leaf_vector":"1"}},{"base_weights":[7.4228905E-3,4.416859E-1,-2.8645284E-2,9.617802E-1,8.3391346E-2,5.984269E-2,-5.2850798E-2,2.9284316E-1,1.5222125E0,3.7762862E-1,-7.821534E-2,1.1550648E-1,-7.22569E-2,-4.9721915E-2,-4.0682128E-1,3.336477E-2,-1.7504754E-3,1.23882666E-1,5.921783E-2,4.211253E-2,-5.0515425E-3,4.386594E-3,-9.625011E-3,-1.1161652E-3,9.041301E-3,-3.2781556E-3,-4.422005E-3,-1.6765617E-3,-3.5314728E-3,-2.7612967E-2,-2.9868116E-3],"categories":[0,1,2,3,5,6,7,8,9,10,11,12,13,14,15,16,17,18,19,20,21,23,24,25,26,27,28,29,31,32,33,34,36,37,38,39,40,41,42,43,44,45,46,47,48,49,50,51,52,53,54,55,56,57,58,61,62,63,64,65,66,67,68,69,70,71,72,73,74,75,76,77,78,79,80,81,82,83,84,85,86,87,88,89,90,91,92,93,94,95,96,97,98,99,100,101,102,103,105,106,107,108,109,110,111,112,114,116,117,118,119,120,122,123,124,125,127,128,129,130,131,132,133,134,135,136,137,138,139,140,141,142,143,144,145,146,147,148,149,150,151,152,153,154,155,156,157,158,159,160,161,162,163,164,165,166,167,169,170,171,172,173,174,175,176,177,178,179,180,181,182,183,184,185,186,187,188,189,190,191,192,193,197,0,1,2,3,4,5,7,9,10,12,13,14,15,16,18,21,22,24,25,26,28,29,30,31,32,33,34,35,36,37,38,39,41,42,43,44,46,47,48,49,50,51,53,54,55,56,57,59,60,61,63,65,66,68,69,70,71,73,74,75,78,79,80,81,82,83,84,87,88,89,90,91,93,94,95,97,99,100,101,102,103,104,105,107,108,109,110,111,113,115,116,117,119,120,121,122,123,124,125,126,127,128,129,132,133,134,135,136,137,138,139,140,141,142,143,144,146,147,149,150,152,153,154,155,157,158,159,162,163,164,166,167,168,169,170,171,173,174,175,176,177,178,179,180,181,182,183,185,186,187,188,189,190,191,194,195,196,197,0,1,2,3,4,5,6,7,8,9,10,11,12,13,14,15,16,17,18,19,20,21,22,23,24,25,26,27,28,29,31,32,33,34,36,37,38,39,40,41,42,43,44,45,46,47,48,49,50,51,52,53,54,55,56,57,58,59,61,62,63,64,65,66,67,68,69,70,71,72,73,74,75,76,77,78,79,80,81,82,83,84,85,86,87,88,89,90,91,92,93,94,95,96,97,98,99,100,101,102,103,104,105,106,107,108,109,110,111,112,113,114,115,116,117,118,119,120,122,123,124,125,126,127,128,129,130,131,132,133,134,135,136,137,138,139,140,141,142,143,144,145,146,147,148,149,150,151,152,153,154,155,156,157,158,159,160,161,162,163,164,165,166,167,168,169,170,171,172,173,174,175,176,177,178,179,180,181,182,183,184,185,186,187,188,189,190,191,192,193,195,196,197,0,1,2,3,4,5,6,7,8,9,10,11,12,13,14,15,16,17,18,19,20,21,22,23,24,25,26,27,28,29,30,31,32,33,34,35,36,37,38,39,40,41,42,43,44,45,46,47,48,49,50,51,52,53,54,55,56,57,58,60,61,62,63,64,65,66,67,68,69,70,71,72,73,74,75,76,77,78,79,80,81,82,83,84,85,86,87,88,89,90,91,92,93,94,95,96,97,98,99,100,101,102,103,105,106,107,108,109,110,111,112,113,114,115,116,117,118,119,120,121,122,123,124,125,126,127,128,129,130,131,132,133,134,135,136,137,138,139,140,141,142,143,144,145,146,147,148,149,150,151,152,153,154,155,156,157,158,159,160,161,162,163,164,165,166,167,168,169,170,171,172,173,174,175,176,177,178,179,180,181,182,183,184,185,186,187,188,189,190,191,192,193,194,196,197,0,1,2,3,5,6,7,8,9,10,11,12,13,14,15,16,17,18,19,20,21,22,23,24,25,26,27,28,29,31,32,33,34,35,36,37,38,39,40,41,42,43,44,45,46,47,48,49,50,51,52,53,54,55,56,57,58,59,60,61,62,63,64,65,66,67,68,69,70,71,72,73,74,75,76,77,78,79,80,81,82,83,84,85,86,87,88,89,90,91,92,93,94,95,96,97,98,99,100,101,102,103,104,105,106,107,108,109,110,111,112,113,114,115,116,117,118,119,120,121,122,123,124,125,126,127,128,129,130,131,132,133,134,135,136,137,138,139,140,141,142,143,144,145,146,147,148,149,150,151,152,153,154,155,156,157,158,159,160,161,162,163,164,165,166,167,169,170,171,172,173,174,175,176,177,178,179,180,181,182,183,184,185,186,187,188,189,190,191,192,193,194,195,196,197,4,22,115,126,168,195,5,7,10,13,14,15,18,24,28,34,42,44,47,48,54,57,69,70,71,73,79,80,87,89,90,100,101,102,103,110,111,117,119,120,122,124,127,128,132,135,136,137,141,142,146,154,157,159,162,163,164,167,169,174,175,176,182,185,186,187,188,191,197],"categories_nodes":[0,2,4,7,8,10,13],"categories_segments":[0,183,341,534,729,924,930],"categories_sizes":[183,158,193,195,195,6,63],"default_left":[0,0,0,0,0,0,0,0,0,0,1,0,0,1,0,0,0,0,0,0,0,0,0,0,0,0,0,0,0,0,0],"id":16,"left_children":[1,3,5,7,9,11,13,15,17,19,21,23,25,27,29,-1,-1,-1,-1,-1,-1,-1,-1,-1,-1,-1,-1,-1,-1,-1,-1],"loss_changes":[1.16217E2,1.059512E2,1.4677299E1,8.652966E1,1.6101677E1,1.0832203E1,5.9382954E0,1.3159237E1,3.7738495E1,2.677258E1,4.17028E0,9.331122E0,4.1540384E-2,1.8032312E0,2.33954E0,0E0,0E0,0E0,0E0,0E0,0E0,0E0,0E0,0E0,0E0,0E0,0E0,0E0,0E0,0E0,0E0],"parents":[2147483647,0,0,1,1,2,2,3,3,4,4,5,5,6,6,7,7,8,8,9,9,10,10,11,11,12,12,13,13,14,14],"right_children":[2,4,6,8,10,12,14,16,18,20,22,24,26,28,30,-1,-1,-1,-1,-1,-1,-1,-1,-1,-1,-1,-1,-1,-1,-1,-1],"split_conditions":[1E-45,3E0,1E-45,5.660377E-1,1E-45,5E0,5.967742E-1,1E-45,1E-45,5E0,1E-45,8.064516E-2,2.580645E-1,1E-45,5E0,3.336477E-2,-1.7504754E-3,1.23882666E-1,5.921783E-2,4.211253E-2,-5.0515425E-3,4.386594E-3,-9.625011E-3,-1.1161652E-3,9.041301E-3,-3.2781556E-3,-4.422005E-3,-1.6765617E-3,-3.5314728E-3,-2.7612967E-2,-2.9868116E-3],"split_indices":[0,5,0,13,0,5,13,0,0,5,0,13,13,0,5,0,0,0,0,0,0,0,0,0,0,0,0,0,0,0,0],"split_type":[1,0,1,0,1,0,0,1,1,0,1,0,0,1,0,0,0,0,0,0,0,0,0,0,0,0,0,0,0,0,0],"sum_hessian":[7.418E3,5.68E2,6.85E3,2.31E2,3.37E2,1.471E3,5.379E3,1.06E2,1.25E2,1.19E2,2.18E2,1.035E3,4.36E2,5.333E3,4.6E1,4.9E1,5.7E1,3.1E1,9.4E1,6E1,5.9E1,8.9E1,1.29E2,3.33E2,7.02E2,3.12E2,1.24E2,3.007E3,2.326E3,3.2E1,1.4E1],"tree_param":{"num_deleted":"0","num_feature":"14","num_nodes":"31","size_leaf_vector":"1"}},{"base_weights":[8.04452E-3,3.688363E-1,-2.8441833E-2,6.2671727E-1,-2.3197953E-3,4.7236197E-2,-4.9431097E-2,2.7661407E-1,1.1000935E0,-4.6715837E-2,7.880844E-1,1.21668994E-1,-4.471545E-2,-4.6008177E-2,-4.0001592E-1,2.0883081E-2,-9.933341E-3,3.852057E-3,7.11078E-2,6.2253936E-3,-7.100548E-3,9.3657695E-2,-7.171172E-3,-6.0336053E-4,1.069582E-2,4.2990264E-3,-4.160938E-3,-1.5846996E-3,-3.2268122E-3,-2.7422665E-2,-3.5439653E-3],"categories":[0,1,2,3,5,6,7,8,9,10,11,12,13,14,15,16,17,18,19,21,22,23,24,25,26,27,28,29,31,32,33,34,36,37,38,39,40,41,42,43,44,45,46,47,48,49,50,51,52,53,54,55,56,57,59,61,62,63,64,65,66,67,68,69,70,71,72,73,74,75,76,77,78,79,80,81,82,83,84,85,86,87,88,89,90,91,93,94,95,96,97,98,99,100,101,102,103,105,106,107,108,109,110,111,112,114,116,117,118,119,120,123,124,125,127,128,129,130,131,132,133,134,135,136,137,138,139,140,141,142,143,144,145,146,147,148,149,150,151,152,153,154,155,156,157,158,159,161,162,163,164,165,166,167,169,170,171,172,173,174,175,176,177,178,179,180,181,182,183,184,185,186,187,189,190,191,192,194,195,197,0,1,2,3,5,7,9,10,12,13,14,15,16,18,21,22,24,25,26,29,31,32,33,34,36,37,38,39,41,42,43,44,46,49,50,51,52,53,54,55,56,57,61,63,65,66,68,69,70,71,73,74,75,76,78,79,80,82,84,85,86,87,88,89,90,91,94,96,97,98,99,100,101,102,103,105,107,108,109,110,111,112,114,116,119,120,123,124,125,128,129,132,133,134,135,136,137,139,140,141,142,143,144,145,146,147,149,150,151,152,153,154,155,156,157,159,161,162,163,164,166,167,169,170,171,173,174,175,176,177,178,179,180,182,183,185,186,189,190,191,197,115,121,160,168,188,4,30,58,60,104,113,115,121,168,188,193,196,6,11,23,27,28,45,47,48,59,62,67,72,77,81,83,95,106,117,118,130,131,138,148,158,165,181,184,192,194,195,1,3,7,15,18,21,22,24,25,26,31,39,42,44,46,51,56,57,65,66,68,69,70,71,76,80,84,88,89,91,100,103,105,107,108,109,112,124,128,129,132,133,134,136,141,143,144,150,156,157,159,162,163,167,169,175,176,178,182,185,186,191,197],"categories_nodes":[0,2,7,9,12,13],"categories_segments":[0,180,321,326,338,368],"categories_sizes":[180,141,5,12,30,63],"default_left":[0,0,0,0,0,0,0,1,0,1,0,0,1,1,0,0,0,0,0,0,0,0,0,0,0,0,0,0,0,0,0],"id":17,"left_children":[1,3,5,7,9,11,13,15,17,19,21,23,25,27,29,-1,-1,-1,-1,-1,-1,-1,-1,-1,-1,-1,-1,-1,-1,-1,-1],"loss_changes":[9.789783E1,6.537418E1,1.0730565E1,6.648511E1,9.897335E0,1.0045908E1,6.327323E0,1.5702641E1,5.623268E1,4.374263E0,1.5429915E1,1.0007741E1,3.3133287E0,1.387146E0,2.4527903E0,0E0,0E0,0E0,0E0,0E0,0E0,0E0,0E0,0E0,0E0,0E0,0E0,0E0,0E0,0E0,0E0],"parents":[2147483647,0,0,1,1,2,2,3,3,4,4,5,5,6,6,7,7,8,8,9,9,10,10,11,11,12,12,13,13,14,14],"right_children":[2,4,6,8,10,12,14,16,18,20,22,24,26,28,30,-1,-1,-1,-1,-1,-1,-1,-1,-1,-1,-1,-1,-1,-1,-1,-1],"split_conditions":[1E-45,4E0,1E-45,5.849057E-1,1.6451613E0,4E0,5.645161E-1,1E-45,1E0,1E-45,5E0,9.677419E-2,1E-45,1E-45,5E0,2.0883081E-2,-9.933341E-3,3.852057E-3,7.11078E-2,6.2253936E-3,-7.100548E-3,9.3657695E-2,-7.171172E-3,-6.0336053E-4,1.069582E-2,4.2990264E-3,-4.160938E-3,-1.5846996E-3,-3.2268122E-3,-2.7422665E-2,-3.5439653E-3],"split_indices":[0,5,0,13,13,5,13,0,5,0,5,13,0,0,5,0,0,0,0,0,0,0,0,0,0,0,0,0,0,0,0],"split_type":[1,0,1,0,0,0,0,1,0,1,0,0,1,1,0,0,0,0,0,0,0,0,0,0,0,0,0,0,0,0,0],"sum_hessian":[7.435E3,6.82E2,6.753E3,4.02E2,2.8E2,1.466E3,5.287E3,2.32E2,1.7E2,2.66E2,1.4E1,8.1E2,6.56E2,5.237E3,5E1,1.79E2,5.3E1,4.1E1,1.29E2,9.5E1,1.71E2,6E0,8E0,3.31E2,4.79E2,1.49E2,5.07E2,2.956E3,2.281E3,3.4E1,1.6E1],"tree_param":{"num_deleted":"0","num_feature":"14","num_nodes":"31","size_leaf_vector":"1"}},{"base_weights":[1.1507572E-2,-2.589873E-2,5.1809216E-1,1.03283666E-1,-4.440317E-2,9.119336E-1,4.1952044E-2,2.1304834E-1,-3.545351E-2,-3.2077786E-2,-8.323019E-2,1.7947901E0,6.920563E-1,4.7083893E-1,-1.06934614E-1,2.009417E-3,1.894307E-2,1.763951E-2,-3.0938012E-3,-2.3464365E-3,-4.8821498E-4,-3.562045E-3,-7.0161275E-3,3.1656268E-1,7.547638E-2,3.890073E-2,-2.5044454E-2,8.985158E-2,-6.3051465E-3,-1.1402652E-2,-1.5196725E-3],"categories":[0,1,2,3,4,5,6,7,8,9,10,12,13,14,15,16,18,19,21,22,24,25,26,28,29,31,32,33,34,36,37,38,39,40,41,42,43,44,45,46,47,48,49,50,51,52,53,54,55,56,57,61,63,64,65,66,67,68,69,70,71,73,74,75,76,77,78,79,80,81,82,84,87,88,89,90,91,93,94,95,96,97,98,99,100,101,102,103,105,106,108,109,110,111,112,113,114,115,116,117,119,120,121,123,124,125,126,127,128,129,130,131,132,133,134,135,136,137,139,140,141,142,143,144,146,147,148,149,150,151,152,153,154,155,156,157,158,159,162,163,164,165,166,167,168,169,170,171,173,174,175,176,177,178,179,180,181,182,183,184,185,186,187,188,189,190,191,192,194,195,196,197,6,8,10,18,22,24,28,31,37,38,41,45,46,47,48,49,53,67,69,82,89,90,94,99,103,106,111,112,114,115,119,121,128,133,147,149,167,168,169,181,184,185,186,188,190,0,1,2,3,5,6,7,8,9,10,11,12,13,14,15,16,17,18,19,20,21,22,23,24,25,26,27,28,29,31,32,33,34,35,36,37,38,39,40,41,42,43,44,45,46,47,48,49,50,51,52,53,54,55,56,57,58,59,60,61,62,63,64,65,66,67,68,69,70,71,72,73,74,75,76,77,78,79,80,81,82,83,84,85,86,87,88,89,90,91,92,93,94,95,96,97,98,99,100,101,102,103,104,105,106,107,108,109,110,111,112,113,114,115,116,117,118,119,120,121,122,123,124,125,126,127,128,129,130,131,132,133,134,135,136,137,138,139,140,141,142,143,144,145,146,147,148,149,150,151,152,153,154,155,156,157,158,159,160,161,162,163,164,165,166,167,170,171,172,173,174,175,176,177,178,179,180,181,182,183,184,185,186,187,188,189,190,191,192,193,194,195,196,197,0,1,2,3,4,5,7,8,9,10,11,12,13,14,15,16,17,18,19,20,21,22,23,24,25,26,27,28,29,30,31,32,33,34,35,36,37,38,39,40,41,42,43,44,45,46,47,48,49,50,51,52,53,54,55,56,57,58,59,61,62,63,64,65,66,67,68,69,70,71,72,73,74,75,76,77,78,79,80,81,82,83,84,85,86,87,88,89,90,91,92,93,94,95,96,97,98,99,100,101,102,103,104,105,106,107,108,109,110,111,112,113,114,115,116,117,118,119,120,121,123,124,125,126,127,128,129,130,131,132,133,134,135,136,137,138,139,140,141,142,143,144,145,146,147,148,149,150,151,152,153,154,155,156,157,158,159,160,161,162,163,164,165,166,167,168,169,170,171,172,173,174,175,176,177,178,179,180,181,182,183,184,185,186,187,188,189,190,191,192,193,195,197,0,1,2,3,4,5,6,7,8,9,10,11,12,13,14,15,16,17,18,19,20,21,22,23,24,25,26,27,28,29,30,31,32,33,34,35,36,37,38,39,40,41,42,43,44,45,46,47,48,49,50,51,52,53,54,55,56,57,58,59,60,61,62,63,64,65,66,67,68,69,70,71,72,73,74,75,76,77,78,79,80,81,82,83,84,85,87,88,89,90,91,92,93,94,95,96,97,98,99,100,101,102,103,104,105,106,107,108,109,110,111,112,113,114,115,116,117,118,119,120,121,123,124,125,126,127,128,129,130,131,132,133,134,135,136,137,138,139,140,141,142,143,144,145,146,147,148,149,150,151,152,153,154,155,156,157,158,159,160,161,162,163,164,165,166,167,168,169,170,171,172,173,174,175,176,177,178,179,180,181,182,183,184,185,186,187,188,189,190,191,192,193,194,195,196,197,22,45,47,48,106,115,121,168,169,184,188],"categories_nodes":[1,4,5,6,8,10],"categories_segments":[0,172,217,411,604,800],"categories_sizes":[172,45,194,193,196,11],"default_left":[0,0,0,0,1,0,0,0,0,0,1,0,0,0,0,0,0,0,0,0,0,0,0,0,0,0,0,0,0,0,0],"id":18,"left_children":[1,3,5,7,9,11,13,15,17,19,21,23,25,27,29,-1,-1,-1,-1,-1,-1,-1,-1,-1,-1,-1,-1,-1,-1,-1,-1],"loss_changes":[1.4302496E2,1.6807045E1,9.7286545E1,1.342381E1,2.9399824E0,5.3888016E1,1.51202545E1,1.4086693E1,4.022595E0,1.5467377E0,1.0037432E0,6.2911453E1,2.3872162E1,4.8517868E1,1.6246848E0,0E0,0E0,0E0,0E0,0E0,0E0,0E0,0E0,0E0,0E0,0E0,0E0,0E0,0E0,0E0,0E0],"parents":[2147483647,0,0,1,1,2,2,3,3,4,4,5,5,6,6,7,7,8,8,9,9,10,10,11,11,12,12,13,13,14,14],"right_children":[2,4,6,8,10,12,14,16,18,20,22,24,26,28,30,-1,-1,-1,-1,-1,-1,-1,-1,-1,-1,-1,-1,-1,-1,-1,-1],"split_conditions":[5.483871E-1,1E-45,4E0,4E0,1E-45,1E-45,1E-45,2.0967741E-1,1E-45,3.773585E-2,1E-45,5E0,2.9E1,5E0,1.3E1,2.009417E-3,1.894307E-2,1.763951E-2,-3.0938012E-3,-2.3464365E-3,-4.8821498E-4,-3.562045E-3,-7.0161275E-3,3.1656268E-1,7.547638E-2,3.890073E-2,-2.5044454E-2,8.985158E-2,-6.3051465E-3,-1.1402652E-2,-1.5196725E-3],"split_indices":[13,0,5,5,0,0,0,13,0,13,0,4,4,5,4,0,0,0,0,0,0,0,0,0,0,0,0,0,0,0,0],"split_type":[0,1,0,0,1,1,1,0,1,0,1,0,0,0,0,0,0,0,0,0,0,0,0,0,0,0,0,0,0,0,0],"sum_hessian":[7.546E3,7.028E3,5.18E2,8.8E2,6.148E3,2.83E2,2.35E2,4.91E2,3.89E2,4.668E3,1.48E3,5.5E1,2.28E2,6E1,1.75E2,2.41E2,2.5E2,2.4E1,3.65E2,2.802E3,1.866E3,1.225E3,2.55E2,2E0,5.3E1,2.13E2,1.5E1,1.8E1,4.2E1,6.7E1,1.08E2],"tree_param":{"num_deleted":"0","num_feature":"14","num_nodes":"31","size_leaf_vector":"1"}},{"base_weights":[1.551631E-3,-2.8590204E-2,2.337367E-1,-4.045771E-2,1.1539475E-2,3.6467597E-1,-9.402936E-2,-5.3188775E-2,-2.7066441E-2,4.222349E-2,-6.159255E-2,7.0427346E-1,2.524006E-1,-8.324004E-2,-1.718929E-1,-2.4995732E-3,-5.6500924E-3,-6.7248376E-4,-2.938922E-3,2.8894166E-3,-2.49139E-4,-2.8957266E-3,-3.6657068E-3,6.387949E-2,1.4756339E-2,7.056718E-3,3.624713E-2,-3.8747832E-3,-5.4205437E-3,-8.989806E-3,-3.877441E-3],"categories":[],"categories_nodes":[],"categories_segments":[],"categories_sizes":[],"default_left":[0,0,0,0,0,0,0,0,0,0,0,0,0,0,0,0,0,0,0,0,0,0,0,0,0,0,0,0,0,0,0],"id":19,"left_children":[1,3,5,7,9,11,13,15,17,19,21,23,25,27,29,-1,-1,-1,-1,-1,-1,-1,-1,-1,-1,-1,-1,-1,-1,-1,-1],"loss_changes":[5.2320347E1,3.151742E0,3.6900375E1,8.6922836E-1,3.3932605E0,2.32331E1,1.9235516E-1,4.948287E-1,1.0748602E0,7.828053E-1,1.5025139E-2,3.5277664E1,2.4241287E1,2.311933E-2,7.6800585E-3,0E0,0E0,0E0,0E0,0E0,0E0,0E0,0E0,0E0,0E0,0E0,0E0,0E0,0E0,0E0,0E0],"parents":[2147483647,0,0,1,1,2,2,3,3,4,4,5,5,6,6,7,7,8,8,9,9,10,10,11,11,12,12,13,13,14,14],"right_children":[2,4,6,8,10,12,14,16,18,20,22,24,26,28,30,-1,-1,-1,-1,-1,-1,-1,-1,-1,-1,-1,-1,-1,-1,-1,-1],"split_conditions":[3.2258064E-1,9.677419E-2,5E0,3.2258064E-2,5E0,3.0714285E-1,1.4150944E0,1.7380953E-1,5E0,2.1428572E-1,2.2580644E-1,2E0,1.3548387E0,6.792453E-1,5.2E1,-2.4995732E-3,-5.6500924E-3,-6.7248376E-4,-2.938922E-3,2.8894166E-3,-2.49139E-4,-2.8957266E-3,-3.6657068E-3,6.387949E-2,1.4756339E-2,7.056718E-3,3.624713E-2,-3.8747832E-3,-5.4205437E-3,-8.989806E-3,-3.877441E-3],"split_indices":[13,13,5,13,5,12,13,12,5,12,13,5,13,13,6,0,0,0,0,0,0,0,0,0,0,0,0,0,0,0,0],"split_type":[0,0,0,0,0,0,0,0,0,0,0,0,0,0,0,0,0,0,0,0,0,0,0,0,0,0,0,0,0,0,0],"sum_hessian":[7.474E3,6.616E3,8.58E2,5.106E3,1.51E3,6.13E2,2.45E2,2.616E3,2.49E3,1.064E3,4.46E2,1.51E2,4.62E2,2.17E2,2.8E1,2.485E3,1.31E2,1.743E3,7.47E2,8E2,2.64E2,3.44E2,1.02E2,6.2E1,8.9E1,3.75E2,8.7E1,1.8E2,3.7E1,2.5E1,3E0],"tree_param":{"num_deleted":"0","num_feature":"14","num_nodes":"31","size_leaf_vector":"1"}},{"base_weights":[-6.864219E-3,-1.0947761E-2,2.3366745E0,2.8166255E-1,-3.4145027E-2,4.292174E0,4.7364745E-2,4.2981663E-1,-8.029744E-2,-2.6459383E-2,-2.7810264E-1,8.706658E-1,3.320319E-1,3.579647E-2,-3.6324698E-1,-5.846739E-3,2.7931554E-2,-3.345017E-3,-6.589759E-3,2.2742774E-3,-1.9424104E-3,-2.3519894E-2,-7.853979E-3,1.564482E-1,-4.625441E-2,-2.5927672E-2,-9.739101E-3],"categories":[0,1,2,3,4,5,7,8,9,10,11,12,13,14,15,16,17,18,19,20,21,22,23,24,25,26,27,28,29,30,31,32,33,34,35,36,37,38,39,40,41,42,43,44,45,46,47,48,49,50,51,52,53,54,55,56,57,59,61,62,63,64,65,66,67,68,69,70,71,72,73,74,75,76,77,78,79,80,81,82,83,84,85,86,87,88,89,90,91,92,93,94,95,96,97,98,99,100,101,102,103,105,106,107,108,109,110,111,112,114,115,116,117,118,119,120,123,124,125,126,127,128,129,130,131,132,133,134,135,136,137,138,139,140,141,142,143,144,145,146,147,148,149,150,151,152,153,154,155,156,157,158,159,161,162,163,164,165,166,167,168,170,171,173,174,175,176,177,178,179,180,181,182,183,184,185,186,187,189,190,191,192,195,197,4,22,30,47,115,168,0,1,2,3,4,5,6,7,8,9,10,11,12,14,15,16,18,20,21,22,23,24,26,28,29,30,31,32,33,34,35,36,37,38,39,40,41,42,43,44,45,46,47,49,50,51,53,54,55,56,57,58,60,61,63,65,66,67,68,69,70,71,73,74,75,76,77,78,79,80,81,82,83,84,85,86,87,88,89,90,91,93,94,97,99,100,101,102,103,104,105,108,109,110,111,112,113,114,115,116,117,118,119,120,121,122,123,124,125,128,129,132,133,134,135,136,137,139,140,141,142,143,144,146,147,149,150,151,152,153,154,155,156,157,158,159,160,162,163,164,165,166,167,168,169,170,171,172,173,174,175,176,177,178,179,180,182,183,185,186,187,188,189,190,191,192,193,194,195,196,197],"categories_nodes":[1,4,9],"categories_segments":[0,184,190],"categories_sizes":[184,6,171],"default_left":[0,0,0,0,1,0,0,0,0,0,0,0,0,0,0,0,0,0,0,0,0,0,0,0,0,0,0],"id":20,"left_children":[1,3,5,7,9,11,13,15,17,19,21,23,-1,-1,25,-1,-1,-1,-1,-1,-1,-1,-1,-1,-1,-1,-1],"loss_changes":[7.15226E1,5.0639515E1,5.7994354E1,2.9421482E1,1.2952446E1,5.0465256E1,2.1817029E0,2.7462387E1,1.0157013E-1,5.975347E0,4.8365364E0,1.911596E1,0E0,0E0,2.9813588E-2,0E0,0E0,0E0,0E0,0E0,0E0,0E0,0E0,0E0,0E0,0E0,0E0],"parents":[2147483647,0,0,1,1,2,2,3,3,4,4,5,5,6,6,7,7,8,8,9,9,10,10,11,11,14,14],"right_children":[2,4,6,8,10,12,14,16,18,20,22,24,-1,-1,26,-1,-1,-1,-1,-1,-1,-1,-1,-1,-1,-1,-1],"split_conditions":[1.8113208E0,1E-45,3E0,5E0,1E-45,2E0,4E0,3.2258064E-1,6.792453E-1,1E-45,3E0,1E0,3.320319E-1,3.579647E-2,5E0,-5.846739E-3,2.7931554E-2,-3.345017E-3,-6.589759E-3,2.2742774E-3,-1.9424104E-3,-2.3519894E-2,-7.853979E-3,1.564482E-1,-4.625441E-2,-2.5927672E-2,-9.739101E-3],"split_indices":[13,0,5,5,0,5,5,13,13,0,5,5,0,0,5,0,0,0,0,0,0,0,0,0,0,0,0],"split_type":[0,1,0,0,1,0,0,0,0,1,0,0,0,0,0,0,0,0,0,0,0,0,0,0,0,0,0],"sum_hessian":[7.47E3,7.458E3,1.2E1,5.47E2,6.911E3,6E0,6E0,3.88E2,1.59E2,6.701E3,2.1E2,3E0,3E0,2E0,4E0,7.4E1,3.14E2,1.28E2,3.1E1,9.84E2,5.717E3,8E1,1.3E2,1E0,2E0,1E0,3E0],"tree_param":{"num_deleted":"0","num_feature":"14","num_nodes":"27","size_leaf_vector":"1"}},{"base_weights":[-4.447069E-3,-2.1840924E-2,4.0897098E-1,-4.2038716E-2,4.308064E-3,6.1433315E-1,-1.1267598E-1,-3.940768E-2,-1.0067354E-1,3.1611543E-2,-6.050223E-2,2.4094994E0,4.8934937E-1,-1.565554E-1,-8.013107E-2,-2.3321647E-3,-1.5558709E-3,-6.196761E-3,-1.9164259E-3,1.0341683E-2,7.0021854E-4,-2.7777357E-3,-3.6619573E-3,2.6388505E-1,-2.0068211E-2,8.641568E-3,4.1484945E-2,-4.9603074E-3,-8.469892E-3,-3.3079155E-3,-7.4355737E-3],"categories":[0,1,2,3,4,5,6,7,8,9,11,12,13,15,16,17,18,19,20,2],"categories_nodes":[9,14],"categories_segments":[0,19],"categories_sizes":[19,1],"default_left":[0,0,0,0,0,0,0,0,0,1,0,0,0,0,1,0,0,0,0,0,0,0,0,0,0,0,0,0,0,0,0],"id":21,"left_children":[1,3,5,7,9,11,13,15,17,19,21,23,25,27,29,-1,-1,-1,-1,-1,-1,-1,-1,-1,-1,-1,-1,-1,-1,-1,-1],"loss_changes":[5.4322056E1,3.8287535E0,3.274282E1,6.269984E-1,5.59368E0,4.79572E1,1.1169553E-1,2.3345041E-1,2.4904358E-1,6.8585134E0,5.497718E-2,1.1498801E2,2.204831E1,9.708881E-3,3.9990902E-2,0E0,0E0,0E0,0E0,0E0,0E0,0E0,0E0,0E0,0E0,0E0,0E0,0E0,0E0,0E0,0E0],"parents":[2147483647,0,0,1,1,2,2,3,3,4,4,5,5,6,6,7,7,8,8,9,9,10,10,11,11,12,12,13,13,14,14],"right_children":[2,4,6,8,10,12,14,16,18,20,22,24,26,28,30,-1,-1,-1,-1,-1,-1,-1,-1,-1,-1,-1,-1,-1,-1,-1,-1],"split_conditions":[6.7741936E-1,5.6603774E-2,1E0,1.7380953E-1,1E0,5E0,2.02312E5,1.8867925E-2,1E0,1E-45,2.580645E-1,9.354839E-1,9.811321E-1,7.258065E-1,1E-45,-2.3321647E-3,-1.5558709E-3,-6.196761E-3,-1.9164259E-3,1.0341683E-2,7.0021854E-4,-2.7777357E-3,-3.6619573E-3,2.6388505E-1,-2.0068211E-2,8.641568E-3,4.1484945E-2,-4.9603074E-3,-8.469892E-3,-3.3079155E-3,-7.4355737E-3],"split_indices":[13,13,7,12,7,4,9,13,7,1,13,13,13,13,1,0,0,0,0,0,0,0,0,0,0,0,0,0,0,0,0],"split_type":[0,0,0,0,0,0,0,0,0,1,0,0,0,0,1,0,0,0,0,0,0,0,0,0,0,0,0,0,0,0,0],"sum_hessian":[7.552E3,7.248E3,3.04E2,4.089E3,3.159E3,2.18E2,8.6E1,3.915E3,1.74E2,2.223E3,9.36E2,1.3E1,2.05E2,3.5E1,5.1E1,2.088E3,1.827E3,1.26E2,4.8E1,2.02E2,2.021E3,6.78E2,2.58E2,6E0,7E0,1.07E2,9.8E1,8E0,2.7E1,4.4E1,7E0],"tree_param":{"num_deleted":"0","num_feature":"14","num_nodes":"31","size_leaf_vector":"1"}},{"base_weights":[2.3002932E-3,-1.626808E-2,3.2281476E-1,-3.602687E-2,4.034591E-2,6.000592E-1,9.588496E-5,-4.7298416E-2,-2.5009787E-2,1.0500839E-1,-4.206047E-2,1.6296955E0,4.7742438E-1,5.548535E-1,-7.963034E-2,-2.2142897E-3,-3.059962E-3,-6.789443E-4,-2.601872E-3,9.736471E-3,-7.497542E-4,8.789124E-3,-2.7300294E-3,1.8318497E-1,-2.700582E-2,1.4916304E-2,4.4715572E-2,9.547799E-2,-5.7646856E-3,2.1914328E-2,-5.770515E-3],"categories":[0,1,2,3,4,5,6,7,8,10,11,12,13,14,16,17,18,19,20,21,0,1,2,3,4,5,6,7,8,9,10,11,12,13,14,15,16,17,18,19,4,7,12,13,15,0,1,2,3,4,5,9,10,11,13,15,16,18,19,0,1,2,3,4,5,6,7,8,9,10,11,14,15,16,17,18,20,21],"categories_nodes":[5,6,7,9,10],"categories_segments":[0,20,40,45,59],"categories_sizes":[20,20,5,14,19],"default_left":[0,0,0,0,0,1,1,1,0,1,1,0,0,0,0,0,0,0,0,0,0,0,0,0,0,0,0,0,0,0,0],"id":22,"left_children":[1,3,5,7,9,11,13,15,17,19,21,23,25,27,29,-1,-1,-1,-1,-1,-1,-1,-1,-1,-1,-1,-1,-1,-1,-1,-1],"loss_changes":[4.4450546E1,7.898937E0,3.659399E1,6.4877367E-1,9.73977E0,2.700119E1,8.447642E0,1.0558605E-1,8.177029E-1,1.102816E1,2.2059455E0,1.0348715E2,1.4516628E1,2.2008621E1,3.1452682E0,0E0,0E0,0E0,0E0,0E0,0E0,0E0,0E0,0E0,0E0,0E0,0E0,0E0,0E0,0E0,0E0],"parents":[2147483647,0,0,1,1,2,2,3,3,4,4,5,5,6,6,7,7,8,8,9,9,10,10,11,11,12,12,13,13,14,14],"right_children":[2,4,6,8,10,12,14,16,18,20,22,24,26,28,30,-1,-1,-1,-1,-1,-1,-1,-1,-1,-1,-1,-1,-1,-1,-1,-1],"split_conditions":[5.967742E-1,1.1290322E-1,4E0,3.2258064E-2,4E0,1E-45,1E-45,1E-45,5E0,1E-45,1E-45,5.1E1,5.1E1,5E0,4.6E1,-2.2142897E-3,-3.059962E-3,-6.789443E-4,-2.601872E-3,9.736471E-3,-7.497542E-4,8.789124E-3,-2.7300294E-3,1.8318497E-1,-2.700582E-2,1.4916304E-2,4.4715572E-2,9.547799E-2,-5.7646856E-3,2.1914328E-2,-5.770515E-3],"split_indices":[13,13,5,13,5,1,1,1,5,1,1,6,6,5,6,0,0,0,0,0,0,0,0,0,0,0,0,0,0,0,0],"split_type":[0,0,0,0,0,1,1,1,0,1,1,0,0,0,0,0,0,0,0,0,0,0,0,0,0,0,0,0,0,0,0],"sum_hessian":[7.467E3,7.059E3,4.08E2,5.233E3,1.826E3,2.19E2,1.89E2,2.585E3,2.648E3,1.023E3,8.03E2,2.2E1,1.97E2,2.3E1,1.66E2,2.128E3,4.57E2,1.862E3,7.86E2,5.85E2,4.38E2,4.3E1,7.6E2,1.1E1,1.1E1,1.39E2,5.8E1,7E0,1.6E1,1E1,1.56E2],"tree_param":{"num_deleted":"0","num_feature":"14","num_nodes":"31","size_leaf_vector":"1"}},{"base_weights":[4.154902E-3,2.847433E-1,-2.4464656E-2,1.3837704E-1,5.577131E-1,-2.1785261E-2,-5.181882E-1,1.9585714E-3,3.68672E-1,7.453378E-1,5.0923392E-2,4.640752E-2,-3.885132E-2,-8.847154E-3,-3.5910472E-2,1.893165E-2,-6.151499E-3,4.0280618E-2,7.3483936E-3,9.9579796E-2,3.2162465E-2,5.9102E-2,-2.1071805E-2,1.8972487E-3,2.1777174E-2,-1.4357748E-3,-3.6346228E-3],"categories":[0,1,2,3,5,7,8,9,10,11,12,13,14,15,16,17,18,19,20,21,23,24,25,26,27,28,29,31,32,33,34,36,37,38,39,40,41,42,43,44,46,47,48,49,50,51,52,53,54,55,56,57,59,61,62,63,64,65,66,67,68,69,70,71,72,73,74,75,76,77,78,79,80,81,82,83,84,85,86,87,88,89,90,91,92,93,94,95,96,97,98,99,100,101,102,103,104,105,106,107,108,109,110,111,112,114,116,117,119,120,122,123,124,125,127,128,129,130,131,132,133,134,135,136,137,138,139,140,141,142,143,144,145,146,147,148,149,150,151,152,153,154,155,156,157,158,159,160,161,162,163,164,165,166,167,168,170,171,173,174,175,176,177,178,179,180,181,182,183,184,185,186,187,189,190,191,192,194,196,197,168,0,1,2,3,4,5,6,7,10,12,14,15,16,18,21,22,23,24,25,26,29,30,31,33,34,35,36,37,38,39,41,42,43,44,45,46,48,49,50,51,52,53,54,55,56,57,58,60,63,65,66,68,69,70,71,73,74,75,76,78,79,80,82,83,84,85,87,88,89,90,91,92,94,95,97,99,100,101,102,103,105,106,108,109,110,111,112,113,114,115,116,117,118,119,120,121,123,124,125,126,127,128,129,132,133,134,135,136,137,139,140,141,142,143,144,146,147,149,150,151,152,153,154,155,156,157,158,159,161,162,163,164,166,167,168,169,170,171,172,173,174,175,176,177,178,179,180,181,182,183,184,185,186,188,189,190,191,192,193,195,196,197,0,1,2,3,4,5,6,7,8,9,10,11,12,13,14,15,16,17,18,19,20,21,22,23,24,25,26,27,28,29,30,31,32,33,34,35,36,37,38,39,40,41,42,43,44,45,46,47,48,49,50,51,52,53,54,55,56,57,59,60,61,62,63,64,65,66,67,68,69,70,71,72,73,74,75,76,77,78,79,80,81,82,83,84,85,86,87,88,89,90,91,92,93,94,95,96,97,98,99,100,101,102,103,104,105,106,107,108,109,110,111,112,113,114,115,116,117,118,119,120,121,122,123,124,125,126,127,128,129,130,131,132,133,134,135,136,137,138,139,140,141,142,143,144,145,146,147,148,149,150,151,152,153,154,155,156,157,158,159,160,161,162,163,164,165,166,167,168,169,170,171,172,173,174,175,176,177,178,179,180,181,182,183,184,185,186,187,188,189,190,191,192,194,196,197,0,1,2,3,4,5,6,7,8,9,10,11,12,13,14,15,16,17,18,19,20,21,22,23,24,25,26,27,28,29,31,32,33,34,35,36,37,38,39,40,41,42,43,44,45,46,47,48,49,50,51,52,53,54,55,56,57,58,59,60,61,62,63,64,65,66,67,68,69,70,71,72,73,74,75,76,77,78,79,80,81,82,83,84,85,86,87,88,89,90,91,92,93,94,95,96,97,98,99,100,101,102,103,104,105,106,107,108,109,110,111,112,113,114,115,116,117,118,119,120,121,122,123,124,125,126,127,128,129,130,131,132,133,134,135,136,137,138,139,140,141,142,143,144,145,146,147,148,149,150,151,152,153,154,155,156,157,158,159,160,161,162,163,164,165,166,167,168,169,170,171,172,173,174,175,176,177,178,179,180,181,182,183,184,185,186,187,188,189,190,191,192,193,194,195,196,197,22,30,115,126,169,15,18,21,24,44,48,53,82,84,85,89,90,94,99,106,112,116,119,123,125,128,143,149,156,161,167,170,184,185,186,189,190,196],"categories_nodes":[0,2,5,7,9,10,12],"categories_segments":[0,180,181,343,538,735,740],"categories_sizes":[180,1,162,195,197,5,33],"default_left":[0,0,1,0,0,0,0,0,0,0,1,0,1,0,0,0,0,0,0,0,0,0,0,0,0,0,0],"id":23,"left_children":[1,3,5,7,9,11,13,15,17,19,21,23,25,-1,-1,-1,-1,-1,-1,-1,-1,-1,-1,-1,-1,-1,-1],"loss_changes":[6.073222E1,2.7890324E1,9.06764E0,1.4356613E1,2.3163094E1,7.9469438E0,2.3984003E0,1.3605621E1,1.634975E1,2.13656E1,3.629583E1,4.485116E0,1.8710775E0,0E0,0E0,0E0,0E0,0E0,0E0,0E0,0E0,0E0,0E0,0E0,0E0,0E0,0E0],"parents":[2147483647,0,0,1,1,2,2,3,3,4,4,5,5,6,6,7,7,8,8,9,9,10,10,11,11,12,12],"right_children":[2,4,6,8,10,12,14,16,18,20,22,24,26,-1,-1,-1,-1,-1,-1,-1,-1,-1,-1,-1,-1,-1,-1],"split_conditions":[1E-45,6.451613E-1,1E-45,5E1,5.1E1,1E-45,4.9E1,1E-45,5.1E1,1E-45,1E-45,6.7741936E-1,1E-45,-8.847154E-3,-3.5910472E-2,1.893165E-2,-6.151499E-3,4.0280618E-2,7.3483936E-3,9.9579796E-2,3.2162465E-2,5.9102E-2,-2.1071805E-2,1.8972487E-3,2.1777174E-2,-1.4357748E-3,-3.6346228E-3],"split_indices":[0,13,0,6,6,0,6,0,6,0,0,13,0,0,0,0,0,0,0,0,0,0,0,0,0,0,0],"split_type":[1,0,1,0,0,1,0,1,0,1,1,0,1,0,0,0,0,0,0,0,0,0,0,0,0,0,0],"sum_hessian":[7.561E3,6.99E2,6.862E3,4.56E2,2.43E2,6.826E3,3.6E1,2.87E2,1.69E2,1.77E2,6.6E1,1.366E3,5.46E3,1.4E1,2.2E1,7.1E1,2.16E2,5.6E1,1.13E2,1.2E1,1.65E2,1.9E1,4.7E1,1.338E3,2.8E1,4.203E3,1.257E3],"tree_param":{"num_deleted":"0","num_feature":"14","num_nodes":"27","size_leaf_vector":"1"}},{"base_weights":[-8.053774E-5,3.17613E-1,-2.4592504E-2,4.6935314E-1,-8.609122E-2,3.8721383E-2,-4.2555407E-2,2.0282693E0,3.8825136E-1,-5.347615E-2,-1.3813579E-1,7.712897E-2,-5.595445E-2,-3.8641457E-2,-4.368397E-1,3.8957265E-1,-2.9327149E-2,2.7523637E-2,-1.1914415E-2,-1.877187E-3,-3.5001847E-3,-4.78975E-3,-9.165306E-3,1.0625418E-2,2.0458687E-3,-2.4862671E-3,-4.0617133E-3,2.170275E-2,-2.02038E-3,-2.9273614E-2,-5.7652867E-3],"categories":[0,1,2,3,5,7,8,9,10,11,12,13,14,15,16,17,18,19,20,21,23,24,25,26,27,28,29,31,32,33,34,36,37,38,39,40,41,42,43,44,45,46,47,48,49,50,51,52,53,54,55,56,57,59,60,61,62,63,64,65,66,67,68,69,70,71,72,73,74,75,76,77,78,79,80,81,82,83,84,85,86,87,88,89,90,91,93,94,95,96,97,98,99,100,101,102,103,104,105,106,107,108,109,110,111,112,113,114,115,116,117,118,119,120,121,122,123,124,125,127,128,129,130,131,132,133,134,135,136,137,138,139,140,141,142,143,144,145,146,147,148,149,150,151,152,153,154,155,156,157,158,159,160,161,162,163,164,165,166,167,170,171,172,173,174,175,176,177,178,179,180,181,182,183,184,185,186,187,189,190,191,192,194,197,1,3,5,7,9,10,14,15,16,17,18,21,24,25,26,29,31,32,33,34,36,37,38,39,40,41,42,43,44,46,48,49,50,51,53,54,55,56,57,63,64,65,66,67,68,69,70,71,73,74,75,77,78,79,80,81,82,83,84,85,88,89,90,91,94,95,96,97,98,99,100,101,102,103,104,105,108,109,110,113,115,116,117,118,119,120,121,122,123,124,125,129,130,132,133,134,135,136,137,138,139,140,141,142,143,144,145,146,147,148,150,151,152,153,155,156,157,158,159,162,163,164,165,166,167,170,171,173,174,175,176,177,178,179,182,183,184,185,186,189,190,191,194,197,4,6,30,126,196,0,1,2,3,4,5,6,7,8,9,10,11,12,13,14,15,16,17,18,19,20,21,23,24,25,26,27,28,29,30,31,32,33,34,35,36,37,38,39,40,41,42,43,44,45,46,47,48,49,50,51,52,53,54,55,56,57,58,59,60,61,62,63,64,65,66,67,68,69,70,71,72,73,74,75,76,77,78,79,80,81,82,83,84,85,86,87,88,89,90,91,92,93,94,95,96,97,98,99,100,101,102,103,104,105,106,107,108,109,110,111,112,113,114,115,116,117,118,119,120,121,122,123,124,125,126,127,128,129,130,131,132,133,134,135,136,137,138,139,140,141,142,143,144,145,146,147,148,149,150,151,152,153,154,155,156,157,158,159,160,161,162,163,164,165,166,167,168,170,171,172,173,174,175,176,177,178,179,180,181,182,183,184,185,186,187,188,189,190,191,192,193,194,196,197,22,169,195,35,92,193,195,20,28,59,60,86,127,160,172,0,1,2,3,4,5,6,7,8,9,10,11,12,13,14,15,16,17,18,19,20,21,22,23,24,25,26,27,28,29,30,31,32,33,34,35,36,37,38,39,40,41,42,43,44,45,46,47,48,49,50,51,52,53,54,55,56,57,58,59,60,61,62,63,64,65,66,67,68,69,70,71,72,73,74,75,76,77,78,79,80,81,82,83,84,85,86,87,88,89,90,91,92,93,94,95,96,97,98,99,100,101,102,103,104,105,106,107,108,109,110,111,112,113,114,115,116,117,118,119,120,121,122,123,124,125,126,127,128,129,130,131,132,133,134,135,136,137,138,139,140,141,142,143,144,145,146,147,148,149,150,151,152,153,154,155,156,157,158,159,160,161,162,163,164,165,166,167,168,169,170,171,172,173,174,175,176,177,178,179,180,181,182,183,184,185,186,187,188,189,190,191,192,193,195,196,197],"categories_nodes":[0,2,4,7,8,9,12,13],"categories_segments":[0,184,328,333,528,531,535,543],"categories_sizes":[184,144,5,195,3,4,8,197],"default_left":[0,0,0,0,1,0,0,0,1,1,0,0,1,0,0,0,0,0,0,0,0,0,0,0,0,0,0,0,0,0,0],"id":24,"left_children":[1,3,5,7,9,11,13,15,17,19,21,23,25,27,29,-1,-1,-1,-1,-1,-1,-1,-1,-1,-1,-1,-1,-1,-1,-1,-1],"loss_changes":[5.816332E1,3.281351E1,7.8876934E0,4.8394127E1,2.4213624E-1,5.5787168E0,8.3195305E0,2.9089328E2,3.7838913E1,2.1597594E-2,8.9542866E-2,5.339719E0,6.57202E-2,4.4839745E0,2.4653845E0,0E0,0E0,0E0,0E0,0E0,0E0,0E0,0E0,0E0,0E0,0E0,0E0,0E0,0E0,0E0,0E0],"parents":[2147483647,0,0,1,1,2,2,3,3,4,4,5,5,6,6,7,7,8,8,9,9,10,10,11,11,12,12,13,13,14,14],"right_children":[2,4,6,8,10,12,14,16,18,20,22,24,26,28,30,-1,-1,-1,-1,-1,-1,-1,-1,-1,-1,-1,-1,-1,-1,-1,-1],"split_conditions":[1E-45,1E0,1E-45,5E0,1E-45,1E0,6.7741936E-1,1E-45,1E-45,1E-45,9.811321E-1,4.7E1,1E-45,1E-45,1E0,3.8957265E-1,-2.9327149E-2,2.7523637E-2,-1.1914415E-2,-1.877187E-3,-3.5001847E-3,-4.78975E-3,-9.165306E-3,1.0625418E-2,2.0458687E-3,-2.4862671E-3,-4.0617133E-3,2.170275E-2,-2.02038E-3,-2.9273614E-2,-5.7652867E-3],"split_indices":[0,7,0,4,0,7,13,0,0,0,13,6,0,0,7,0,0,0,0,0,0,0,0,0,0,0,0,0,0,0,0],"split_type":[1,0,1,0,1,0,0,1,1,1,0,0,1,1,0,0,0,0,0,0,0,0,0,0,0,0,0,0,0,0,0],"sum_hessian":[7.467E3,5.34E2,6.933E3,3.88E2,1.46E2,1.532E3,5.401E3,1.8E1,3.7E2,9.1E1,5.5E1,1.09E3,4.42E2,5.349E3,5.2E1,5E0,1.3E1,2.94E2,7.6E1,4.8E1,4.3E1,3E1,2.5E1,2.29E2,8.61E2,3.57E2,8.5E1,1.9E1,5.33E3,3.5E1,1.7E1],"tree_param":{"num_deleted":"0","num_feature":"14","num_nodes":"31","size_leaf_vector":"1"}},{"base_weights":[1.0611314E-3,-2.1464357E-2,1.3341038E-1,-1.9978426E-2,-2.6873714E-1,3.0396774E-1,-6.973934E-2,-1.885451E-3,-4.2577926E-2,-3.6858633E-1,-9.106267E-2,1.5038673E0,2.614074E-1,-3.8747036E-1,-5.3470246E-2,1.3872224E-3,-1.2308062E-3,-1.9094987E-3,-2.9199133E-3,-1.0175651E-2,-2.5835011E-2,-8.142001E-3,-2.507909E-3,-2.7813409E-2,2.331802E-1,1.122185E-2,6.343602E-2,-1.233278E-2,-2.973777E-2,5.053832E-3,-3.961162E-3],"categories":[],"categories_nodes":[],"categories_segments":[],"categories_sizes":[],"default_left":[0,0,0,0,0,0,0,0,0,0,0,0,0,0,0,0,0,0,0,0,0,0,0,0,0,0,0,0,0,0,0],"id":25,"left_children":[1,3,5,7,9,11,13,15,17,19,21,23,25,27,29,-1,-1,-1,-1,-1,-1,-1,-1,-1,-1,-1,-1,-1,-1,-1,-1],"loss_changes":[2.2239868E1,2.3369992E0,3.761502E1,2.5914783E0,6.405802E-1,2.9737083E1,2.543204E0,2.372103E0,1.933918E-1,4.8163605E-1,3.5872497E-2,1.3278392E2,2.0979729E1,5.5383134E-1,1.8905692E0,0E0,0E0,0E0,0E0,0E0,0E0,0E0,0E0,0E0,0E0,0E0,0E0,0E0,0E0,0E0,0E0],"parents":[2147483647,0,0,1,1,2,2,3,3,4,4,5,5,6,6,7,7,8,8,9,9,10,10,11,11,12,12,13,13,14,14],"right_children":[2,4,6,8,10,12,14,16,18,20,22,24,26,28,30,-1,-1,-1,-1,-1,-1,-1,-1,-1,-1,-1,-1,-1,-1,-1,-1],"split_conditions":[2.8333333E-1,2.6904762E-1,4E0,4E0,4E0,5E0,2E0,1.6E1,1.0714286E-1,4.9E1,5E0,5.5E-1,1.55E0,5.285714E-1,4.6E1,1.3872224E-3,-1.2308062E-3,-1.9094987E-3,-2.9199133E-3,-1.0175651E-2,-2.5835011E-2,-8.142001E-3,-2.507909E-3,-2.7813409E-2,2.331802E-1,1.122185E-2,6.343602E-2,-1.233278E-2,-2.973777E-2,5.053832E-3,-3.961162E-3],"split_indices":[12,12,5,5,5,4,4,4,12,6,5,12,12,12,6,0,0,0,0,0,0,0,0,0,0,0,0,0,0,0,0],"split_type":[0,0,0,0,0,0,0,0,0,0,0,0,0,0,0,0,0,0,0,0,0,0,0,0,0,0,0,0,0,0,0],"sum_hessian":[7.458E3,6.374E3,1.084E3,6.337E3,3.7E1,5.89E2,4.95E2,3.52E3,2.817E3,2.3E1,1.4E1,1.9E1,5.7E2,2.3E1,4.72E2,1.528E3,1.992E3,2.208E3,6.09E2,1.2E1,1.1E1,4E0,1E1,1.2E1,7E0,5.51E2,1.9E1,1.5E1,8E0,6.7E1,4.05E2],"tree_param":{"num_deleted":"0","num_feature":"14","num_nodes":"31","size_leaf_vector":"1"}},{"base_weights":[6.4170286E-3,3.3939615E-1,-2.090576E-2,4.6909508E-1,-1.0636743E-2,4.9435057E-2,-3.8157072E-2,8.1434643E-1,2.452863E-1,1.0008944E0,-1.7787771E-1,-8.529549E-2,6.1958615E-2,-3.335871E-2,-2.1901989E-1,3.3704657E-2,6.926425E-2,1.6176859E-2,-1.090795E-2,1.01537205E-1,-2.1899983E-2,2.5186182E-3,-2.0517467E-2,1.6740903E-2,-6.404375E-3,5.4597366E-3,1.6369494E-3,-1.0478675E-3,-2.4473153E-3,-7.3239617E-3,-1.4328643E-2],"categories":[0,1,2,3,5,6,7,8,9,10,11,12,13,14,15,16,17,18,19,20,21,23,24,25,26,27,28,29,31,32,33,34,35,36,37,38,39,40,41,42,43,44,45,46,47,48,49,50,51,52,53,54,55,56,57,59,61,63,64,65,66,67,68,69,70,71,72,73,74,75,76,77,78,79,80,81,82,83,84,85,86,87,88,89,90,91,92,93,94,95,96,97,98,99,100,101,102,103,104,105,106,107,108,109,110,111,112,114,115,116,117,118,119,120,121,123,124,125,126,127,128,129,130,131,132,133,134,135,136,137,138,139,140,141,142,143,144,145,146,147,148,149,150,151,152,153,154,155,156,157,158,159,161,162,163,164,165,166,167,168,170,171,172,173,174,175,176,177,178,179,180,181,182,183,184,185,186,187,189,190,191,192,197,0,1,3,4,5,7,9,10,11,12,14,15,16,17,18,20,21,22,23,24,25,26,28,29,30,31,33,34,35,36,37,38,39,40,41,42,43,44,46,49,50,51,52,54,55,56,57,58,60,61,62,63,64,65,66,68,69,70,71,74,75,78,79,80,81,82,84,85,86,87,88,89,90,91,92,94,95,96,97,98,99,100,101,102,103,105,107,108,109,110,111,113,115,116,117,118,119,120,121,122,123,124,125,128,129,131,132,133,134,135,136,137,139,140,141,142,143,144,146,148,149,150,151,152,153,154,156,157,158,159,160,162,163,164,166,167,169,170,171,172,173,174,175,176,177,178,179,180,182,183,185,186,188,189,190,191,192,193,194,195,196,197,0,1,2,3,5,6,7,8,9,10,11,12,13,14,15,16,17,18,19,20,21,22,23,24,25,26,27,28,29,31,32,33,34,35,36,37,38,39,40,41,42,43,44,45,46,47,48,49,50,51,52,53,54,55,56,57,58,59,61,62,63,64,65,66,67,68,69,70,71,72,73,74,75,76,77,78,79,80,81,82,83,84,85,86,87,88,89,90,91,92,93,94,95,96,97,98,99,100,101,102,103,104,105,106,107,108,109,110,111,112,114,115,116,117,118,119,120,121,122,123,124,125,126,127,128,129,130,131,132,133,134,135,136,137,138,139,140,141,142,143,144,145,146,147,148,149,150,151,152,153,154,155,156,157,158,159,160,161,162,163,164,165,166,167,168,169,170,171,172,173,174,175,176,177,178,179,180,181,182,183,184,185,186,187,188,189,190,191,192,193,195,197,0,1,2,3,4,5,6,7,8,9,10,11,12,13,14,15,16,17,18,19,20,21,22,23,24,25,26,27,28,29,30,31,32,33,34,35,36,37,38,39,40,41,42,43,44,45,46,47,48,49,50,51,52,53,54,55,56,57,58,59,60,61,62,63,64,65,66,67,68,69,70,71,72,73,74,75,76,77,78,79,80,81,82,83,84,85,86,87,88,89,90,91,92,93,94,95,96,97,98,99,100,101,102,103,104,105,106,107,108,109,110,111,112,113,114,115,116,117,118,119,120,121,123,124,125,126,127,128,129,130,131,132,133,134,135,136,137,138,139,140,141,142,143,144,145,146,147,148,149,150,151,152,153,154,155,156,157,158,159,160,161,162,163,164,165,166,167,168,169,170,171,172,173,174,175,176,177,178,179,180,181,182,183,184,185,186,187,189,190,191,192,193,194,195,196,197,28,92,115,172,22,30,58,169,194,195,196,2,6,8,13,27,32,45,47,48,53,59,67,72,73,76,77,93,104,106,112,114,126,127,130,138,145,147,155,165,168,181,184,187,0,1,2,3,4,5,7,8,9,10,11,12,13,14,15,16,17,18,19,20,21,22,23,24,25,26,28,29,30,31,32,33,34,35,36,37,38,39,40,41,42,43,44,46,47,49,50,51,52,53,54,55,56,57,58,60,61,62,63,64,65,66,68,69,70,71,73,74,75,76,77,78,79,80,81,82,83,84,85,86,87,88,89,90,91,92,93,94,95,96,97,98,99,100,101,102,103,105,107,108,109,110,111,112,113,114,115,116,117,118,119,120,121,122,123,124,125,127,128,129,131,132,133,134,135,136,137,139,140,141,142,143,144,146,147,148,149,150,151,152,153,154,155,156,157,158,159,160,161,162,163,164,165,166,167,168,169,170,171,172,173,174,175,176,177,178,179,180,181,182,183,185,186,187,188,189,190,191,192,193,194,195,196,197,7,9,11,12,14,16,17,18,24,25,31,37,40,42,43,44,46,49,52,54,61,63,69,70,71,80,81,85,86,87,89,94,97,100,103,111,118,120,121,123,124,128,129,131,132,135,136,137,140,141,148,157,159,162,163,167,173,176,177,182,185,186,197,115,172],"categories_nodes":[0,2,3,4,6,10,11,12,13,14],"categories_segments":[0,183,345,537,733,737,744,777,961,1024],"categories_sizes":[183,162,192,196,4,7,33,184,63,2],"default_left":[0,0,0,0,0,0,1,0,0,0,1,1,0,1,1,0,0,0,0,0,0,0,0,0,0,0,0,0,0,0,0],"id":26,"left_children":[1,3,5,7,9,11,13,15,17,19,21,23,25,27,29,-1,-1,-1,-1,-1,-1,-1,-1,-1,-1,-1,-1,-1,-1,-1,-1],"loss_changes":[6.7904854E1,2.5700768E1,8.372412E0,3.171289E1,2.623013E1,2.2983332E0,4.8005533E0,1.2038513E1,9.209362E0,3.349005E1,7.077871E0,2.1282766E0,1.7134213E0,1.0424476E0,6.5877056E-1,0E0,0E0,0E0,0E0,0E0,0E0,0E0,0E0,0E0,0E0,0E0,0E0,0E0,0E0,0E0,0E0],"parents":[2147483647,0,0,1,1,2,2,3,3,4,4,5,5,6,6,7,7,8,8,9,9,10,10,11,11,12,12,13,13,14,14],"right_children":[2,4,6,8,10,12,14,16,18,20,22,24,26,28,30,-1,-1,-1,-1,-1,-1,-1,-1,-1,-1,-1,-1,-1,-1,-1,-1],"split_conditions":[1E-45,5.1E1,1E-45,1E-45,1E-45,4.6E1,1E-45,5E1,1E0,5.2E1,1E-45,1E-45,1E-45,1E-45,1E-45,3.3704657E-2,6.926425E-2,1.6176859E-2,-1.090795E-2,1.01537205E-1,-2.1899983E-2,2.5186182E-3,-2.0517467E-2,1.6740903E-2,-6.404375E-3,5.4597366E-3,1.6369494E-3,-1.0478675E-3,-2.4473153E-3,-7.3239617E-3,-1.4328643E-2],"split_indices":[0,6,0,0,0,6,0,6,8,6,0,0,0,0,0,0,0,0,0,0,0,0,0,0,0,0,0,0,0,0,0],"split_type":[1,0,1,1,1,0,1,0,0,0,1,1,1,1,1,0,0,0,0,0,0,0,0,0,0,0,0,0,0,0,0],"sum_hessian":[7.462E3,5.65E2,6.897E3,4.12E2,1.53E2,1.358E3,5.539E3,1.61E2,2.51E2,2.1E1,1.32E2,1.15E2,1.243E3,5.397E3,1.42E2,1.31E2,3E1,2.15E2,3.6E1,1.2E1,9E0,6.7E1,6.5E1,1E1,1.05E2,4.74E2,7.69E2,3.007E3,2.39E3,7E1,7.2E1],"tree_param":{"num_deleted":"0","num_feature":"14","num_nodes":"31","size_leaf_vector":"1"}},{"base_weights":[1.1230783E-3,3.8039738E-1,-1.6910058E-2,7.7979916E-1,1.0170109E-1,9.658629E-2,-3.1295016E-2,-5.5448294E-1,1.088973E0,6.130875E-1,-7.055159E-2,1.9810608E-1,-2.9385822E-2,-2.2063408E-2,-1.2848797E-1,3.605657E-2,-3.4268867E-2,1.1032539E-1,3.583949E-2,1.1234981E-1,2.6365542E-3,2.0557432E-2,-1.03793675E-2,1.0046895E-1,6.310206E-3,8.208844E-3,-4.4338116E-3,5.395178E-4,-1.499059E-3,-9.106327E-3,-3.5275598E-3],"categories":[0,1,2,3,5,6,7,8,9,10,11,12,13,14,15,16,17,18,19,20,21,22,23,24,25,26,27,28,29,30,31,32,33,34,35,36,37,38,39,40,41,42,43,44,45,46,47,48,49,50,51,52,53,54,55,56,57,59,61,62,63,64,65,66,67,68,69,70,71,72,73,74,75,76,77,78,79,80,81,82,83,84,85,86,87,88,89,90,91,92,93,94,95,96,97,98,99,100,101,102,103,104,105,106,107,108,109,110,111,112,113,114,116,117,118,119,120,123,124,125,126,127,128,129,130,131,132,133,134,135,136,137,138,139,140,141,142,143,144,145,146,147,148,149,150,151,152,153,154,155,156,157,158,159,161,162,163,164,165,166,167,169,170,171,172,173,174,175,176,177,178,179,180,181,182,183,184,185,186,187,188,189,190,191,192,193,195,196,197,0,1,2,3,4,5,7,8,9,10,12,13,14,15,16,18,19,21,23,24,25,26,27,28,29,30,31,32,33,34,35,36,37,38,39,40,41,42,43,44,46,47,49,50,51,52,53,54,55,56,57,58,59,60,61,63,65,66,68,69,70,71,72,73,74,75,76,77,78,79,80,81,82,83,84,87,88,89,90,91,92,93,94,95,96,97,98,99,100,101,102,103,105,106,108,109,110,111,112,113,114,115,116,117,119,120,121,122,123,124,125,126,127,128,129,131,132,133,134,135,136,137,139,140,141,142,143,144,146,147,148,149,150,151,152,153,154,155,156,157,158,159,160,161,162,163,164,165,166,167,168,170,171,172,173,174,175,176,177,178,179,180,181,182,183,184,185,186,187,189,190,191,193,194,195,196,197,28,30,35,41,47,72,82,92,112,126,128,167,172,184,193,58,60,115,121,122,160,168,194,0,1,2,3,5,6,7,8,9,10,11,12,13,14,15,16,17,18,19,20,21,22,23,24,25,26,27,28,29,30,31,32,33,34,35,36,37,38,39,40,41,42,43,44,45,46,47,48,49,50,51,52,53,54,55,56,57,58,59,60,61,62,63,64,65,66,67,68,69,70,71,72,73,74,75,76,77,78,79,80,81,82,83,84,85,86,87,88,89,90,91,92,93,94,95,96,97,98,99,100,101,102,103,104,105,106,107,108,109,110,111,112,113,114,115,116,117,118,119,120,121,122,123,124,125,126,127,128,129,130,131,132,133,134,135,136,137,138,139,140,141,142,143,144,145,146,147,148,149,150,151,152,153,154,155,156,157,158,159,160,161,162,163,164,165,166,167,169,170,171,172,173,174,175,176,177,178,179,180,181,182,183,184,185,186,187,188,189,190,191,192,193,194,195,196,197,0,1,2,3,4,5,6,7,8,9,10,11,12,13,14,15,16,17,18,19,20,21,22,23,24,25,26,27,28,29,30,31,32,33,34,35,36,37,38,39,40,41,42,43,44,45,46,47,48,49,50,51,52,53,54,55,56,57,58,59,60,61,62,63,64,65,66,67,68,69,70,71,72,73,74,75,76,77,78,79,80,81,82,83,84,85,86,87,88,89,90,91,92,93,94,95,96,97,98,99,100,101,102,103,104,105,106,107,108,109,110,111,112,113,114,115,116,117,118,119,120,121,122,123,124,125,126,127,128,129,130,131,132,133,134,135,136,137,138,139,140,141,142,143,144,145,146,147,148,149,150,151,152,153,154,155,156,157,158,159,161,162,163,164,165,166,167,168,169,170,171,172,173,174,175,176,177,178,179,180,181,182,183,184,185,186,187,188,189,190,191,192,193,195,196,197,4,58,115,122,160,168,194,11,17,22,45,48,62,67,104,107,118,130,138,145,169,188,192,0,1,2,3,4,5,6,7,10,11,14,15,16,17,18,20,21,22,23,24,25,26,27,28,29,30,31,32,33,34,35,36,37,38,40,41,42,43,44,45,46,47,48,49,50,51,54,55,56,57,58,59,60,62,63,64,65,66,67,68,69,70,71,72,73,74,75,78,79,80,81,82,83,84,85,86,87,88,89,90,91,92,93,96,97,98,99,100,101,102,103,104,105,106,107,108,109,111,112,113,115,116,118,119,120,121,122,123,124,125,126,127,128,129,130,132,134,135,136,137,138,140,141,142,143,144,145,146,147,149,150,152,153,157,158,159,160,162,163,164,165,166,167,168,169,170,171,172,173,174,175,176,178,179,181,182,183,184,185,186,188,189,190,191,192,193,194,197],"categories_nodes":[0,2,6,7,8,9,10,12,13],"categories_segments":[0,189,366,381,389,585,781,788,804],"categories_sizes":[189,177,15,8,196,196,7,16,168],"default_left":[0,0,0,0,0,0,1,1,0,0,1,0,1,0,0,0,0,0,0,0,0,0,0,0,0,0,0,0,0,0,0],"id":27,"left_children":[1,3,5,7,9,11,13,15,17,19,21,23,25,27,29,-1,-1,-1,-1,-1,-1,-1,-1,-1,-1,-1,-1,-1,-1,-1,-1],"loss_changes":[5.1384792E1,3.7878017E1,1.1712317E1,5.8357346E1,1.7836966E1,1.0326273E1,5.7090416E0,5.0024576E0,4.5834152E1,4.657564E1,1.0118893E1,5.796103E1,4.157543E0,1.5129721E0,1.7025719E0,0E0,0E0,0E0,0E0,0E0,0E0,0E0,0E0,0E0,0E0,0E0,0E0,0E0,0E0,0E0,0E0],"parents":[2147483647,0,0,1,1,2,2,3,3,4,4,5,5,6,6,7,7,8,8,9,9,10,10,11,11,12,12,13,13,14,14],"right_children":[2,4,6,8,10,12,14,16,18,20,22,24,26,28,30,-1,-1,-1,-1,-1,-1,-1,-1,-1,-1,-1,-1,-1,-1,-1,-1],"split_conditions":[1E-45,3E0,1E-45,9E0,4.7E1,4E0,1E-45,1E-45,1E-45,1E-45,1E-45,5E0,1E-45,1E-45,4E0,3.605657E-2,-3.4268867E-2,1.1032539E-1,3.583949E-2,1.1234981E-1,2.6365542E-3,2.0557432E-2,-1.03793675E-2,1.0046895E-1,6.310206E-3,8.208844E-3,-4.4338116E-3,5.395178E-4,-1.499059E-3,-9.106327E-3,-3.5275598E-3],"split_indices":[0,5,0,4,6,5,0,0,0,0,0,4,0,0,5,0,0,0,0,0,0,0,0,0,0,0,0,0,0,0,0],"split_type":[1,0,1,0,0,0,1,1,1,1,1,0,1,1,0,0,0,0,0,0,0,0,0,0,0,0,0,0,0,0,0],"sum_hessian":[7.511E3,3.4E2,7.171E3,1.39E2,2.01E2,8.06E2,6.365E3,2.6E1,1.13E2,5E1,1.51E2,4.46E2,3.6E2,5.814E3,5.51E2,2E0,2.4E1,2.7E1,8.6E1,1.2E1,3.8E1,3.3E1,1.18E2,1.6E1,4.3E2,8.4E1,2.76E2,1.129E3,4.685E3,2.85E2,2.66E2],"tree_param":{"num_deleted":"0","num_feature":"14","num_nodes":"31","size_leaf_vector":"1"}},{"base_weights":[-1.917668E-3,4.94673E-1,-1.6240817E-2,1.3303952E0,-1.0046928E-1,1.0487823E-1,-3.6304574E-2,1.5072902E0,-6.048549E-1,5.8865035E-1,-1.8027185E-1,1.7618932E-1,-6.363676E-2,-2.7826004E-2,-2.2222987E-1,2.5742102E-2,9.878008E-2,-2.6674792E-3,-4.6254408E-2,1.739533E-1,-1.26579255E-2,-1.4555153E-2,-1.7047788E-3,1.0192324E-2,-1.0035309E-2,-2.4612062E-3,-5.035003E-3,-8.669519E-4,-2.740409E-3,-2.1134911E-2,5.9112866E-4],"categories":[0,1,2,3,5,6,7,8,9,10,11,12,13,14,15,16,17,18,19,20,21,22,23,24,25,26,27,28,29,31,32,33,34,35,36,37,38,39,40,41,42,43,44,45,46,47,48,49,50,51,52,53,54,55,56,57,59,60,61,62,63,64,65,66,67,68,69,70,71,72,73,74,75,76,77,78,79,80,81,82,83,84,85,86,87,88,89,90,91,92,93,94,95,96,97,98,99,100,101,102,103,104,105,106,107,108,109,110,111,112,113,114,115,116,117,118,119,120,121,122,123,124,125,127,128,129,130,131,132,133,134,135,136,137,138,139,140,141,142,143,144,145,146,147,148,149,150,151,152,153,154,155,156,157,158,159,160,161,162,163,164,165,166,167,169,170,171,172,173,174,175,176,177,178,179,180,181,182,183,184,185,186,187,188,189,190,191,192,194,195,196,197,0,1,2,3,4,5,7,8,9,10,11,12,13,14,15,16,18,21,22,23,24,25,26,28,29,30,31,32,33,34,35,36,37,38,39,40,41,42,43,44,46,47,48,49,50,51,52,53,54,55,56,57,58,59,60,61,63,65,66,67,68,69,70,71,74,75,77,78,79,80,81,82,83,84,86,87,88,89,90,91,94,95,96,97,98,99,100,101,102,103,105,106,107,108,109,110,111,112,114,115,116,117,118,119,120,123,124,125,126,127,129,132,133,134,135,136,137,138,139,140,141,142,143,144,146,147,148,149,150,151,152,153,154,155,156,157,158,159,162,163,164,165,166,167,168,170,171,173,174,175,176,177,178,179,180,181,182,183,184,185,186,187,189,190,191,192,193,194,195,196,197,22,47,60,112,115,194,196,4,58,126,193,4,58,126,168,193,6,20,64,104,113,122,160,7,11,15,16,18,21,24,29,37,38,41,44,46,48,53,55,67,69,83,89,90,94,103,107,108,116,124,127,133,138,146,149,